tree
version=v3
num_class=1
num_tree_per_iteration=1
label_index=0
max_feature_idx=12
objective=regression
feature_names=Column_0 Column_1 Column_2 Column_3 Column_4 Column_5 Column_6 Column_7 Column_8 Column_9 Column_10 Column_11 Column_12
feature_infos=[-12.640000000000001:93.719999999999999] [0.13:0.97999999999999998] [0.27000000000000002:10] [-32.079999999999998:101.12] [986.39999999999998:1042.46] [0:22.91] [0:1] [0:359] [0:0.191] [-27.239999999999998:75.489999999999995] [0:0.83999999999999997] [1:12] [0:23]
tree_sizes=17565 17928 17858 17949 17993 18031 18102 18056 18159 18246 18216 18257 18295 18360 18308 18373 18426 18469 18453 18467 18547 18470 18475 18435 18538 18544 18479 18546 18550 18500 18609 18530 18608 18659 18564 18579 18679 18608 18691 18691 18734 18719 18724 18732 18792 18771 18896 18819 18909 18844 18940 18818 18911 18821 18825 18940 18922 18957 18878 18748 18830 18829 18938 18839 19021 18806 18848 18837 18886 18808 18905 18927 18981 18938 18969 19060 18916 19021 18908 18979 19059 18973 18949 18944 18953 19125 19049 18831 18988 18982 18879 18971 19101 19099 18924 19026 19092 19036 19094 19064

Tree=0
num_leaves=200
num_cat=0
split_feature=12 12 12 12 11 11 2 0 11 12 9 12 5 3 9 6 6 1 4 4 12 11 12 4 0 11 9 11 9 12 1 9 11 4 7 8 5 4 1 8 12 11 4 5 5 7 2 6 0 4 7 4 9 9 0 7 5 4 4 0 0 1 11 9 0 7 3 3 6 1 1 11 1 3 0 3 11 1 7 1 7 7 4 11 5 11 3 4 6 4 2 1 0 1 0 0 7 4 5 7 11 2 4 1 4 1 5 4 4 1 5 4 9 1 9 1 1 6 0 5 9 1 7 11 1 3 1 8 4 0 2 7 3 0 7 0 7 11 1 3 0 2 4 0 11 2 9 9 1 0 1 0 8 5 0 6 0 0 0 3 3 7 12 1 0 0 9 6 4 5 0 0 1 6 3 4 0 4 12 7 7 7 5 0 7 3 11 1 7 0 6 11 0 1 0 0 1 9 9
split_gain=1916.11 1010.45 174.456 98.9307 98.122 34.4682 37.6755 25.8272 25.0793 22.8842 19.46 18.1398 18.1185 15.9468 22.3611 15.7003 13.2545 24.214 14.7733 13.4902 13.0566 11.9978 11.2827 12.1201 9.98996 9.6088 8.97857 8.65166 8.64643 8.459 7.43829 7.36258 7.25377 7.14186 7.06516 6.97138 6.74776 7.93783 7.77064 12.3469 6.54371 6.53846 6.44335 6.17968 6.14481 6.13351 7.19927 6.06546 6.89358 5.74313 7.13692 9.97259 7.12119 6.79181 5.71456 5.58932 5.5162 5.30798 6.33661 5.30156 5.28059 5.27558 5.09564 7.45907 7.39587 7.3577 6.66647 6.24934 5.77899 4.83803 4.80596 4.80386 4.52137 4.44355 4.31238 7.61527 4.30507 4.04339 4.707 6.64647 3.96923 3.92352 3.89346 3.83381 3.82616 3.81185 3.76356 3.75194 3.84002 5.8577 3.72353 5.65334 3.69698 3.68693 3.66246 6.63575 4.64976 4.35977 4.33562 5.05923 4.9555 4.20492 4.0193 8.19702 3.75604 3.52379 3.47242 3.46468 5.01811 3.45028 3.42292 3.38548 5.78205 3.78508 3.47677 5.51351 4.9675 7.73522 5.28012 4.26744 6.83898 3.32747 3.30399 3.26885 5.08711 4.86746 3.45269 3.18982 3.17418 3.15597 3.08979 3.00904 3.817 3.00834 2.96551 3.62294 2.90406 2.89385 3.75343 2.87091 2.86056 2.81798 2.81374 2.80039 2.78664 2.77473 7.41296 5.30027 2.76807 2.76479 2.74694 2.74065 2.68009 4.76958 2.60634 4.10789 2.54697 2.51849 2.51291 2.49718 2.47863 2.47207 2.46881 2.45074 2.4342 2.42658 2.42184 2.34447 2.45551 4.16307 3.23765 3.94149 3.04191 2.84309 2.73524 2.94543 2.51191 2.37251 2.31907 2.30294 2.25331 2.20895 2.15942 2.14892 2.14838 2.14814 2.14654 2.1347 2.12424 2.39004 2.14649 2.1191 2.6562 2.08554 2.07753 2.04541 2.04165 2.03902 3.7534
threshold=12.500000000000002 19.500000000000004 13.500000000000002 20.500000000000004 9.5000000000000018 2.5000000000000004 5.1850000000000014 44.365000000000002 9.5000000000000018 18.500000000000004 22.850000000000005 21.500000000000004 14.975000000000003 44.840000000000011 56.475000000000001 0.075000000000000025 0.60500000000000009 0.89500000000000013 1010.0850000000002 1031.1900000000003 11.500000000000002 9.5000000000000018 18.500000000000004 1024.6350000000004 46.215000000000011 11.500000000000002 31.975000000000005 7.5000000000000009 25.105000000000004 14.500000000000002 0.30500000000000005 2.4350000000000005 5.5000000000000009 1001.9650000000001 312.50000000000006 0.022600000000000006 14.975000000000003 1019.8650000000001 0.80500000000000016 1.0000000180025095e-35 17.500000000000004 2.5000000000000004 1023.4100000000001 9.5050000000000008 7.3450000000000006 289.50000000000006 9.9850000000000012 0.15500000000000003 35.285000000000004 1010.9450000000002 327.50000000000006 1013.6450000000001 30.750000000000004 27.895000000000003 15.700000000000001 304.50000000000006 9.8650000000000002 1017.3150000000002 1001.5050000000001 69.320000000000007 21.100000000000005 0.74500000000000011 10.500000000000002 26.235000000000003 29.680000000000003 241.50000000000003 43.845000000000006 42.915000000000006 0.045000000000000005 0.68500000000000016 0.31500000000000006 3.5000000000000004 0.62500000000000011 35.060000000000009 34.570000000000007 28.355000000000004 9.5000000000000018 0.67500000000000016 174.50000000000003 0.44500000000000006 154.50000000000003 340.50000000000006 1013.0000000000001 1.5000000000000002 1.6250000000000002 1.5000000000000002 19.385000000000002 994.73500000000013 0.26500000000000007 1025.0550000000001 9.8750000000000018 0.66500000000000015 48.565000000000005 0.82500000000000007 72.075000000000003 61.015000000000008 23.500000000000004 1009.1250000000001 4.0850000000000009 250.50000000000003 5.5000000000000009 9.8050000000000015 1019.3850000000001 0.51500000000000012 1015.9050000000001 0.30500000000000005 11.895000000000001 1015.6050000000001 1014.9050000000001 0.62500000000000011 10.935 1027.5200000000002 26.605000000000004 0.64500000000000013 31.355000000000004 0.6150000000000001 0.41500000000000004 0.03500000000000001 39.020000000000003 3.8550000000000004 36.82500000000001 0.64500000000000013 222.50000000000003 8.5000000000000018 0.32500000000000007 47.610000000000007 0.6150000000000001 0.0079500000000000022 1012.5850000000002 48.795000000000009 9.8450000000000006 39.500000000000007 37.235000000000007 39.020000000000003 172.50000000000003 51.140000000000008 31.500000000000004 3.5000000000000004 0.90500000000000014 70.935000000000016 55.275000000000013 3.9850000000000008 1026.3000000000002 39.445000000000007 4.5000000000000009 9.9550000000000018 53.275000000000013 43.285000000000004 0.35500000000000004 29.375000000000004 0.75500000000000012 41.535000000000004 0.0013500000000000003 8.0450000000000017 12.515000000000002 0.045000000000000005 74.905000000000015 19.785000000000004 52.660000000000004 32.375000000000007 32.375000000000007 217.50000000000003 17.500000000000004 0.53500000000000014 74.25500000000001 35.935000000000009 11.425000000000002 0.38500000000000006 1021.4050000000001 8.1650000000000009 35.735000000000007 55.565000000000005 0.37500000000000006 0.055000000000000007 69.915000000000006 1017.4750000000001 61.525000000000013 1025.0550000000001 14.500000000000002 197.50000000000003 192.50000000000003 91.500000000000014 5.3950000000000005 53.760000000000012 145.50000000000003 23.235000000000003 8.5000000000000018 0.82500000000000007 226.50000000000003 27.790000000000003 0.115 3.5000000000000004 48.795000000000009 0.49500000000000005 50.565000000000005 40.865000000000002 0.30500000000000005 15.935 31.745000000000001
decision_type=2 2 2 2 2 2 2 2 2 2 2 2 2 2 2 2 2 2 2 2 2 2 2 2 2 2 2 2 2 2 2 2 2 2 2 2 2 2 2 2 2 2 2 2 2 2 2 2 2 2 2 2 2 2 2 2 2 2 2 2 2 2 2 2 2 2 2 2 2 2 2 2 2 2 2 2 2 2 2 2 2 2 2 2 2 2 2 2 2 2 2 2 2 2 2 2 2 2 2 2 2 2 2 2 2 2 2 2 2 2 2 2 2 2 2 2 2 2 2 2 2 2 2 2 2 2 2 2 2 2 2 2 2 2 2 2 2 2 2 2 2 2 2 2 2 2 2 2 2 2 2 2 2 2 2 2 2 2 2 2 2 2 2 2 2 2 2 2 2 2 2 2 2 2 2 2 2 2 2 2 2 2 2 2 2 2 2 2 2 2 2 2 2 2 2 2 2 2 2
left_child=20 2 7 8 5 6 178 159 41 12 33 24 16 22 26 31 19 18 152 29 -1 71 23 25 -5 43 -15 28 -20 30 133 121 55 -6 86 134 37 38 39 44 74 127 -36 62 57 46 -46 -41 130 52 51 180 150 54 -53 160 -48 58 -17 131 -39 -52 63 -12 65 -64 68 -65 -66 -44 -42 -9 166 -22 110 -76 -26 78 -56 195 164 87 -40 -81 -72 109 154 -77 94 137 -60 92 -92 165 95 97 128 101 99 184 104 -89 187 -104 -100 -11 111 108 -102 -47 188 114 -113 -114 116 119 117 151 -119 -116 181 157 -93 124 -73 -126 -125 129 -97 -3 -49 132 -19 -7 -30 182 -62 138 -90 167 -115 -117 197 -88 -83 147 161 -28 -108 -67 -33 -99 -18 -154 -35 162 -107 -8 -29 -2 -14 -147 -156 -34 -32 -79 -59 168 170 176 -86 172 -172 -174 175 -173 -170 -171 -4 -148 -51 -121 -136 -122 -98 -124 191 196 190 -190 -31 -75 -193 -58 -54 -80 -96 -82 -199
right_child=1 3 4 11 10 9 15 21 -10 105 13 -13 32 14 -16 36 17 59 27 -21 73 -23 -24 -25 76 -27 145 158 35 40 80 49 163 34 42 -37 -38 60 82 47 70 -43 69 -45 45 85 56 48 -50 50 61 53 194 -55 77 -57 193 72 90 -61 136 -63 64 67 66 149 -68 -69 -70 -71 84 123 -74 186 75 81 -78 93 79 83 142 144 -84 -85 139 -87 143 88 89 -91 91 122 -94 -95 102 96 98 106 100 -101 107 -103 103 -105 -106 156 148 -109 -110 -111 -112 112 113 140 115 141 -118 118 -120 120 183 -123 185 126 125 -127 -128 -129 -130 -131 -132 -133 -134 -135 135 -137 -138 -139 -140 -141 -142 -143 -144 -145 -146 146 179 -149 -150 -151 -152 -153 153 -155 155 -157 -158 -159 -160 -161 -162 -163 -164 -165 -166 -167 -168 -169 169 177 171 174 173 -175 -176 -177 -178 -179 -180 -181 -182 -183 -184 -185 -186 -187 -188 -189 189 -191 -192 192 -194 -195 -196 -197 -198 198 -200
leaf_value=0.068900357668266549 0.073426562631553255 0.076389701886538208 0.098065212489275896 0.071015448375369508 0.099427936297587935 0.10684811524556623 0.094942485075278832 0.077142353751813567 0.072762485832086374 0.10178636657821176 0.1001926951402278 0.069652688269211796 0.082987591302888408 0.095587500066188449 0.10001684866506499 0.10888167984604114 0.073187100571960761 0.11116632014607089 0.078398114730538399 0.076978256559932498 0.069503622528179432 0.072863447731161449 0.081874833848447501 0.1004990654457988 0.077160953083078576 0.080660693593517518 0.095132747819541452 0.095602383613215353 0.10304096639473002 0.10591138237740601 0.088542042717582786 0.073495770915763717 0.10296996598834252 0.070563552401505886 0.07788878342492786 0.076662489229670755 0.074052094132989937 0.10164246452393619 0.07781414154264446 0.073220301771160276 0.10760624355051787 0.08435583714638642 0.099806561901659582 0.099199844770959833 0.1038046902320225 0.092692448017968915 0.076835944303532785 0.075336778196196913 0.11241151327937421 0.099103330258412684 0.078132443895643236 0.10930557433804231 0.1053516444406544 0.072803757341875427 0.096952051556733185 0.100518285923483 0.099426702055581545 0.099643506933053946 0.074752815761905636 0.083893453241616331 0.091944873949612815 0.11428630480560797 0.074193472118109602 0.079282521478125048 0.082374277647793273 0.099407157000594576 0.074576662357092718 0.098953652770825934 0.098549752104673566 0.074199856167958433 0.087142066440787605 0.074037154191881185 0.10873985319594963 0.069971554811684336 0.071755095446697184 0.071551596133440018 0.069324250746066365 0.10396846770274056 0.098443119967995152 0.087716782321528505 0.080288742991852499 0.11076792222116724 0.10793336524655528 0.076341621846341842 0.10829137992919605 0.072529648102884564 0.073716257070475952 0.10124860017303978 0.098744570155840233 0.079005007910583389 0.078903328130277409 0.085248903222218286 0.10008630009588579 0.079960257976672236 0.089817414683115659 0.071116308397521755 0.079664173848991007 0.090622737829549438 0.10207516536806299 0.079382610294409336 0.10115355886481604 0.080876166589332887 0.099906869927496353 0.080762234591309379 0.082897604880611334 0.088988218768238869 0.07489859509189685 0.10471129530537876 0.080918346777341041 0.073693873710301117 0.069412165316509941 0.07734714059920321 0.073617986223357912 0.10561516427736005 0.07828699290376899 0.083395754161448662 0.11019359327455143 0.11841694819354455 0.076630910294622476 0.11243898791408262 0.080322365419463179 0.11608275016900672 0.092484920265756124 0.090900654157981237 0.097027115418446552 0.086473550877259192 0.077813004114385534 0.090031107568145863 0.089048051958090083 0.093411829137891006 0.10977790577400928 0.10805519972657707 0.093770990988737951 0.077920158738420772 0.097674080955406709 0.10091821940494392 0.073449397462693383 0.10362301662407977 0.072928930975564063 0.098361418400403147 0.073299031923281882 0.10133074722651594 0.081528396960892244 0.10078151044924906 0.10100915591041287 0.076004275760993084 0.10055136670749484 0.073384929486434311 0.10177845831714745 0.073412433298992844 0.091213924059642654 0.11088485723763788 0.078670579809462973 0.1008380433423598 0.094448166892953864 0.078135179070698266 0.093039270783583636 0.10831313043444588 0.077368138856637819 0.077965306084542677 0.071183027453741429 0.083800640385819677 0.079455019624985468 0.086151146080280169 0.098225292179961704 0.078084715783490202 0.073703914568286802 0.10544037879008153 0.10106202354957566 0.10145149225322607 0.10599987618957654 0.10032281231771292 0.079316533845387421 0.089720198934924375 0.086329449971485298 0.089515609051153799 0.084169032050667988 0.073251750415051886 0.11194475854579304 0.076395281933315337 0.11662595756693833 0.087407669296161103 0.079636321467851795 0.1132179616817453 0.095581433834481921 0.10652348555073439 0.070788387988579171 0.088356781984863103 0.086792066181193603 0.11248746137930866 0.087311522814990092 0.080753088279896204 0.074146688071519543 0.087050683730341416 0.084473684631196894 0.081357159557764985 0.10233491587107837 0.10454046475096684 0.095922218668341094
leaf_weight=169158 3885 2060 144 6108 181 40 612 721 3014 262 278 27992 295 334 642 141 554 177 278 331 4588 930 1457 1246 7166 990 122 91 915 195 1245 461 207 212 409 148 504 84 928 63 312 8556 390 851 238 242 502 88 403 114 488 201 141 176 733 105 196 73 222 144 95 44 387 1110 251 248 147 189 1840 91 580 300 274 1020 105 52 777 508 519 769 75 410 45 482 115 587 1934 166 384 111 547 220 97 87 135 123 94 85 150 313 384 260 831 306 320 6175 103 891 180 158 25 178 51 315 179 90 756 36 189 38 22 117 197 262 480 4881 874 216 500 115 37 805 439 355 102 361 798 2687 66 2406 30 3294 126 39 1022 1258 222 1376 61 49 108 311 547 118 341 818 2073 183 446 1762 448 601 162 149 328 39 71 172 951 42 77 783 447 637 315 372 97 103 734 48 206 488 190 204 866 244 2526 120 39 504 91 687 5333 446 72 81 3743 570 4455
leaf_count=169158 3885 2060 144 6108 181 40 612 721 3014 262 278 27992 295 334 642 141 554 177 278 331 4588 930 1457 1246 7166 990 122 91 915 195 1245 461 207 212 409 148 504 84 928 63 312 8556 390 851 238 242 502 88 403 114 488 201 141 176 733 105 196 73 222 144 95 44 387 1110 251 248 147 189 1840 91 580 300 274 1020 105 52 777 508 519 769 75 410 45 482 115 587 1934 166 384 111 547 220 97 87 135 123 94 85 150 313 384 260 831 306 320 6175 103 891 180 158 25 178 51 315 179 90 756 36 189 38 22 117 197 262 480 4881 874 216 500 115 37 805 439 355 102 361 798 2687 66 2406 30 3294 126 39 1022 1258 222 1376 61 49 108 311 547 118 341 818 2073 183 446 1762 448 601 162 149 328 39 71 172 951 42 77 783 447 637 315 372 97 103 734 48 206 488 190 204 866 244 2526 120 39 504 91 687 5333 446 72 81 3743 570 4455
internal_value=0.0760563 0.0842674 0.0903753 0.0735463 0.0920988 0.0938927 0.0895896 0.0800785 0.0808399 0.0951066 0.0856032 0.0711243 0.0960452 0.0874958 0.0827043 0.0882973 0.0963939 0.0917288 0.0873685 0.0970744 0.0691445 0.0835782 0.0899347 0.0914827 0.0740561 0.0897107 0.0798983 0.0917244 0.0947584 0.0972587 0.0941902 0.0920465 0.083951 0.0799607 0.0791591 0.0974089 0.0852274 0.0860325 0.0873896 0.0889674 0.0980222 0.0830639 0.087116 0.0913854 0.0871657 0.0836807 0.0879808 0.102548 0.106048 0.0906004 0.0919902 0.0934669 0.0826974 0.0919612 0.0929473 0.0789219 0.0846887 0.0911235 0.0885983 0.102177 0.0776718 0.0811226 0.0899073 0.0853262 0.0923796 0.0832793 0.095161 0.0821446 0.0966081 0.0949621 0.0954592 0.0849037 0.1012 0.0720621 0.0989053 0.0986173 0.0763944 0.0919256 0.0901697 0.0874839 0.0949652 0.0987545 0.0792071 0.083334 0.0949252 0.0776597 0.0771393 0.0983763 0.0984495 0.101581 0.0867254 0.0887621 0.0820939 0.0990817 0.0978061 0.0967507 0.0934113 0.0986118 0.094951 0.0904232 0.0979452 0.0888147 0.100001 0.0947545 0.0890181 0.0903691 0.0992609 0.100829 0.0946955 0.085188 0.105869 0.0996368 0.0923172 0.0990461 0.100375 0.0989788 0.10475 0.098123 0.0833167 0.0921639 0.095467 0.100337 0.0952587 0.085727 0.0867093 0.0874185 0.0808315 0.0784408 0.0855078 0.0772897 0.0855314 0.10403 0.0987693 0.0808496 0.0993671 0.0942192 0.075417 0.10238 0.0949583 0.0956179 0.102805 0.100854 0.0962908 0.0742513 0.103803 0.0784535 0.0807736 0.0751561 0.0848966 0.0951185 0.0768588 0.106536 0.0783243 0.0826041 0.0808562 0.082508 0.0900064 0.0980203 0.0804581 0.0748428 0.0758699 0.0785248 0.0896194 0.0959306 0.0905612 0.102123 0.0868538 0.0940122 0.0935132 0.0973012 0.0918675 0.0911496 0.0867944 0.0854301 0.0945894 0.0968421 0.0994985 0.08142 0.109668 0.096257 0.110384 0.089216 0.0859372 0.110016 0.0940229 0.100252 0.0732892 0.101493 0.106968 0.110642 0.0999932 0.0741865 0.0749006 0.090829 0.0982943 0.0961365 0.101899 0.0966555 0.0968998
internal_weight=0 154307 98303 56004 84208 65985 14519 14095 13961 51466 18223 42043 42956 13646 4603 13641 41752 5315 3750 36437 183312 8448 9043 7586 14051 6340 3961 2531 1994 36106 7194 6141 1204 4577 4396 1716 7500 6996 6019 5046 28912 10947 890 5350 4455 2369 1382 591 528 5229 4447 3915 782 3595 3419 848 1144 2086 1668 1565 977 532 4499 1577 2922 684 2238 1299 2091 481 7409 7518 418 14154 21503 20649 7943 3218 2584 1851 6799 20544 973 1251 7097 987 3506 19112 19060 3248 1527 1305 644 634 15812 10677 3821 6856 3198 1273 1925 426 5135 1137 470 8510 6430 1455 564 400 854 6266 574 396 5692 4315 1377 621 225 931 752 912 661 6797 5661 5361 1136 2391 623 2175 125 1421 616 395 1568 653 893 3137 450 6517 345 3384 5226 1973 1432 3627 2129 1498 164 297 569 396 1219 665 1533 1321 8248 795 537 5647 743 1859 503 356 1573 547 144 4111 3939 1193 2746 2631 1161 1084 1470 1155 1048 145 878 270 320 526 292 226 960 441 9566 3998 829 543 286 7040 6020 642 213 600 3878 5100 5025
internal_count=337619 154307 98303 56004 84208 65985 14519 14095 13961 51466 18223 42043 42956 13646 4603 13641 41752 5315 3750 36437 183312 8448 9043 7586 14051 6340 3961 2531 1994 36106 7194 6141 1204 4577 4396 1716 7500 6996 6019 5046 28912 10947 890 5350 4455 2369 1382 591 528 5229 4447 3915 782 3595 3419 848 1144 2086 1668 1565 977 532 4499 1577 2922 684 2238 1299 2091 481 7409 7518 418 14154 21503 20649 7943 3218 2584 1851 6799 20544 973 1251 7097 987 3506 19112 19060 3248 1527 1305 644 634 15812 10677 3821 6856 3198 1273 1925 426 5135 1137 470 8510 6430 1455 564 400 854 6266 574 396 5692 4315 1377 621 225 931 752 912 661 6797 5661 5361 1136 2391 623 2175 125 1421 616 395 1568 653 893 3137 450 6517 345 3384 5226 1973 1432 3627 2129 1498 164 297 569 396 1219 665 1533 1321 8248 795 537 5647 743 1859 503 356 1573 547 144 4111 3939 1193 2746 2631 1161 1084 1470 1155 1048 145 878 270 320 526 292 226 960 441 9566 3998 829 543 286 7040 6020 642 213 600 3878 5100 5025
is_linear=0
shrinkage=1


Tree=1
num_leaves=200
num_cat=0
split_feature=12 12 12 12 11 11 2 0 11 12 9 12 5 3 9 6 6 1 4 4 12 11 12 4 11 11 11 8 9 12 1 9 11 4 3 7 0 4 6 9 5 7 7 12 4 5 6 0 4 5 12 0 7 0 5 9 0 5 4 4 9 9 11 4 3 0 4 1 1 11 11 0 0 3 5 0 3 0 7 11 3 9 6 0 7 7 4 9 5 11 9 11 1 0 9 4 4 6 8 1 4 6 3 5 3 5 5 7 4 4 7 2 5 9 1 5 11 4 1 1 4 5 12 1 11 1 0 1 9 9 1 9 6 6 6 7 0 7 1 12 1 7 8 0 1 11 7 9 0 0 11 3 3 11 6 4 2 9 9 9 9 9 7 9 0 4 4 11 5 8 4 1 12 6 8 1 0 11 4 8 5 4 8 2 0 3 11 0 3 12 4 1 7 7 9 4 5 11 9
split_gain=1552.05 818.467 141.309 80.1339 79.4788 27.9192 30.5172 20.92 20.3142 18.5362 15.7626 14.6932 14.676 12.9169 18.1125 12.7172 10.7361 19.6134 11.9663 10.927 10.5758 9.71818 9.13899 9.81726 8.33896 7.92951 7.78313 7.29503 7.27264 6.85179 6.02502 5.96369 5.87556 5.78491 5.74186 5.72278 5.53202 11.7655 6.34705 9.71015 6.40316 7.05021 5.58263 5.3004 5.21911 5.00554 4.82015 6.08843 4.81422 4.79073 4.72241 4.71937 4.52735 4.29426 4.16304 4.05452 3.99808 4.82317 3.95749 4.538 5.64392 6.25334 7.32947 6.96997 5.01229 4.14915 4.04951 3.9188 3.89283 3.89113 3.84615 3.87432 3.73079 3.59927 3.59489 3.49303 6.16837 3.47423 5.95974 4.94372 5.39984 5.03547 4.68098 4.36951 3.26679 3.18648 4.27745 5.45054 4.21471 3.87045 6.51868 3.75431 6.5024 5.24053 7.10098 3.7632 3.59182 3.3784 5.18422 3.21097 5.06927 3.25848 3.17158 3.09919 3.0867 3.07851 3.06716 4.98978 4.50626 3.82 3.5739 4.19315 3.01803 3.16143 2.98948 2.95828 2.90024 2.90018 3.73708 2.85427 2.77946 2.77256 2.75231 2.69525 2.64777 4.12056 4.06231 2.79668 2.62743 4.57888 4.34797 4.19096 5.17844 2.62367 2.61009 2.5742 2.85184 2.50571 2.50001 2.49144 2.48912 2.43732 3.1953 2.43675 2.41089 3.45438 2.4025 2.37099 3.10471 2.35081 2.3357 2.32544 2.31985 2.29798 2.29537 2.8548 4.0363 4.73387 3.48907 2.28647 2.28257 3.30434 2.52026 2.28139 2.28029 4.47136 2.85649 2.77748 4.05311 3.10816 2.86761 2.2705 3.23173 2.26751 2.26408 2.23689 2.22647 2.19165 2.27386 2.17087 3.86336 2.09899 2.09541 2.05041 2.03998 2.03956 2.03068 2.0113 2.00769 2.00594 1.99291 1.9851 1.98442 1.98293 1.96282 1.93641 1.93621 1.93364 4.42293
threshold=12.500000000000002 19.500000000000004 13.500000000000002 20.500000000000004 9.5000000000000018 2.5000000000000004 5.1850000000000014 44.365000000000002 9.5000000000000018 18.500000000000004 22.850000000000005 21.500000000000004 14.975000000000003 44.840000000000011 56.475000000000001 0.075000000000000025 0.60500000000000009 0.89500000000000013 1010.0850000000002 1031.1900000000003 11.500000000000002 9.5000000000000018 18.500000000000004 1024.6350000000004 9.5000000000000018 2.5000000000000004 11.500000000000002 0.0074500000000000009 31.975000000000005 14.500000000000002 0.30500000000000005 2.4350000000000005 5.5000000000000009 1001.9650000000001 55.240000000000002 312.50000000000006 48.565000000000005 999.63000000000011 0.89500000000000013 27.465000000000003 7.2550000000000008 286.50000000000006 287.50000000000006 17.500000000000004 1023.4100000000001 9.5050000000000008 0.30500000000000005 36.835000000000008 1023.1450000000001 8.6650000000000009 18.500000000000004 6.0650000000000004 304.50000000000006 69.320000000000007 8.9450000000000021 2.4350000000000005 57.945000000000007 4.5850000000000009 1031.1900000000003 1010.9450000000002 27.895000000000003 22.005000000000006 1.5000000000000002 1021.6650000000001 31.670000000000005 16.845000000000002 1023.5050000000001 0.68500000000000016 0.31500000000000006 3.5000000000000004 1.5000000000000002 24.755000000000006 66.020000000000024 35.060000000000009 12.425000000000002 34.570000000000007 28.355000000000004 29.680000000000003 241.50000000000003 10.500000000000002 43.845000000000006 26.235000000000003 0.045000000000000005 45.760000000000012 37.500000000000007 302.50000000000006 1019.2550000000001 56.255000000000003 3.2650000000000001 4.5000000000000009 28.760000000000002 3.5000000000000004 0.50500000000000012 51.140000000000008 42.000000000000007 995.87500000000011 1008.5050000000001 0.18500000000000003 0.0015500000000000004 0.62500000000000011 1019.6750000000001 0.03500000000000001 39.235000000000007 1.6250000000000002 21.265000000000004 7.4150000000000009 4.1250000000000009 276.50000000000006 1015.5150000000001 1014.9050000000001 52.500000000000007 8.3850000000000033 1.6250000000000002 22.005000000000006 0.82500000000000007 5.9450000000000012 8.5000000000000018 1027.0850000000003 0.57500000000000007 0.30500000000000005 1013.1550000000001 10.935 14.500000000000002 0.64500000000000013 8.5000000000000018 0.32500000000000007 46.935000000000009 0.6150000000000001 20.895000000000003 25.970000000000002 0.30500000000000005 26.795000000000005 0.025000000000000005 0.10500000000000002 0.10500000000000002 299.50000000000006 12.515000000000002 351.50000000000006 0.90500000000000014 17.500000000000004 0.80500000000000016 39.500000000000007 0.066500000000000017 39.020000000000003 0.57500000000000007 7.5000000000000009 296.50000000000006 55.115000000000002 69.745000000000019 39.445000000000007 1.5000000000000002 70.935000000000016 29.350000000000005 6.5000000000000009 0.34500000000000003 1015.9050000000001 9.9550000000000018 46.230000000000011 44.655000000000008 55.115000000000002 31.745000000000001 15.935 358.50000000000006 6.4300000000000006 55.275000000000013 1021.4050000000001 1027.7200000000003 3.5000000000000004 7.5150000000000006 0.0024500000000000004 1019.6750000000001 0.66500000000000015 17.500000000000004 0.025000000000000005 0.0080500000000000016 0.55500000000000016 27.085000000000004 3.5000000000000004 1018.8350000000002 0.0013500000000000003 8.0450000000000017 1022.7250000000001 0.0011500000000000002 9.9850000000000012 19.785000000000004 31.915000000000003 1.5000000000000002 63.785000000000004 32.375000000000007 18.500000000000004 1020.1650000000001 0.53500000000000014 65.500000000000014 293.50000000000006 31.975000000000005 1008.3650000000001 9.7450000000000028 3.5000000000000004 23.075000000000003
decision_type=2 2 2 2 2 2 2 2 2 2 2 2 2 2 2 2 2 2 2 2 2 2 2 2 2 2 2 2 2 2 2 2 2 2 2 2 2 2 2 2 2 2 2 2 2 2 2 2 2 2 2 2 2 2 2 2 2 2 2 2 2 2 2 2 2 2 2 2 2 2 2 2 2 2 2 2 2 2 2 2 2 2 2 2 2 2 2 2 2 2 2 2 2 2 2 2 2 2 2 2 2 2 2 2 2 2 2 2 2 2 2 2 2 2 2 2 2 2 2 2 2 2 2 2 2 2 2 2 2 2 2 2 2 2 2 2 2 2 2 2 2 2 2 2 2 2 2 2 2 2 2 2 2 2 2 2 2 2 2 2 2 2 2 2 2 2 2 2 2 2 2 2 2 2 2 2 2 2 2 2 2 2 2 2 2 2 2 2 2 2 2 2 2 2 2 2 2 2 2
left_child=20 2 7 8 5 6 190 185 34 12 33 24 16 22 28 31 19 18 179 29 -1 69 23 26 25 -5 45 48 -15 30 143 123 52 -6 150 104 38 -38 40 -40 41 112 55 75 -37 54 47 -43 49 122 58 -44 188 141 77 -42 57 -29 59 64 61 62 63 65 140 -61 74 -46 -45 -9 71 -53 -58 -22 -63 121 -77 78 -12 81 82 -79 194 105 159 86 91 97 99 -90 -91 92 -78 -93 -95 -96 153 128 -99 100 -87 -101 -65 -70 135 -83 107 147 109 110 111 -108 -17 171 -89 -64 144 160 -119 -11 -103 -31 -20 184 125 -71 -127 -126 130 -130 173 132 -131 -57 -94 136 -35 -122 -136 -138 -33 142 195 -7 145 -112 -117 187 192 -106 -3 197 -80 -97 155 156 158 -158 -30 -32 161 -86 -163 -67 165 167 -166 168 -121 170 175 -114 -173 -88 177 -169 -165 178 -162 -18 -181 -167 196 -49 -8 -2 -66 -98 -14 -16 -4 -34 -149 -52 -81 -19 -135 -105 -199
right_child=1 3 4 11 10 9 15 21 -10 119 13 -13 32 14 189 36 17 53 27 -21 73 -23 -24 -25 -26 -27 -28 56 154 43 84 50 191 35 -36 44 37 -39 39 -41 42 46 51 68 67 -47 -48 183 -50 -51 193 70 -54 -55 -56 133 72 -59 -60 60 -62 66 115 102 186 163 -68 -69 103 124 -72 -73 -74 -75 -76 76 85 79 152 80 -82 83 -84 -85 117 88 87 114 89 90 -92 93 134 94 95 96 106 98 -100 101 -102 120 -104 151 149 -107 108 -109 -110 -111 116 -113 113 -115 -116 146 -118 118 -120 164 137 -123 -124 -125 127 126 -128 -129 129 131 -132 -133 -134 182 138 -137 139 -139 -140 -141 -142 -143 -144 -145 -146 -147 -148 148 -150 -151 -152 -153 -154 -155 -156 -157 157 -159 -160 -161 174 162 -164 176 166 181 -168 169 -170 -171 -172 172 -174 -175 -176 -177 -178 -179 -180 180 -182 -183 -184 -185 -186 -187 -188 -189 -190 -191 -192 -193 -194 -195 -196 -197 -198 198 -200
leaf_value=-0.0064403765807465154 -0.002476774823451015 0.00025509844897585377 0.026241575904776694 -0.0056103255410550126 0.021034443800373632 0.027712604515254497 0.016997538192329565 0.00097741973424916796 -0.0029644614054043835 0.023157031347847169 -0.0016765737683570631 -0.0057632791262300495 0.0062381334869700128 0.017578051571558582 0.02370343353333218 -0.0066968789478396157 -0.0025823081327264056 0.032087387582508939 0.015440235326402924 0.00082973229233791008 -0.0058974383353823526 -0.0028735956806845661 0.0052366518953801677 0.021998460404649617 -0.0064453353606507367 0.00089173338713218408 0.0041439254375599732 0.036158153712749483 0.017168774458839266 0.027820682800329372 0.013863888792557545 -0.0020657721067811872 0.024222270680078564 -0.0049435014698109682 0.0086751434545451755 0.0016492063724330552 0.002924554647954377 0.02708896156991758 -0.0024872335555431034 0.029636195620671175 0.02947401570799273 0.027241441224577275 0.02302751976641871 0.028394921466585801 0.02137520757247097 0.020829162077912453 0.004537393052472972 0.028481889034018798 0.0080891935525333365 0.0078954751348333206 0.010191163846303627 0.016655554066830586 0.022015758696056549 0.0070534092768664569 -0.0035843525950323783 -0.0019677055377555698 0.026073036231554866 0.00028350354662442709 0.00030761288150591109 -0.0022511602130564404 -0.0026301313297493229 0.032297501317898873 0.012514992598012628 0.028104687640349096 0.0089684590612023381 0.0096809794616403884 0.0092965938157480426 -0.0016708280470613696 0.0099771608503792311 -0.0018172598540162046 -0.0037953575667559886 -0.0026490733493690147 -0.0016430417482890492 -0.0024904538243802716 0.0027485810145218342 -0.0038711127409312342 0.028504406974088178 0.02172272689724274 0.020438255343140841 0.017411968052632863 -0.0013317024810231754 7.0242951446512745e-05 0.0202440781117279 0.02060758857642887 0.0038091701914866765 0.034546682048351207 0.030136256848202377 0.0059240117823309308 0.030660169473932894 -0.00010717952908398271 0.023969368955122604 0.029723895492900377 0.0038358801191987705 0.0057245527283930186 -0.0068335992858764979 0.030054301428360498 0.025797612183724596 0.0083234378116986332 0.037536226277766024 0.029498364004500083 -0.0032128157764705133 0.025887247976105185 0.0051603747951792858 0.020951872164470468 -0.0025792872596897888 0.012250933596543724 0.036945574805140498 0.0049158559483045662 0.025719750342677247 0.0075109491741998094 0.021436649979754901 0.00076917291543683651 0.0063599872658420854 0.0033982938811479902 0.017562486636126862 -0.0050876136349446224 0.0069130500137318104 -0.0035814506797673383 0.025792105309665206 0.007051887451366954 0.0076298708139356979 -0.0059797498136758805 0.026911557289644963 0.036023775787435028 0.013359889814044521 0.021695131178281896 0.0095652398473505679 0.0015810051447656211 0.031918625408485973 -0.0012718534790210371 7.9020941116305708e-05 0.02072641546681089 0.033502442230071337 0.0030378713393274357 0.018029276214286953 -0.0039508015579248308 0.011201132693948845 0.023959635241234747 -0.0028146608422199887 0.001921267888566574 0.02361964033473106 0.028798980656201425 0.0015265547300282961 0.0016774442598808223 0.025622797159445022 0.0052870187242637125 0.0117085650711405 0.0028664376855557488 0.021302967661885202 0.022252660493055978 0.005168174532936002 0.020074577149610945 -0.006641011923137638 0.018670204261944205 -0.0049678839319032293 0.00021361778858945465 0.0013212955386376108 0.018363510991338459 -0.001117316378254656 0.00096825451729802732 -0.0020488742369644602 0.027595340756635212 -0.00041723276560386532 0.02229600672694243 0.014239999094596292 0.023638255098804593 -0.0027498944519441532 0.00059579094850418233 0.023092367019563676 -0.0056671702824754233 -0.0014215287784162653 0.02465577935312863 0.0091481501306520923 0.0050270437310888051 0.023370487338473793 0.012612088915507177 0.00695139415539376 0.017157806083322524 0.025106586835214068 0.002352823164061621 0.022303540447763351 0.013259042281680867 0.023218617913989877 0.0013956982203815608 0.029031117773446882 0.0015163870003371451 0.026365780724701304 0.0057488237352420896 -0.0043859738786393007 0.0069568721077791079 0.035912294096344125 0.0090853327183652941 0.015415129782456681 -0.00022585200665162119 -0.00098290694149909545 0.019141433630138635 0.011892256792522357 -0.00030606735025399501 0.016015782830919294
leaf_weight=169158 3689 1239 514 2397 181 40 612 721 3014 262 387 27992 295 334 560 157 554 168 288 331 4588 930 1457 1246 3031 8623 990 40 122 829 616 371 207 212 5290 409 371 441 140 287 84 494 84 312 390 851 226 34 380 232 426 212 105 144 156 271 164 594 193 142 150 484 528 691 128 365 118 91 580 300 1364 204 69 9566 45 105 283 278 261 91 147 649 1840 189 75 47 122 563 835 119 2044 723 318 299 47 732 682 508 69 267 146 215 66 699 1697 305 40 257 2202 235 986 161 453 890 363 240 124 134 64 423 339 25 764 117 262 292 5069 874 338 182 166 2833 56 472 449 337 750 130 66 471 42 805 78 355 1254 153 132 155 1023 39 4418 2406 36 234 402 1692 264 426 721 177 116 580 34 532 4895 248 101 198 251 221 290 239 307 51 581 712 115 4380 42 547 118 909 95 157 183 1958 141 54 448 82 364 149 674 320 160 370 518 175 3237
leaf_count=169158 3689 1239 514 2397 181 40 612 721 3014 262 387 27992 295 334 560 157 554 168 288 331 4588 930 1457 1246 3031 8623 990 40 122 829 616 371 207 212 5290 409 371 441 140 287 84 494 84 312 390 851 226 34 380 232 426 212 105 144 156 271 164 594 193 142 150 484 528 691 128 365 118 91 580 300 1364 204 69 9566 45 105 283 278 261 91 147 649 1840 189 75 47 122 563 835 119 2044 723 318 299 47 732 682 508 69 267 146 215 66 699 1697 305 40 257 2202 235 986 161 453 890 363 240 124 134 64 423 339 25 764 117 262 292 5069 874 338 182 166 2833 56 472 449 337 750 130 66 471 42 805 78 355 1254 153 132 155 1023 39 4418 2406 36 234 402 1692 264 426 721 177 116 580 34 532 4895 248 101 198 251 221 290 239 307 51 581 712 115 4380 42 547 118 909 95 157 183 1958 141 54 448 82 364 149 674 320 160 370 518 175 3237
internal_value=0 0.00738996 0.0128871 -0.00225902 0.0144382 0.0160527 0.01218 0.00361991 0.00430526 0.0171453 0.00859219 -0.00443879 0.01799 0.0102955 0.00598316 0.0110168 0.0183038 0.0141052 0.0101809 0.0189163 -0.00622066 0.00676969 0.0124905 0.0138837 -0.00180018 -0.000522553 0.0122889 0.0141012 0.00345774 0.0190821 0.0163205 0.0143911 0.00710524 0.00351391 0.0063068 0.00279252 0.00825395 0.0160483 0.00730762 0.0191039 0.00650312 0.00988353 0.00347773 0.0197693 0.00995372 0.0137961 0.0172011 0.0213792 0.0179765 0.0209026 0.0130897 -0.000135188 0.00257899 0.0235086 0.0124658 0.00815445 0.00666359 0.00254689 0.0143156 0.0149458 0.0163598 0.0171836 0.0151434 0.0186477 0.00746505 0.0137563 0.0260474 0.0170151 0.0174626 0.0079626 -0.00122826 0.00718886 0.0178653 -0.00359482 0.0297839 0.020564 0.0203048 0.0130423 0.00650069 0.0142652 0.0171942 0.00965227 0.0184966 0.0067165 0.017018 0.0204284 0.0198025 0.0174492 0.0229067 0.0248772 0.0226448 0.0209107 0.0154085 0.0215226 0.0208859 0.0213888 0.0215368 0.01894 0.0118168 0.0177428 0.0059825 0.0201294 0.0261043 0.016982 0.000974651 0.00396449 0.0208413 0.0182056 0.0222959 0.0197428 0.0208003 0.00796846 0.0066253 0.00773254 0.0104864 0.00770269 0.0218251 0.0178145 0.00591303 0.0128815 0.0164723 0.0268312 0.0237711 0.021853 0.00870356 0.00958771 0.0102259 0.00429761 0.0200366 0.0208715 0.0116405 0.0196557 0.00691033 0.00683376 0.0109594 0.00391318 0.00576256 0.0121562 0.015358 0.00762143 0.000546304 0.0251761 0.0204417 0.00431392 0.0225978 0.0192673 0.000872321 0.0195253 0.0176172 -0.00202143 0.00409211 0.0176054 0.0171559 0.0272967 0.00215744 0.00304562 0.00617135 0.011843 0.00152907 0.0109855 0.0182202 0.0236238 0.0260442 0.0160024 0.012555 0.0104941 0.0138965 0.00773853 0.0130254 0.00523088 0.00723794 0.0115939 0.0159363 0.0227341 0.0174929 0.00999755 0.0195686 0.0167404 0.00516967 0.00204119 0.00589295 0.0154838 0.0090321 0.00621732 0.0197675 -0.00109221 0.0180875 0.0243266 -0.000167789 0.0215645 0.0302508 0.0178869 0.0130689 0.00572274 0.00568615 0.023184 0.00767077 0.0161603 0.0151786
internal_weight=0 154307 98303 56004 84208 65985 14519 14095 13961 51466 18223 42043 42956 13646 4603 13641 41752 5315 3750 36437 183312 8448 9043 7586 14051 11020 6340 2531 3961 36106 7194 6141 1204 4577 10947 4396 7500 812 6688 427 6261 2957 3304 28912 890 5350 911 685 1664 1284 5229 1864 848 1565 4499 1440 867 634 4483 4290 3608 3458 2811 1911 682 1154 647 481 7409 7518 1780 416 233 14154 529 21503 20649 4343 684 3659 2238 1421 2091 1143 6799 20544 16402 5251 4142 2998 2163 11151 1116 10035 9312 9013 8966 4325 577 1144 193 951 757 7097 3506 954 8000 2845 5155 2953 2718 201 2046 1889 926 900 2517 6006 198 8510 684 854 1052 912 6797 5661 5361 1136 3748 3409 339 3071 238 1356 833 1770 1433 469 515 1221 413 1421 616 395 2393 1139 372 2588 1852 1736 5657 6517 297 966 3627 3225 1533 690 843 793 5808 689 614 1012 8248 3252 4996 2095 674 1421 1200 999 546 173 5119 910 647 4538 158 1219 665 1157 1085 191 795 5647 269 736 743 642 878 356 829 746 251 538 990 4111 3412
internal_count=337619 154307 98303 56004 84208 65985 14519 14095 13961 51466 18223 42043 42956 13646 4603 13641 41752 5315 3750 36437 183312 8448 9043 7586 14051 11020 6340 2531 3961 36106 7194 6141 1204 4577 10947 4396 7500 812 6688 427 6261 2957 3304 28912 890 5350 911 685 1664 1284 5229 1864 848 1565 4499 1440 867 634 4483 4290 3608 3458 2811 1911 682 1154 647 481 7409 7518 1780 416 233 14154 529 21503 20649 4343 684 3659 2238 1421 2091 1143 6799 20544 16402 5251 4142 2998 2163 11151 1116 10035 9312 9013 8966 4325 577 1144 193 951 757 7097 3506 954 8000 2845 5155 2953 2718 201 2046 1889 926 900 2517 6006 198 8510 684 854 1052 912 6797 5661 5361 1136 3748 3409 339 3071 238 1356 833 1770 1433 469 515 1221 413 1421 616 395 2393 1139 372 2588 1852 1736 5657 6517 297 966 3627 3225 1533 690 843 793 5808 689 614 1012 8248 3252 4996 2095 674 1421 1200 999 546 173 5119 910 647 4538 158 1219 665 1157 1085 191 795 5647 269 736 743 642 878 356 829 746 251 538 990 4111 3412
is_linear=0
shrinkage=0.1


Tree=2
num_leaves=200
num_cat=0
split_feature=12 12 12 12 11 11 2 3 11 12 9 12 5 3 9 6 11 6 1 4 4 12 12 4 0 11 9 11 9 12 3 1 9 3 1 8 11 11 6 4 7 0 4 5 1 8 5 9 11 0 12 4 4 1 7 6 0 4 4 1 7 9 7 7 0 7 1 0 11 6 6 5 1 1 0 0 2 4 0 3 7 0 1 11 11 11 7 5 7 5 7 4 9 1 6 0 11 7 4 4 0 11 1 0 9 4 5 4 11 9 4 2 9 9 5 6 0 1 6 3 0 7 9 0 0 3 1 7 5 5 7 0 1 2 7 0 11 7 7 2 1 7 6 6 9 12 12 4 9 2 4 1 0 0 1 4 0 6 0 12 6 1 0 4 6 7 11 2 0 4 0 5 9 9 11 4 1 1 12 12 12 5 7 7 9 1 7 1 5 8 4 0 9 3 9 7 7 6 2
split_gain=1257.16 662.958 114.461 64.9084 64.3779 22.6146 24.7189 17.008 16.4545 15.0143 12.7677 11.9015 11.8875 10.4627 14.6711 10.3009 9.465 8.69625 15.8868 9.69274 8.85091 8.56642 7.40258 7.95198 6.96282 6.30433 6.19397 6.11313 6.04901 5.54995 4.99203 5.04295 5.63025 5.38831 4.88026 4.79314 4.7592 4.72987 4.70616 5.02531 5.12685 4.65211 4.60068 5.38659 5.21746 8.40791 4.29621 4.35678 5.79638 4.42055 4.29333 4.23705 11.7441 4.83573 5.72723 4.2199 4.71282 4.04458 4.1014 8.1768 4.64025 3.94418 3.70788 3.84499 3.69967 3.66716 3.5913 3.54517 3.48791 3.32077 3.31756 3.18117 3.17818 3.17423 3.16973 2.99474 2.90377 2.84151 2.82935 4.99638 2.80629 2.74631 2.71652 4.39408 2.71194 3.41599 2.6804 2.63652 2.60027 4.93781 3.44866 3.06149 4.63527 3.1489 4.82097 4.79278 3.3424 3.38608 3.24282 4.97082 3.53832 2.9789 5.26695 4.30966 5.47585 3.03707 2.91905 2.90997 2.66946 5.59678 2.59823 2.58011 4.4717 3.50447 2.57093 2.5561 2.58881 2.55011 2.83566 2.54328 2.52011 2.50634 2.4513 3.20937 2.40846 2.39739 2.31196 2.29996 2.24577 2.21622 2.1969 2.59495 2.19252 2.17728 2.14802 2.56109 2.14258 2.6615 4.25951 2.98135 2.13712 2.12333 3.25929 2.11417 2.07502 2.06232 2.05569 2.59145 2.3492 2.04302 2.04252 2.02501 1.97377 1.94009 1.9299 1.89156 2.13944 2.07829 1.87121 1.86471 1.86428 2.07926 1.84703 3.6218 2.4515 2.63715 2.46292 2.56874 2.4499 2.31376 2.11763 2.78267 1.88545 1.84062 1.83734 1.83527 1.82993 1.82889 1.82494 2.62339 1.82303 2.09346 1.81474 1.79866 2.76887 2.69534 2.61455 2.5412 2.08962 2.08341 1.98358 1.7715 1.75643 1.74892 2.09914 1.72063 2.02737 1.73866 1.71921
threshold=12.500000000000002 19.500000000000004 13.500000000000002 20.500000000000004 9.5000000000000018 2.5000000000000004 5.1850000000000014 36.930000000000007 9.5000000000000018 18.500000000000004 22.850000000000005 21.500000000000004 14.975000000000003 44.840000000000011 56.475000000000001 0.075000000000000025 9.5000000000000018 0.60500000000000009 0.89500000000000013 1010.0850000000002 1031.1900000000003 11.500000000000002 18.500000000000004 1024.6350000000004 58.265000000000008 11.500000000000002 28.345000000000002 7.5000000000000009 25.105000000000004 14.500000000000002 5.6850000000000014 0.44500000000000006 6.4300000000000006 11.485000000000001 0.30500000000000005 0.022600000000000006 5.5000000000000009 3.5000000000000004 0.7400000000000001 1023.1450000000001 312.50000000000006 55.835000000000008 1019.8650000000001 14.975000000000003 0.80500000000000016 1.0000000180025095e-35 2.5250000000000004 22.385000000000002 1.5000000000000002 34.705000000000005 17.500000000000004 1010.8350000000002 1014.9050000000001 0.93500000000000016 212.50000000000003 0.15500000000000003 35.285000000000004 1001.5050000000001 1017.3150000000002 0.58500000000000008 289.50000000000006 44.655000000000008 306.50000000000006 324.50000000000006 25.485000000000003 304.50000000000006 0.84500000000000008 27.085000000000004 7.5000000000000009 0.33500000000000008 0.25500000000000006 0.68500000000000016 0.29500000000000004 0.68500000000000016 55.07500000000001 44.135000000000012 3.3600000000000003 1016.8150000000002 34.570000000000007 28.355000000000004 157.50000000000003 62.080000000000005 0.32500000000000007 5.5000000000000009 9.5000000000000018 2.5000000000000004 154.50000000000003 4.205000000000001 305.50000000000006 3.2650000000000001 340.50000000000006 1019.2550000000001 56.255000000000003 0.46500000000000002 0.025000000000000005 76.335000000000022 7.5000000000000009 3.5000000000000004 1028.5250000000003 1029.7550000000003 40.865000000000002 3.5000000000000004 0.50500000000000012 51.140000000000008 42.000000000000007 995.87500000000011 6.6550000000000011 1008.3650000000001 4.5000000000000009 28.760000000000002 1013.0000000000001 9.9550000000000018 53.475000000000001 43.285000000000004 1.6250000000000002 0.13500000000000004 62.32500000000001 0.92500000000000016 0.085000000000000006 40.620000000000012 48.565000000000005 195.50000000000003 41.340000000000011 53.760000000000012 39.255000000000003 19.785000000000004 0.30500000000000005 220.50000000000003 10.935 7.2550000000000008 301.50000000000006 17.525000000000002 0.37500000000000006 9.8450000000000006 172.50000000000003 51.140000000000008 4.5000000000000009 23.500000000000004 16.500000000000004 9.9850000000000012 0.46500000000000002 332.50000000000006 0.18500000000000003 0.10500000000000002 7.3550000000000013 14.500000000000002 17.500000000000004 1019.6750000000001 35.045000000000009 9.9850000000000012 1026.3000000000002 0.90500000000000014 39.020000000000003 54.035000000000004 0.29500000000000004 1021.4850000000001 53.760000000000012 0.075000000000000025 74.25500000000001 14.500000000000002 0.75500000000000012 0.63500000000000012 55.275000000000013 1021.4050000000001 0.115 174.50000000000003 3.5000000000000004 5.5650000000000004 35.285000000000004 1027.7200000000003 52.865000000000002 3.8950000000000005 43.285000000000004 57.650000000000006 6.5000000000000009 1004.4350000000001 0.40500000000000008 0.91500000000000015 17.500000000000004 14.500000000000002 17.500000000000004 1.925 16.500000000000004 343.50000000000006 55.885000000000012 0.39500000000000007 224.50000000000003 0.67500000000000016 7.3850000000000007 0.0049500000000000004 1024.9150000000002 76.580000000000013 2.4350000000000005 30.865000000000006 34.415000000000006 226.50000000000003 304.50000000000006 0.115 8.4950000000000028
decision_type=2 2 2 2 2 2 2 2 2 2 2 2 2 2 2 2 2 2 2 2 2 2 2 2 2 2 2 2 2 2 2 2 2 2 2 2 2 2 2 2 2 2 2 2 2 2 2 2 2 2 2 2 2 2 2 2 2 2 2 2 2 2 2 2 2 2 2 2 2 2 2 2 2 2 2 2 2 2 2 2 2 2 2 2 2 2 2 2 2 2 2 2 2 2 2 2 2 2 2 2 2 2 2 2 2 2 2 2 2 2 2 2 2 2 2 2 2 2 2 2 2 2 2 2 2 2 2 2 2 2 2 2 2 2 2 2 2 2 2 2 2 2 2 2 2 2 2 2 2 2 2 2 2 2 2 2 2 2 2 2 2 2 2 2 2 2 2 2 2 2 2 2 2 2 2 2 2 2 2 2 2 2 2 2 2 2 2 2 2 2 2 2 2 2 2 2 2 2 2
left_child=21 2 7 8 5 6 159 -2 41 12 38 24 17 22 26 30 37 20 19 160 29 -1 23 25 84 51 -15 28 -21 34 180 87 130 -34 152 134 65 -9 39 125 -41 132 43 44 45 57 66 67 49 -49 78 61 121 54 193 -47 133 74 60 140 69 127 -50 -64 -44 -14 -35 77 76 70 120 -56 -52 -42 -17 -23 177 -48 128 -80 81 153 -82 -84 85 -5 158 124 91 90 122 101 93 94 119 -96 97 -95 155 -100 -101 102 -81 -103 -105 -106 -98 174 -91 -110 -46 113 146 -28 -74 116 -94 136 -119 -93 192 -53 -90 -124 -32 149 -11 -12 195 -97 131 -33 -3 -57 -30 -136 -109 138 173 -140 -60 -62 -143 -104 -116 -89 147 -113 -149 -6 183 -145 -7 -39 -139 156 157 -99 -36 -4 -19 -162 163 164 168 166 167 -166 -128 -164 -170 -172 -165 -138 -107 -115 -167 -20 179 -73 -8 -182 -157 184 185 186 -88 -185 -188 191 -190 -186 -59 -54 -195 197 -197 -31 -117
right_child=1 3 4 11 10 9 15 16 -10 126 13 -13 36 14 -16 42 -18 18 68 27 -22 75 -24 -25 -26 -27 111 -29 35 50 31 32 33 46 86 -37 -38 80 -40 40 73 -43 64 -45 110 55 47 48 62 -51 72 52 53 -55 71 56 -58 58 59 -61 141 -63 63 -65 -66 -67 -68 -69 -70 -71 -72 178 114 -75 -76 -77 -78 -79 79 88 82 -83 83 -85 -86 -87 150 145 89 108 -92 92 115 96 95 129 106 98 99 100 -102 103 143 104 105 107 -108 117 109 -111 -112 112 -114 175 144 198 -118 118 -120 -121 -122 -123 123 -125 -126 -127 162 -129 -130 -131 -132 -133 -134 -135 135 -137 137 154 139 -141 -142 142 -144 151 -146 -147 -148 148 -150 -151 -152 -153 -154 -155 -156 182 -158 -159 -160 -161 161 -163 169 172 165 176 -168 -169 170 -171 171 -173 -174 -175 -176 -177 -178 -179 -180 -181 181 -183 -184 187 189 -187 188 -189 190 -191 -192 -193 -194 194 -196 196 -198 -199 -200
leaf_value=-0.0057963390151581952 -0.0015177747819209012 0.011687373430734923 0.016821183358195747 -0.0050492929473571931 0.00050428110408913703 0.024941343851386934 0.024152064652112809 0.00019846338263738379 -0.0026680152680103805 0.020841328651850462 0.010110301701712888 -0.00518695123371345 -0.00015100969276159081 0.026844612488122744 0.019408018159392838 0.028630566622241067 -0.0025222149244987268 -0.0062506572144343901 0.0013738993167256317 0.0015574245339593678 0.00074675904834513578 -0.005050748492700919 0.0047129865808538838 0.0197986139408622 0.001251120465789065 0.0037295329167673025 0.015451896557065307 0.0032208569212413157 0.02220885523394529 0.024087478110569722 0.018843942403264747 0.021719996483690523 0.021879307534719561 0.025995415888194529 0.0099268113014131173 0.0002558109476356893 0.01609817997900229 0.0041519246160807285 0.016853958646915541 0.0032257953790242235 0.019237686503463639 0.0078121977706391288 0.014202440631176745 -0.0015436276405313355 0.0013759166294315447 -0.0027439035874392307 -0.005012246507353017 0.024116814331930192 0.026042857867924825 0.0031068106634447694 0.027872658175144473 0.022794267996436076 -0.0010391528028825682 0.026284546132078607 -0.0052330585259541471 -0.0008838836990352402 0.029899312064014655 0.028573625401044508 0.017000782825717969 0.025411804266293688 -0.0018717632989539161 0.0054683971986666602 -0.0054302323408054326 0.024085477416104239 -0.0018456271777650282 0.019814183101767587 -0.0032154091261327269 -0.0011080898386009029 0.01529813514460731 -7.2386340545005885e-06 0.019738286989587621 0.010035590817200481 0.0089794447333218265 -0.00150374530681542 0.004100765115115792 -0.0020698576772785172 0.027025442752994972 0.013099189823238667 -0.0034840014310819761 0.025653965472385239 0.00046688930565880535 0.0087034015999138004 0.01512459490400382 0.0080326808552452413 -0.0058934117046604943 -0.00016267355471458327 -0.0088293041424317795 0.010516026261344402 -7.6299901403823863e-06 0.02772259726143424 0.020395958329789812 -0.0057881937327760244 0.022455325501382743 -0.0065281766422447714 0.0037399201877614512 0.023290938567400814 0.016736990685636215 0.0084597471057227033 -0.0019828557782687333 0.02771092277556499 -0.0016400651952626147 0.026751505398532223 0.0034522920487900324 0.0062810060180858917 -0.006150239444476493 0.026979168478223625 0.0021421912213278305 0.030672491822816152 -9.6461555466619366e-05 0.022266896035832651 0.025980435079998445 0.012480513592108385 0.018666168674826622 0.013910602077619353 -0.0019961374338890894 -0.0059008519564356125 0.0048127302793333424 -0.0017610430423519573 0.016189846449080066 0.026250041145026881 0.020349366824294248 -0.0023783280323569859 0.024538324091944005 0.0041555688006356629 0.0026859081215819891 -0.0022084869405062583 0.020197246988614401 0.020710768458904474 -0.0053817748874425897 0.0078187591752896576 -0.0014647287146827626 0.0039305097582817547 0.0032031617187991157 0.028027554218833513 0.0077374958257491501 0.020333245703816699 0.022627570514998516 0.0022558533568371787 -0.0033027379414403537 0.02848399579524994 0.00088389961282730155 0.025478091109544038 0.0006518994759505568 0.016226348602150741 0.01609770425419111 0.023681188732634195 -0.00091188252375489116 0.011169406236545184 -5.2445825269734051e-05 0.012101537695491046 0.0038278967363487662 -0.0025331946710745496 0.0015096998147495931 -0.0049311481533683282 0.019703486283841318 0.015812166249100118 0.026024326076908147 0.028838472136042338 0.018416750535302194 0.029266990575056315 0.025775516178549791 0.0027734927567600039 0.012815999340649364 0.016931764843744 0.0022195115022664398 0.00063154321519564237 0.0010914933105774076 0.023158012548166518 -0.0018647328885758882 -0.0024749049972693812 -0.0036510094383649613 0.019259576254531625 0.0084967978571220404 0.010678217480353152 0.016803183822154313 -0.0030582406554841963 0.017240451811278135 0.028127610095237433 0.0088320468756809788 0.019700626706931144 0.030626361527376706 0.01190281953615652 0.028752270702078392 0.020287645911122421 0.010839777368284002 0.020975283283430027 -0.0070375395938754087 0.0053563373615453788 0.022583073559910696 0.021869466432503294 -0.0068859452095169291 0.017066033381151896 0.0070886240919701363 0.015426741605085776 0.0028122412899091584 0.032791603828819703 0.01994841662699981 0.007347603427327128 0.024754361661715091
leaf_weight=169158 4877 323 144 2397 408 40 470 902 3014 262 250 27992 743 107 642 177 1194 231 78 278 331 5534 1457 1246 5275 990 122 537 915 195 185 109 482 266 1245 148 356 789 238 1297 390 5279 175 504 928 63 105 122 388 559 209 42 296 262 74 88 403 39 112 378 715 265 93 84 802 105 50 565 616 346 332 372 580 91 75 8620 833 495 105 283 335 972 1161 3530 2831 3548 55 148 192 816 538 27 95 42 576 266 1033 207 129 211 51 723 318 340 47 734 158 158 119 1878 45 384 204 67 64 21 668 120 330 301 172 679 155 154 184 1911 75 1129 25 142 476 331 5345 37 292 361 339 64 188 35 310 80 156 449 6556 607 783 250 735 242 126 66 355 335 6718 125 263 66 328 734 41 947 4895 746 106 77 429 131 580 101 91 127 411 208 234 1309 479 38 303 1146 72 350 815 182 1084 2084 36 305 188 350 26 790 1563 242 290 355 188 91 142
leaf_count=169158 4877 323 144 2397 408 40 470 902 3014 262 250 27992 743 107 642 177 1194 231 78 278 331 5534 1457 1246 5275 990 122 537 915 195 185 109 482 266 1245 148 356 789 238 1297 390 5279 175 504 928 63 105 122 388 559 209 42 296 262 74 88 403 39 112 378 715 265 93 84 802 105 50 565 616 346 332 372 580 91 75 8620 833 495 105 283 335 972 1161 3530 2831 3548 55 148 192 816 538 27 95 42 576 266 1033 207 129 211 51 723 318 340 47 734 158 158 119 1878 45 384 204 67 64 21 668 120 330 301 172 679 155 154 184 1911 75 1129 25 142 476 331 5345 37 292 361 339 64 188 35 310 80 156 449 6556 607 783 250 735 242 126 66 355 335 6718 125 263 66 328 734 41 947 4895 746 106 77 429 131 580 101 91 127 411 208 234 1309 479 38 303 1146 72 350 815 182 1084 2084 36 305 188 350 26 790 1563 242 290 355 188 91 142
internal_value=0 0.00665096 0.0115984 -0.00203312 0.0129944 0.0144474 0.010962 0.00325792 0.00387473 0.0154307 0.00773297 -0.00399491 0.016191 0.00926594 0.00538484 0.00991515 0.00578461 0.0164735 0.0126947 0.00916282 0.0170247 -0.0055986 0.0112415 0.0124954 -0.00162016 0.01106 0.00311197 0.0126911 0.0152415 0.0171739 0.012952 0.0117767 0.0101587 0.0121325 0.0146884 0.0174584 0.00639472 0.0070207 0.00316252 0.00241153 0.0064959 0.00567612 0.00742855 0.00838708 0.00921863 0.0105115 0.0104098 0.00897283 0.0130833 0.00687072 0.0177923 0.0124165 0.0105422 0.0133088 0.0120603 0.0217188 0.0246376 0.00902472 0.00828693 0.0147297 0.00677232 0.0166418 0.0205713 0.00857722 0.0010289 0.0023211 0.0213734 0.0045766 0.0211577 0.00907202 0.0105637 0.0150918 0.0157163 0.0153136 0.02133 -0.00323534 0.0249612 0.00992969 0.0185076 0.0182743 0.00788473 0.0048109 0.00916662 0.0097879 -0.00334601 -0.00213294 0.0153162 0.0177146 0.0183856 0.0207275 0.0148363 0.0178451 0.01587 0.01722 0.0131134 0.00961367 0.018958 0.0215516 0.0221832 0.0140859 0.0219976 0.0187737 0.0138677 0.0193085 0.0187429 0.0192047 0.0148008 0.0193353 0.0229034 0.0209343 0.00251384 0.00245307 0.00451622 -0.000791786 0.0153635 0.00943776 0.00700938 0.0187203 0.0114029 0.0236127 0.00884666 -0.000911963 0.00886613 0.0143799 0.0107868 -0.000424092 0.0115933 0.018789 0.0241481 0.017906 0.00324374 0.00833745 0.00368665 0.0076739 0.0190821 0.0147008 0.0191474 0.0189063 0.0133349 0.00168621 0.00516137 0.000842937 0.00906756 0.00986347 0.0159228 0.0211005 0.00317487 0.00551229 0.00279574 0.00482203 0.0164055 0.0138222 0.00388252 0.00144478 0.0195388 0.0243283 0.0195875 0.0133865 0.0116971 0.0272258 0.00183707 0.00372803 0.0112995 0.00944473 0.00696468 0.00985599 0.00561144 0.0137931 0.00291749 0.0125069 0.00129346 0.00969598 0.0139354 0.0180838 0.0245193 -0.002232 0.0149403 0.010138 0.0159178 0.0173321 0.0198683 0.0150974 0.0270315 0.0167163 0.0173264 0.0196903 0.0109102 0.0109364 0.0152529 0.0147872 0.0190027 0.0134645 0.00761167 0.00512226 0.00855042 0.0250386 0.028345 0.0187612 0.0208049
internal_weight=0 154307 98303 56004 84208 65985 14519 14095 13961 51466 18223 42043 42956 13646 4603 13641 9218 41752 5315 3750 36437 183312 9043 7586 14051 6340 3961 2531 1994 36106 6141 5249 4125 3209 7194 1716 1204 8024 4577 4339 1778 10947 7500 6523 6019 5046 2727 2411 1246 681 28912 5350 3706 2985 2723 591 528 4455 4203 800 3403 1644 565 177 977 848 316 1165 1565 2452 2106 1895 7409 481 252 14154 949 600 21503 20649 7122 2096 5026 4691 8776 5945 6799 1124 20544 3852 1039 16692 5338 4412 1312 984 3100 1909 1867 391 262 11354 1116 10238 9515 9175 1191 9128 2813 1997 973 3854 2356 1498 7200 926 763 8160 450 328 1774 721 501 309 369 2561 8510 1379 854 408 916 440 5668 125 1568 653 7710 7552 770 223 422 951 236 833 6620 755 2152 1369 985 650 5226 515 395 1124 6782 1476 536 273 1573 878 1219 988 8248 3252 2095 1222 666 237 873 4996 798 218 1157 547 968 1376 556 116 1821 1518 892 422 940 5100 4613 2389 305 487 250 2224 214 1874 1602 828 532 829 543 286 163
internal_count=337619 154307 98303 56004 84208 65985 14519 14095 13961 51466 18223 42043 42956 13646 4603 13641 9218 41752 5315 3750 36437 183312 9043 7586 14051 6340 3961 2531 1994 36106 6141 5249 4125 3209 7194 1716 1204 8024 4577 4339 1778 10947 7500 6523 6019 5046 2727 2411 1246 681 28912 5350 3706 2985 2723 591 528 4455 4203 800 3403 1644 565 177 977 848 316 1165 1565 2452 2106 1895 7409 481 252 14154 949 600 21503 20649 7122 2096 5026 4691 8776 5945 6799 1124 20544 3852 1039 16692 5338 4412 1312 984 3100 1909 1867 391 262 11354 1116 10238 9515 9175 1191 9128 2813 1997 973 3854 2356 1498 7200 926 763 8160 450 328 1774 721 501 309 369 2561 8510 1379 854 408 916 440 5668 125 1568 653 7710 7552 770 223 422 951 236 833 6620 755 2152 1369 985 650 5226 515 395 1124 6782 1476 536 273 1573 878 1219 988 8248 3252 2095 1222 666 237 873 4996 798 218 1157 547 968 1376 556 116 1821 1518 892 422 940 5100 4613 2389 305 487 250 2224 214 1874 1602 828 532 829 543 286 163
is_linear=0
shrinkage=0.1


Tree=3
num_leaves=200
num_cat=0
split_feature=12 12 12 12 11 11 2 3 11 12 12 12 5 6 11 9 12 6 1 4 4 9 9 0 8 11 11 12 3 1 9 3 4 4 9 9 0 1 11 11 0 4 6 9 5 4 2 11 5 7 4 0 7 0 5 9 11 0 12 4 5 0 9 12 0 0 7 4 7 7 1 5 1 7 0 5 0 1 3 7 9 12 4 2 4 3 1 7 0 6 0 3 8 7 7 7 1 6 4 4 9 4 5 1 0 0 1 5 3 11 9 4 0 6 9 11 4 4 4 7 11 11 12 9 5 6 9 4 0 3 4 4 4 11 0 11 7 0 1 11 11 4 1 7 6 0 0 4 0 0 6 4 4 0 5 9 1 3 1 7 11 6 0 5 1 0 0 0 0 3 6 7 0 9 8 9 7 8 0 9 4 11 4 0 7 0 7 9 1 4 1 0 4 0 8 5 5 11 5
split_gain=1018.3 536.996 92.7131 52.5758 52.1461 18.3178 20.0223 13.8483 13.3281 12.1616 10.6097 9.64022 9.62891 8.34377 7.89335 7.64876 7.10352 7.04396 12.8683 7.85112 7.16924 6.506 12.3168 5.63988 5.22277 4.82949 4.53684 4.49546 4.04354 4.08479 4.5605 4.43523 3.984 9.19571 4.35617 4.98913 4.53729 3.95301 3.93163 3.85495 3.81572 7.82363 4.16929 6.55642 4.39951 4.77802 4.47906 4.0079 5.4349 3.76313 3.73367 3.6839 3.74348 3.61618 3.59166 4.03984 4.69507 3.58065 3.47759 3.38539 3.47203 3.35548 3.34224 3.23075 3.20855 3.12349 3.09938 3.92998 3.00338 3.11444 2.98448 2.97473 2.90896 2.79602 2.72485 3.49002 2.85238 2.69677 2.68377 2.8141 3.74851 2.59499 2.55433 2.53019 5.16231 3.50913 2.47598 2.41792 2.30775 2.30688 2.29178 4.0914 2.28821 2.26902 2.26189 2.93699 2.41395 2.22483 3.53642 2.769 2.45854 4.7627 2.56767 2.54558 2.37855 2.42838 4.00146 3.63308 2.5415 3.9797 2.26313 3.00308 2.88537 5.87609 4.68903 2.59509 2.23567 2.2197 3.13352 2.21696 2.19667 2.76695 2.13685 2.12772 2.08326 2.40772 2.38894 5.60827 3.35377 4.86062 3.41608 2.92393 2.21062 5.05254 3.02371 2.75599 1.99784 2.38033 2.02915 2.35962 1.99121 1.98027 3.05259 1.91909 1.90235 2.41289 1.90219 1.89277 2.56026 2.26176 2.31066 2.74533 1.97112 2.29961 1.88783 1.87276 1.87269 1.86887 1.86573 2.30193 2.14877 1.86194 1.8362 1.81908 1.81613 1.96419 1.80117 1.7987 2.76166 1.79666 1.7965 1.77949 2.10191 1.77839 2.57231 1.76263 1.71953 1.7087 1.69965 2.65633 1.67145 2.62664 1.66962 1.65059 1.63217 2.15381 1.62514 1.622 2.67172 1.62162 1.60793 1.60749 1.60193 1.59875 1.5794 2.835 1.57094 1.53872 1.52649
threshold=12.500000000000002 19.500000000000004 13.500000000000002 20.500000000000004 9.5000000000000018 2.5000000000000004 5.1850000000000014 35.060000000000009 9.5000000000000018 18.500000000000004 17.500000000000004 21.500000000000004 14.975000000000003 0.075000000000000025 9.5000000000000018 22.850000000000005 10.500000000000002 0.60500000000000009 0.89500000000000013 1010.0850000000002 1031.1900000000003 43.285000000000004 56.475000000000001 58.265000000000008 0.0074500000000000009 3.5000000000000004 11.500000000000002 14.500000000000002 5.6850000000000014 0.44500000000000006 6.4300000000000006 12.215000000000002 1011.2250000000001 1015.0050000000001 34.185000000000009 40.045000000000009 29.375000000000004 0.30500000000000005 2.5000000000000004 5.5000000000000009 48.565000000000005 999.63000000000011 0.89500000000000013 27.465000000000003 7.2550000000000008 997.85500000000013 9.8750000000000018 1.5000000000000002 9.7450000000000028 241.50000000000003 1024.7550000000003 34.570000000000007 286.50000000000006 43.295000000000009 2.5250000000000004 22.385000000000002 1.5000000000000002 34.705000000000005 17.500000000000004 1023.1450000000001 8.6650000000000009 6.0650000000000004 26.995000000000001 14.500000000000002 69.320000000000007 44.135000000000012 312.50000000000006 1011.9350000000001 306.50000000000006 324.50000000000006 0.64500000000000013 7.0650000000000004 0.84500000000000008 214.50000000000003 57.945000000000007 4.5850000000000009 66.020000000000024 0.31500000000000006 19.785000000000004 273.50000000000006 3.1150000000000007 17.500000000000004 1009.7050000000002 9.9550000000000018 1015.9050000000001 43.845000000000006 0.66500000000000015 239.50000000000003 27.085000000000004 0.89500000000000013 34.570000000000007 29.530000000000005 0.0011500000000000002 320.50000000000006 289.50000000000006 49.500000000000007 0.77500000000000013 0.26500000000000007 1025.0550000000001 1001.5050000000001 25.575000000000003 1023.8950000000001 14.800000000000002 0.30500000000000005 76.335000000000022 61.015000000000008 0.38500000000000006 4.0150000000000006 62.425000000000004 6.5000000000000009 48.425000000000004 1008.8950000000001 44.815000000000005 0.015000000000000001 26.795000000000005 6.5000000000000009 1019.4750000000001 1015.0050000000001 1029.1350000000004 37.500000000000007 9.5000000000000018 2.5000000000000004 14.500000000000002 65.800000000000026 10.385000000000003 0.38500000000000006 49.525000000000013 1011.9350000000001 42.530000000000008 33.865000000000002 1022.2350000000001 1030.5000000000002 1015.7550000000001 6.5000000000000009 48.295000000000009 3.5000000000000004 157.50000000000003 62.080000000000005 0.32500000000000007 5.5000000000000009 8.5000000000000018 1027.0850000000003 0.57500000000000007 346.50000000000006 0.025000000000000005 39.020000000000003 42.785000000000004 1019.4750000000001 56.975000000000001 58.265000000000008 0.03500000000000001 1019.3850000000001 1020.6250000000001 53.760000000000012 13.055000000000001 55.115000000000002 0.30500000000000005 38.085000000000008 0.67500000000000016 347.50000000000006 8.5000000000000018 0.025000000000000005 39.445000000000007 10.935 0.30500000000000005 63.585000000000008 62.080000000000005 40.605000000000011 27.790000000000003 23.235000000000003 0.30500000000000005 301.50000000000006 17.525000000000002 55.695000000000007 0.0024500000000000004 43.285000000000004 220.50000000000003 0.0096500000000000006 50.32500000000001 15.935 1019.3850000000001 7.5000000000000009 1016.8150000000002 78.960000000000022 39.500000000000007 39.635000000000005 18.500000000000004 3.8050000000000002 0.57500000000000007 1016.4250000000001 0.53500000000000014 74.905000000000015 1020.1650000000001 39.020000000000003 0.0013500000000000003 8.0450000000000017 9.1150000000000002 1.5000000000000002 6.9750000000000005
decision_type=2 2 2 2 2 2 2 2 2 2 2 2 2 2 2 2 2 2 2 2 2 2 2 2 2 2 2 2 2 2 2 2 2 2 2 2 2 2 2 2 2 2 2 2 2 2 2 2 2 2 2 2 2 2 2 2 2 2 2 2 2 2 2 2 2 2 2 2 2 2 2 2 2 2 2 2 2 2 2 2 2 2 2 2 2 2 2 2 2 2 2 2 2 2 2 2 2 2 2 2 2 2 2 2 2 2 2 2 2 2 2 2 2 2 2 2 2 2 2 2 2 2 2 2 2 2 2 2 2 2 2 2 2 2 2 2 2 2 2 2 2 2 2 2 2 2 2 2 2 2 2 2 2 2 2 2 2 2 2 2 2 2 2 2 2 2 2 2 2 2 2 2 2 2 2 2 2 2 2 2 2 2 2 2 2 2 2 2 2 2 2 2 2 2 2 2 2 2 2
left_child=16 2 7 8 5 6 192 -2 38 12 15 23 17 28 25 66 -1 20 19 194 27 26 83 120 59 -9 32 37 187 117 171 189 176 186 36 73 49 193 87 62 42 177 44 -44 45 -15 71 48 -46 -35 -28 52 86 -27 72 88 57 -57 90 60 122 -49 146 -38 184 -18 67 -6 -58 -70 -63 -47 -33 -36 75 -26 -76 -60 79 80 -69 -50 -12 85 -85 -23 -48 89 182 -3 163 -92 -72 -68 95 -84 -96 100 99 154 101 102 -93 -102 105 106 -105 -107 109 -109 111 196 113 114 -113 -112 123 -30 -119 155 121 -5 -21 -110 125 126 127 -79 129 130 -129 -132 134 135 -130 -134 137 -55 -138 157 -67 158 -143 164 -103 -146 -14 149 152 150 151 -114 153 -149 -99 167 -11 -140 178 160 173 -65 -80 -29 -40 166 -166 168 -39 -88 -135 172 -31 175 -175 -160 -17 -42 179 -121 -106 183 -56 -182 185 -20 -34 188 -8 -32 -41 -158 -4 -7 -19 -196 -108 -53 -162
right_child=1 3 4 11 10 9 13 14 -10 156 82 -13 39 40 -16 21 65 18 64 24 -22 22 -24 -25 74 53 50 58 29 30 31 54 33 34 35 -37 63 119 143 190 41 -43 43 -45 47 46 51 61 81 -51 -52 197 -54 136 55 56 68 -59 77 -61 -62 70 -64 161 -66 140 93 78 69 -71 92 -73 -74 -75 76 -77 -78 124 162 -81 -82 -83 94 84 -86 -87 169 -89 -90 -91 91 97 -94 -95 96 -97 -98 98 -100 -101 103 144 -104 104 180 107 110 108 116 -111 115 112 147 -115 -116 -117 -118 118 -120 141 -122 -123 -124 -125 -126 -127 -128 128 132 -131 131 -133 133 170 -136 -137 138 -139 139 -141 -142 142 -144 -145 145 -147 -148 148 -150 -151 -152 -153 -154 -155 -156 -157 191 -159 159 -161 198 -163 -164 -165 165 -167 -168 -169 -170 -171 -172 -173 -174 174 -176 -177 -178 -179 -180 -181 181 -183 -184 -185 -186 -187 -188 -189 -190 -191 -192 -193 -194 -195 195 -197 -198 -199 -200
leaf_value=-0.0053045139727091592 -0.0016756837231509166 0.0031480664415347638 0.020908642994785401 -0.0045443636571814985 0.016526840584815811 0.022447210587559996 0.014532453988186145 -3.2723556777638338e-06 -0.002401213707497192 0.018757195779982642 0.0078173893134857904 -0.0046682561123341333 0.0057110760695381398 0.024076978704759056 -0.0019008053604513808 0.0081327945711601474 -0.0048901529963132871 -0.0022903051644648045 0.02731446794544657 0.012256182429134949 0.00067208305889673067 0.012550969900072604 0.020067790911485583 0.0011260082612781878 0.030321452319622039 0.022237265885968766 0.002667978857973746 0.022534752823580934 0.03138193176236264 0.019547996504249376 0.0068986992207151114 0.023395874233140886 0.02051484160834835 0.00012043768389101962 0.00041597812516948064 0.021412847064617012 0.011071085401197216 0.024803921444023529 0.014048364500586802 0.020190225627525274 0.00777081958801516 0.022162163958994591 -0.0022812568975080338 0.024115004740403529 -0.0013198535159427037 -4.232608999278574e-05 0.0032385065103998733 0.019304523506157457 0.016019717450348296 0.017301766099109221 0.019023372411729293 0.0012493697532454905 0.021064397244947033 0.001032542373760096 -0.0058673953662996426 0.02170513291827968 0.023438571991648564 0.002796129603324165 0.02324387687347973 0.0064097418876812489 0.0060815441899868695 -0.0041805703122329181 -0.0036494462571882453 0.01384924657145005 0.0048182548716795282 -0.0021310342423782208 0.01940373606713755 -0.00029964742845786782 -0.0048872091239117975 0.021676929159522323 0.0018214896600712779 0.026910730226095331 -0.002893868239829317 0.011299275892753421 0.021553141692235909 -0.0001951048843858933 -0.0026814259900846452 0.00043129600559781611 -0.0023498172947023373 -0.0037071389098712209 0.014287995397112478 0.0049107193962641179 0.0089418180985376249 0.016977693249601102 -0.00012120420028876103 -0.003106263456295469 0.0093986618834029333 -0.0014291692996022984 -0.00099728084302098344 0.016523579963101637 -0.0013064384066081036 0.026185529866926977 0.018595388590612476 0.0061145194404837516 0.0033575736168620163 -0.00053932398570373616 0.011761425957312716 0.016966802268440575 0.0027964120638154619 0.020360693888814715 0.0055853159881239251 0.020263025716428653 -0.0052093743588085533 -0.0001701101837638167 0.019232293332287508 0.010527471726745716 0.00106319347193476 -0.0029187445294613034 0.0192540411173318 0.02107726675538539 0.023939259675480509 -0.00092486414892896439 0.0015054810979303771 0.022832574108663073 0.021419639175362659 0.016668277185580307 0.011587716592208775 0.010215587366095909 0.021450246694004062 0.0027381631831328076 -0.0053040705354116448 -0.00014640626101640176 0.022363868647795025 0.010426774524181845 0.019382550604350401 0.024794580099838121 0.014495214021255975 0.024767874243358773 0.0020573333199986098 0.025509038116635369 -0.0026504654777618174 0.029203624322133904 0.026728180967844451 0.016780694313370832 0.023305604598353648 -0.00083379559822508147 0.00042020043462459274 0.0078330612090317317 -0.0089206606340713999 0.0072294128598980704 -0.004649627821853723 -0.0039747609148530023 0.022572806896641852 0.013926559214299836 0.029497300750679439 0.0013195725806200735 0.024137971194132288 -0.0022381859770429862 -0.0034720975181595087 0.028410497033859002 0.018011989264386314 0.030342754647135733 0.015277472990265863 0.015129777834166212 0.00060451870311767418 -0.00025075952960493963 0.0093607130866375336 0.013376187556863579 0.0090665273450361867 0.0048207035612459984 0.011018991481900983 0.02169301178854452 0.019704815019399691 -0.004843597367405892 0.0044670288414149859 0.0071569360824954272 -0.0058747156103808353 0.014647932129907976 -0.0052262495466207795 0.022871282754342154 -0.0067472857236862182 -0.0013182558256500802 0.0035374588086786807 0.010283895277716093 0.019562985787394863 0.020679950253398485 0.019801860617244628 -0.0062104315681924642 0.015109238194640454 0.022540308541171339 0.014517126934490457 0.019200725177547728 0.010414196473489514 -0.00023566415440437602 0.023448034200979316 0.013342993226814218 0.00027458002177389482 -0.0020612459767084474 0.026144291728827207 0.021511323838307034 0.0065669815920155819 0.012579045257127101 0.029579001168623199 0.0013587298132741537 0.0019061817939464946 0.01899661393993992 0.017100611789253723 0.012173592551850965 -0.0031013110536015896
leaf_weight=155049 4459 958 514 2397 189 40 540 1077 3014 262 1147 27992 318 175 1392 146 11077 554 144 288 331 167 472 5275 40 156 825 829 86 109 91 266 42 307 539 236 567 41 260 207 230 441 140 287 517 858 371 84 529 218 168 515 400 1094 73 122 388 559 312 380 232 1165 462 398 144 13053 203 292 93 84 565 43 50 420 164 594 69 452 1178 254 444 349 377 291 449 1002 265 1284 565 149 129 741 95 350 1713 2450 427 169 132 3082 242 147 27 140 2901 2180 205 171 2051 116 839 218 189 1270 165 1183 684 627 411 75 2831 3548 764 315 600 175 3785 96 95 404 189 34 39 446 227 520 335 972 39 3530 4133 134 64 303 36 195 68 162 105 153 754 40 862 144 121 177 6175 1041 159 305 263 1263 39 25 3905 3912 176 454 121 158 35 476 331 1041 419 734 935 141 2004 700 145 390 459 159 805 472 715 39 313 459 149 2073 364 355 547 118 87 172 108
leaf_count=155049 4459 958 514 2397 189 40 540 1077 3014 262 1147 27992 318 175 1392 146 11077 554 144 288 331 167 472 5275 40 156 825 829 86 109 91 266 42 307 539 236 567 41 260 207 230 441 140 287 517 858 371 84 529 218 168 515 400 1094 73 122 388 559 312 380 232 1165 462 398 144 13053 203 292 93 84 565 43 50 420 164 594 69 452 1178 254 444 349 377 291 449 1002 265 1284 565 149 129 741 95 350 1713 2450 427 169 132 3082 242 147 27 140 2901 2180 205 171 2051 116 839 218 189 1270 165 1183 684 627 411 75 2831 3548 764 315 600 175 3785 96 95 404 189 34 39 446 227 520 335 972 39 3530 4133 134 64 303 36 195 68 162 105 153 754 40 862 144 121 177 6175 1041 159 305 263 1263 39 25 3905 3912 176 454 121 158 35 476 331 1041 419 734 935 141 2004 700 145 390 459 159 805 472 715 39 313 459 149 2073 364 355 547 118 87 172 108
internal_value=0 0.00598587 0.0104385 -0.00182981 0.011695 0.0130027 0.00986577 0.00293213 0.00348726 0.0138877 0.00695967 -0.00359542 0.0145719 0.00892363 0.00506436 0.00867422 -0.00503874 0.0148261 0.0114252 0.00824654 0.0153222 0.0101003 0.00560337 -0.00145815 0.011422 0.00624043 0.0116797 0.0154565 0.0116568 0.010599 0.00914282 0.0109193 0.0127514 0.0114937 0.0134295 0.00838773 0.015618 0.0132196 0.00510851 0.00575525 0.0066857 0.013159 0.00589976 0.0154605 0.00524772 0.00804976 0.00704158 0.00273996 0.00681427 0.00725478 0.00543505 0.00981863 0.0131755 0.00717869 0.00922848 0.00787875 0.0117749 0.00618365 0.0160131 0.014701 0.0171547 -0.000237339 0.00208899 0.0175887 0.019042 -0.00358071 0.00424475 0.00268729 0.0185142 0.0077195 -0.0011368 0.001244 0.0192361 0.00518239 0.00512879 0.00173023 0.0143764 0.0141447 0.00150211 0.00536844 0.00850051 0.011604 0.00356394 0.00202704 0.00660282 -0.000869516 0.00920125 0.00152355 0.00345336 0.00494838 0.0166569 0.0164469 0.00423591 0.0109928 0.00258171 0.000725052 0.00503442 0.0165585 0.0188531 0.0194817 0.016086 0.0205591 0.0250818 0.015763 0.0159206 0.0152463 0.0165535 0.0137024 0.0157765 0.00677999 0.0169207 0.0156368 0.0163409 0.0195584 0.00870136 0.0196853 0.0166231 0.0159431 0.014664 0.0137846 -0.00301141 -0.00191964 0.0195967 0.0180788 0.0137447 0.013224 0.0129037 0.0105294 0.0127185 0.0182232 0.00899593 0.00220621 0.00979639 0.00755467 0.0170367 0.00108913 0.00684362 0.00423201 0.00793474 0.00848081 -0.00273672 0.0144407 0.00460627 0.00611034 0.0113701 0.00571091 0.00895726 0.0141332 0.0114852 0.0171004 0.0153401 0.00654256 0.0128299 0.00593497 0.0101398 0.00881508 0.010434 0.012571 0.014776 0.0130592 0.0139817 0.0198135 -0.00164305 0.0217333 0.00582337 0.00555583 0.00402102 0.01142 0.00237398 0.014431 0.0150687 0.00291937 0.00750371 0.0150969 0.0129469 0.0186122 0.0182258 0.00245719 0.0166472 0.020624 0.0181777 0.0137692 0.00818007 0.00680103 0.0204834 0.0166091 0.00139755 0.0178815 0.0187933 0.0190936 0.0144884 0.0101696 0.0245032 0.00349427 0.00165337 0.00493877 0.00584147 0.0039844 0.0069085
internal_weight=0 154307 98303 56004 84208 65985 14519 14095 13961 51466 18223 42043 42956 13641 9636 12109 183312 41752 5315 3750 36437 9160 2381 14051 2531 8244 6779 36106 6141 5249 4125 3209 5786 4705 3948 1195 2753 7194 10947 1204 7500 812 6688 427 6261 2957 2782 3304 1395 525 993 1881 1194 7167 2659 2343 1246 681 28912 1664 1284 1909 848 2228 1565 28263 2949 2396 565 177 1825 901 316 959 867 634 233 7409 2207 990 736 878 6114 1909 740 1169 794 2391 1097 1107 21503 20649 660 553 4967 2827 2140 20520 3504 3372 17016 1146 768 15870 15628 12033 6516 5517 3337 287 6376 4354 4062 1653 383 2022 3050 1124 1038 6799 8776 5945 1052 2366 7097 6497 6322 2537 2085 723 319 223 1362 1040 322 559 7011 2066 4945 4610 17186 6006 198 8556 378 231 386 2409 1273 1136 983 229 1168 306 290 793 8510 1080 5808 3029 2724 1661 1217 854 8253 7993 4081 616 162 423 481 916 440 2353 1460 893 1081 371 2779 775 3595 694 532 304 1421 616 757 892 853 550 356 8248 878 395 1219 665 292 687 371
internal_count=337619 154307 98303 56004 84208 65985 14519 14095 13961 51466 18223 42043 42956 13641 9636 12109 183312 41752 5315 3750 36437 9160 2381 14051 2531 8244 6779 36106 6141 5249 4125 3209 5786 4705 3948 1195 2753 7194 10947 1204 7500 812 6688 427 6261 2957 2782 3304 1395 525 993 1881 1194 7167 2659 2343 1246 681 28912 1664 1284 1909 848 2228 1565 28263 2949 2396 565 177 1825 901 316 959 867 634 233 7409 2207 990 736 878 6114 1909 740 1169 794 2391 1097 1107 21503 20649 660 553 4967 2827 2140 20520 3504 3372 17016 1146 768 15870 15628 12033 6516 5517 3337 287 6376 4354 4062 1653 383 2022 3050 1124 1038 6799 8776 5945 1052 2366 7097 6497 6322 2537 2085 723 319 223 1362 1040 322 559 7011 2066 4945 4610 17186 6006 198 8556 378 231 386 2409 1273 1136 983 229 1168 306 290 793 8510 1080 5808 3029 2724 1661 1217 854 8253 7993 4081 616 162 423 481 916 440 2353 1460 893 1081 371 2779 775 3595 694 532 304 1421 616 757 892 853 550 356 8248 878 395 1219 665 292 687 371
is_linear=0
shrinkage=0.1


Tree=4
num_leaves=200
num_cat=0
split_feature=12 12 12 12 11 11 2 0 11 12 9 12 5 12 6 3 9 12 6 1 4 4 4 11 11 9 11 11 9 11 12 4 4 5 3 1 9 3 8 1 4 3 4 9 4 4 1 7 11 11 3 5 9 11 0 4 4 1 1 4 11 12 7 9 1 0 9 0 7 7 1 1 3 12 6 3 2 4 9 11 7 4 4 9 1 7 5 3 0 9 3 8 5 0 3 7 5 7 4 9 1 6 11 3 7 7 4 4 0 11 1 0 9 1 4 4 5 1 1 6 11 9 0 2 8 5 3 0 0 11 3 1 0 9 1 4 1 5 1 8 5 1 11 9 3 3 1 6 0 4 0 6 11 11 5 6 11 7 7 2 4 4 7 9 9 7 0 1 5 0 4 1 1 5 9 1 9 3 0 4 0 6 3 1 1 5 7 4 2 11 0 3 9 0 7 6 1 12 11
split_gain=824.823 434.967 75.0976 42.5864 42.2383 14.8374 16.2181 11.3018 10.7958 9.8509 8.69408 7.80858 7.79942 7.33766 6.75845 6.0731 9.96592 6.01821 5.70561 10.4233 6.35941 5.80708 5.48029 5.26505 4.62206 4.38984 4.3148 4.25917 4.2421 4.12427 3.64132 3.29885 3.40471 3.64909 3.27527 3.30868 3.69401 3.59254 3.21524 3.20194 3.19419 3.71598 4.49612 4.31564 10.0509 5.19794 4.19338 3.45029 3.18462 3.12251 3.06777 2.90925 3.27227 3.80301 2.90033 2.89763 8.3689 4.45462 3.52488 4.08225 5.20541 2.81685 2.74752 2.70721 2.64752 2.63421 2.63078 2.59892 2.43274 2.5227 2.35625 2.18439 2.10174 2.02218 1.98185 1.98146 1.98025 4.44198 3.0252 1.97137 1.9162 1.91451 2.81998 2.42932 2.12226 1.90824 1.884 1.86972 1.86927 1.86457 1.86894 1.86232 1.91913 1.85634 3.34652 1.97812 3.48287 2.48126 1.94843 3.39237 2.31787 3.60377 2.59733 2.43152 2.51925 2.35753 2.32167 3.35209 2.48685 2.13702 3.85607 3.18902 4.44794 2.18304 2.10667 2.16108 2.08128 1.93542 1.91466 2.1305 1.84786 1.83677 1.80652 1.78449 3.47553 1.91775 1.75398 1.74705 1.74345 1.74125 2.57271 2.18177 1.73941 2.45893 1.73444 1.95911 1.82451 1.71556 2.24902 1.99914 1.80573 1.70968 1.69929 3.86417 1.6788 1.71969 1.72043 2.25955 1.76526 5.3967 2.64898 2.47227 2.69113 2.11029 1.95428 1.75964 1.67796 1.9753 3.14672 2.1906 1.78457 2.23526 2.4843 5.11525 3.21156 1.83174 1.78308 1.94486 2.69929 1.67672 1.64082 2.20938 1.63101 1.60497 1.59362 1.5673 1.68188 2.72659 2.86829 2.62782 2.40713 2.06663 3.38227 2.0129 2.77886 2.10149 1.56168 1.55829 1.55612 1.56296 1.54077 1.53972 1.56321 1.52666 1.50852 1.76977 1.52366 1.49936 1.4992
threshold=12.500000000000002 19.500000000000004 13.500000000000002 20.500000000000004 9.5000000000000018 2.5000000000000004 5.1850000000000014 44.365000000000002 9.5000000000000018 18.500000000000004 22.850000000000005 21.500000000000004 14.975000000000003 18.500000000000004 0.075000000000000025 44.840000000000011 56.475000000000001 11.500000000000002 0.60500000000000009 0.89500000000000013 1010.0850000000002 1031.1900000000003 1024.6350000000004 9.5000000000000018 9.5000000000000018 31.975000000000005 7.5000000000000009 2.5000000000000004 24.905000000000005 11.500000000000002 14.500000000000002 1001.9650000000001 1023.1450000000001 13.505000000000001 5.6850000000000014 0.44500000000000006 6.4300000000000006 12.215000000000002 0.022600000000000006 0.30500000000000005 1019.8650000000001 1.0000000180025095e-35 1017.3150000000002 30.115000000000006 999.63000000000011 997.85500000000013 0.58500000000000008 287.50000000000006 2.5000000000000004 5.5000000000000009 27.385000000000002 2.5250000000000004 22.385000000000002 1.5000000000000002 34.705000000000005 1010.8350000000002 1014.1550000000001 0.92500000000000016 0.6150000000000001 1020.6250000000001 10.500000000000002 17.500000000000004 80.500000000000014 26.995000000000001 0.50500000000000012 25.485000000000003 44.655000000000008 69.320000000000007 306.50000000000006 324.50000000000006 0.84500000000000008 0.31500000000000006 35.060000000000009 14.500000000000002 0.77500000000000013 42.915000000000006 9.9550000000000018 1019.6750000000001 43.285000000000004 3.5000000000000004 269.50000000000006 1020.3650000000001 1020.7350000000001 31.745000000000001 0.36500000000000005 189.50000000000003 1.6250000000000002 31.410000000000004 27.085000000000004 2.4350000000000005 11.485000000000001 1.0000000180025095e-35 3.6150000000000007 34.570000000000007 28.355000000000004 305.50000000000006 3.2650000000000001 340.50000000000006 1019.2550000000001 56.255000000000003 0.46500000000000002 0.095000000000000015 7.5000000000000009 40.620000000000012 275.50000000000006 3.5000000000000004 1028.5250000000003 1029.7550000000003 40.865000000000002 3.5000000000000004 0.50500000000000012 52.005000000000003 42.000000000000007 0.39500000000000007 995.87500000000011 1008.3650000000001 6.6550000000000011 0.82500000000000007 0.92500000000000016 0.115 8.5000000000000018 5.7150000000000007 44.815000000000005 8.4950000000000028 0.011050000000000003 6.8850000000000007 42.080000000000005 49.630000000000003 36.345000000000006 8.5000000000000018 47.610000000000007 0.68500000000000016 56.975000000000001 41.340000000000011 0.58500000000000008 1023.5050000000001 0.52500000000000013 1.6250000000000002 0.66500000000000015 0.00175 9.9450000000000021 0.65500000000000014 4.5000000000000009 28.760000000000002 70.935000000000016 69.915000000000006 0.51500000000000012 0.22500000000000003 42.530000000000008 1011.3150000000002 55.565000000000005 0.38500000000000006 7.5000000000000009 5.5000000000000009 8.1650000000000009 0.23500000000000001 4.5000000000000009 23.500000000000004 16.500000000000004 9.9850000000000012 1016.3350000000002 1011.6950000000002 218.50000000000003 63.955000000000005 45.085000000000008 266.50000000000006 56.305000000000007 0.7350000000000001 6.1450000000000005 48.795000000000009 1015.3450000000001 0.72500000000000009 0.32500000000000007 7.3450000000000006 47.855000000000011 0.32500000000000007 50.545000000000009 43.25500000000001 69.965000000000018 1018.2150000000001 41.785000000000004 0.025000000000000005 35.060000000000009 0.60500000000000009 0.71500000000000008 4.0550000000000006 220.50000000000003 1020.3650000000001 3.3600000000000003 8.5000000000000018 42.785000000000004 19.785000000000004 22.005000000000006 30.685000000000006 346.50000000000006 1.0000000180025095e-35 0.34500000000000003 14.500000000000002 4.5000000000000009
decision_type=2 2 2 2 2 2 2 2 2 2 2 2 2 2 2 2 2 2 2 2 2 2 2 2 2 2 2 2 2 2 2 2 2 2 2 2 2 2 2 2 2 2 2 2 2 2 2 2 2 2 2 2 2 2 2 2 2 2 2 2 2 2 2 2 2 2 2 2 2 2 2 2 2 2 2 2 2 2 2 2 2 2 2 2 2 2 2 2 2 2 2 2 2 2 2 2 2 2 2 2 2 2 2 2 2 2 2 2 2 2 2 2 2 2 2 2 2 2 2 2 2 2 2 2 2 2 2 2 2 2 2 2 2 2 2 2 2 2 2 2 2 2 2 2 2 2 2 2 2 2 2 2 2 2 2 2 2 2 2 2 2 2 2 2 2 2 2 2 2 2 2 2 2 2 2 2 2 2 2 2 2 2 2 2 2 2 2 2 2 2 2 2 2 2 2 2 2 2 2
left_child=17 2 7 8 5 6 197 -2 48 12 31 24 18 15 34 22 25 -1 21 20 -20 30 29 79 27 -17 28 -5 -22 55 39 -6 191 50 -8 73 -37 -38 123 -7 41 -16 43 45 85 -43 121 64 74 63 89 70 88 54 -54 66 -57 58 -58 60 -60 93 -62 190 -47 -42 186 188 -55 -70 -39 -63 -19 -36 169 -75 78 91 -27 126 128 83 -83 -41 -84 -45 -73 -15 -53 -34 -91 92 -78 134 -95 98 97 132 109 100 101 103 105 -100 -105 -102 -107 -108 -109 110 -96 -111 113 -113 -114 -116 -104 -101 156 -120 194 -44 -85 -30 125 -125 -9 -77 -46 130 173 -131 133 -97 135 136 -32 -66 140 -140 -139 -76 -98 -144 145 146 147 198 149 -148 151 152 155 -152 -154 -150 -117 158 -158 -160 161 174 166 164 -164 -166 -163 -168 -169 -3 -49 -172 -132 -81 -159 -11 177 179 183 180 -177 182 -181 -179 185 -185 -12 -64 -21 -190 -14 192 -33 -183 195 196 -50 -4 -88
right_child=1 3 4 11 10 9 14 23 -10 175 13 -13 49 87 40 16 -18 72 19 67 26 -23 -24 -25 -26 76 -28 -29 38 -31 61 32 33 -35 35 36 37 51 -40 81 65 42 46 44 80 47 -48 170 120 -51 -52 52 53 68 -56 56 57 -59 59 -61 62 71 187 -65 137 -67 -68 -69 69 -71 -72 86 -74 75 141 127 77 -79 -80 129 -82 82 84 122 -86 -87 144 -89 -90 90 -92 -93 -94 94 95 96 142 -99 99 117 102 -103 116 104 -106 106 107 108 -110 111 -112 112 114 -115 115 118 -118 -119 119 -121 -122 -123 -124 124 -126 -127 -128 -129 -130 131 172 -133 -134 -135 -136 -137 -138 138 139 -141 -142 -143 143 -145 -146 -147 148 -149 150 -151 153 -153 154 -155 -156 -157 157 160 159 -161 -162 162 163 -165 165 -167 167 168 -170 -171 171 -173 -174 -175 -176 176 -178 178 -180 181 -182 193 -184 184 -186 -187 -188 -189 189 -191 -192 -193 -194 -195 -196 -197 -198 -199 -200
leaf_value=-0.0047006056052379631 -0.00082453933522608474 -0.00044092207230769548 0.012723062030232768 -0.0040899272961750846 0.015722839653656628 0.0031448448434637129 0.016093351673941863 0.011230846958697067 -0.002161092339299224 0.014743191669532219 0.0081949741353339045 -0.0042014304975722724 0.005139968430899991 0.0079534442519423355 -0.0056688844015740829 0.014806121613317472 0.017631738231783468 -0.0043136043444527835 0.0014880291667238371 0.0073355892952130146 -1.7237789363501773e-05 0.00060487488494237072 0.016255868813785372 -0.0021439340547595915 -0.00477062539013414 0.016288701685205586 0.0023235152984649662 0.00067537335669535657 0.021052149370976648 0.0030723314803247311 0.021179690355746822 0.002601346643502046 -0.0054456007589859176 0.018618214373804023 0.0057263854485069994 0.0026274308389816312 0.017184238483557816 0.021056287107845642 2.931895401530169e-05 0.020866416554301256 0.011800619553907642 0.021669279745646888 0.014857396470162916 0.0075213820659393183 0.007843707651655013 0.012975082866436234 0.021149889973374948 -0.0018259776279571942 0.012399737790082264 0.013039526183564796 0.015104508189835122 0.0073620614212875513 0.019534619115903731 0.021094714734012011 0.0025165165524043843 -0.0038602088517443092 0.017434971281013883 0.020000988917656993 0.0031273573413340646 -0.0038614385918957711 0.0061888562029132916 0.020919489185922804 0.017635546761796843 -0.0032845016354967104 -0.0041223096378629484 -0.001740858656938727 0.0044673908134166785 0.0043364293359950861 -0.0043984882303223175 0.019509236328303814 -0.002604481395799667 0.0069086921201609395 -0.0017101339943701782 0.01857905950588529 -0.0076204778118567039 0.00057186215698955679 -0.0012927368423168613 0.00016424222685890754 -0.002473984253266497 0.016673708298893402 0.01085399789032219 -0.0063980622867140739 -0.0073386200186279088 -0.0018736767679134886 0.011309586285654155 -0.0051724215707482394 0.014723549622474531 0.00081049727347281837 -0.00089755275762182533 0.0099646329044053069 0.0011289560306397739 -0.0042492764400728781 0.014682332024164453 -0.0030049574156180911 0.021092184318736357 0.00072764280111117005 0.022608319384665926 0.016704005511892186 -0.0029242675668925428 0.0036725027221150685 -0.0056515403402348369 0.002345394741406652 0.01346245285958864 0.017674287654583509 0.0022482712347071708 0.020120573131572967 -0.0017413579773558523 0.022740947500464917 -0.0018655125280002171 0.021808735017334106 0.007581143477664129 -0.0043064406615615424 -0.005595667351116526 0.012094488449299792 0.020096859836996359 0.025668770546400096 0.0011387070369777046 0.013037019300136008 -0.0023361278906464575 0.013025967627548827 0.0018782713475640088 2.9940029399132534e-05 0.013113560552517009 0.019239936081773563 -0.0021097921342516203 0.010697380651302314 -0.0014855922470035565 0.025916611381939483 0.024399330103502634 0.0092076540773365547 -0.0013189548349607952 -0.00020450449537583477 -0.00094450666603936246 0.01855705816552277 0.025961355717569697 -9.9089040304534137e-05 0.0051956562354716039 -0.00038913726078849536 0.01045167661747352 -0.0022102904806767282 0.0088773146797362524 0.014266085576650406 -0.00028261009480475506 0.018299545215869448 0.014954253110130381 0.0045283850360225654 -0.0054026620885865261 -0.0055234906641212674 0.0010430867097647532 0.021149956886084408 0.023429909943332595 0.022961345748467879 0.017019108402160317 0.013135941662702667 -0.0064293949212878947 0.011858811435834846 0.014538832642855227 0.00365498799129236 -0.0038314350442267319 0.023415693598134179 0.017850996596712094 -0.011475799173116684 -0.0053345033995804911 -0.002022973521616817 0.0048987094543433973 0.019398905822065979 0.019432904233707079 0.01767082114567305 0.0068910241017568269 0.009396170419824653 0.0010739515334375702 0.020823841579258442 0.006809562950182666 0.0031152107488565351 0.018230837921332493 0.0019234753096651577 0.010435010941250962 -0.0011106861799621752 0.016240000549307163 0.013757183274501858 0.014027178644410372 -0.011095052300130621 -0.0099135126202152327 0.00351941520186094 0.0032283963336027671 0.017962381199987189 0.016929945233216111 0.0017410373502869661 0.022026690378008661 0.014824148926068044 0.021724173910094097 -0.0017397512748818661 0.022774084239471248 0.019372388467211094 0.013547163564917981 0.0063534407861484191 -0.00073280705381994658 0.023883240031616446 0.0037065411681553315
leaf_weight=169158 5647 1968 144 2397 181 395 892 133 3014 514 250 27992 318 462 230 296 560 4588 1219 116 241 331 1246 930 3031 93 537 8623 418 990 421 609 266 185 219 916 550 266 148 412 175 175 144 208 74 465 421 1078 103 356 208 532 122 388 559 474 416 418 887 281 386 312 777 462 201 802 265 144 93 84 50 580 9566 748 44 122 88 1065 1131 409 214 101 63 82 1949 275 302 1772 565 347 772 76 517 105 283 130 816 538 79 563 42 385 1033 724 124 1476 129 211 51 769 833 168 47 157 968 158 158 363 125 325 1210 199 4192 575 128 484 588 35 453 361 260 775 180 191 283 64 86 745 930 144 293 189 119 1878 2406 315 88 111 565 588 248 110 319 1011 40 205 547 79 188 35 2610 25 77 306 109 434 696 479 451 190 194 80 4881 111 1485 462 4172 540 216 267 255 17 78 158 1048 278 1129 67 833 472 68 1968 41 505 262 6360 621 734 209
leaf_count=169158 5647 1968 144 2397 181 395 892 133 3014 514 250 27992 318 462 230 296 560 4588 1219 116 241 331 1246 930 3031 93 537 8623 418 990 421 609 266 185 219 916 550 266 148 412 175 175 144 208 74 465 421 1078 103 356 208 532 122 388 559 474 416 418 887 281 386 312 777 462 201 802 265 144 93 84 50 580 9566 748 44 122 88 1065 1131 409 214 101 63 82 1949 275 302 1772 565 347 772 76 517 105 283 130 816 538 79 563 42 385 1033 724 124 1476 129 211 51 769 833 168 47 157 968 158 158 363 125 325 1210 199 4192 575 128 484 588 35 453 361 260 775 180 191 283 64 86 745 930 144 293 189 119 1878 2406 315 88 111 565 588 248 110 319 1011 40 205 547 79 188 35 2610 25 77 306 109 434 696 479 451 190 194 80 4881 111 1485 462 4172 540 216 267 255 17 78 158 1048 278 1129 67 833 472 68 1968 41 505 262 6360 621 734 209
internal_value=0 0.00538728 0.00939467 -0.00164683 0.0105255 0.0117024 0.00887919 0.00263891 0.00313853 0.0124989 0.0062637 -0.00323588 0.0131147 0.0075287 0.00803127 0.00855468 0.00530636 -0.00453486 0.0133435 0.0102827 0.00742188 0.01379 0.010193 0.00495403 -0.00131233 0.00319301 0.0102798 -0.000361144 0.0124225 0.00900142 0.0139108 0.0024922 0.00194745 0.00532444 0.0104911 0.00953911 0.00822854 0.00982736 0.0141327 0.0118976 0.00601713 0.00681581 0.00727211 0.0062785 0.0115181 0.00478879 0.0144627 0.00407351 0.00459766 0.00517972 0.0037806 0.00830563 0.00709088 0.0105974 0.00556528 0.0100986 0.00854854 0.0103684 0.00893753 0.00746342 0.00896662 0.0144118 0.0131775 0.00188009 0.0060899 0.000684688 0.0135928 0.0171378 0.0166628 0.00694755 0.0173125 0.0127302 -0.00255405 0.0143488 0.00137119 0.0164353 0.00203561 0.00419758 -0.00104839 0.00583207 0.0188341 0.0124061 0.00990717 0.0135329 0.0107257 0.000294061 0.0123702 0.00228769 0.00310802 0.00207997 0.00386888 0.0105052 0.0123587 0.0149912 0.0148022 0.0148932 0.0169359 0.0119882 0.0144219 0.0128462 0.0140011 0.0104778 0.0154922 0.0138554 0.0154186 0.0177785 0.0183056 0.0114541 0.0179511 0.0151627 0.0110073 0.0156156 0.0151127 0.00361647 0.0155213 0.0156304 0.0118276 0.00734347 0.0150985 0.00875872 0.0054993 0.00625488 0.012826 0.0154332 0.0134545 0.0153357 0.000860159 0.00622197 0.0220746 0.00635948 0.00707647 0.00278651 0.00692411 0.0113364 0.01956 0.0163873 0.0184684 0.00470572 0.00554589 0.00875398 0.00222654 0.010133 0.0187634 0.0171922 0.0128563 0.0116284 0.0122176 0.00740848 0.01316 0.0176934 0.0119332 0.00865058 0.00725626 0.0151637 0.0144065 0.0039226 0.01547 0.0152558 0.0104571 0.00044502 0.0158031 0.0145123 0.0127023 0.00855648 0.0137779 0.0164882 0.0150276 0.0154351 0.0124432 0.00042518 -6.96375e-05 0.00684034 0.00639847 0.0137795 0.0174946 0.00939058 0.0090465 0.00753163 0.00528618 0.010707 0.00622814 0.014411 0.00840555 0.00411719 0.00601952 0.0127285 0.0153464 0.0163738 0.018435 0.0194216 0.00806154 -0.000346017 0.00387378 0.0183802 0.00609574 0.00582016 0.0011355 0.0220529 0.0102176
internal_weight=0 154307 98303 56004 84208 65985 14519 14095 13961 51466 18223 42043 42956 13646 13641 11412 3826 183312 41752 5315 3750 36437 7586 8448 14051 3266 2531 11020 1994 6340 36106 4577 4396 1778 6141 5249 4125 3209 1753 7194 7500 6523 6293 5529 1224 4305 764 4130 10947 1204 1593 2659 2343 1246 681 5350 3706 3232 2814 2398 2117 28912 1230 848 2778 977 1644 1565 565 177 316 7409 14154 1124 2391 905 2970 1746 1224 7518 741 6799 2113 4686 2012 483 7097 2234 1097 1385 1119 681 605 21503 20649 20544 3852 1039 16692 5338 4412 1312 3100 927 848 1909 1867 391 262 11354 1116 10238 9469 325 9144 9097 1191 926 8129 450 8556 343 4274 1605 1187 1059 721 157 527 6797 5661 1136 501 321 854 571 507 2313 2112 1074 1038 233 2813 1997 6517 4111 3796 622 3174 676 2498 1239 1129 1259 359 770 7679 7521 770 223 6751 4141 2577 926 620 543 1651 1626 930 2158 1352 274 5141 520 1564 8510 7996 3824 2240 1584 717 867 345 2024 1484 436 1379 844 1421 1305 386 2618 650 522 7346 7084 724 878 511
internal_count=337619 154307 98303 56004 84208 65985 14519 14095 13961 51466 18223 42043 42956 13646 13641 11412 3826 183312 41752 5315 3750 36437 7586 8448 14051 3266 2531 11020 1994 6340 36106 4577 4396 1778 6141 5249 4125 3209 1753 7194 7500 6523 6293 5529 1224 4305 764 4130 10947 1204 1593 2659 2343 1246 681 5350 3706 3232 2814 2398 2117 28912 1230 848 2778 977 1644 1565 565 177 316 7409 14154 1124 2391 905 2970 1746 1224 7518 741 6799 2113 4686 2012 483 7097 2234 1097 1385 1119 681 605 21503 20649 20544 3852 1039 16692 5338 4412 1312 3100 927 848 1909 1867 391 262 11354 1116 10238 9469 325 9144 9097 1191 926 8129 450 8556 343 4274 1605 1187 1059 721 157 527 6797 5661 1136 501 321 854 571 507 2313 2112 1074 1038 233 2813 1997 6517 4111 3796 622 3174 676 2498 1239 1129 1259 359 770 7679 7521 770 223 6751 4141 2577 926 620 543 1651 1626 930 2158 1352 274 5141 520 1564 8510 7996 3824 2240 1584 717 867 345 2024 1484 436 1379 844 1421 1305 386 2618 650 522 7346 7084 724 878 511
is_linear=0
shrinkage=0.1


Tree=5
num_leaves=200
num_cat=0
split_feature=12 12 12 12 11 11 2 3 11 12 12 12 5 6 11 9 12 6 1 4 4 9 9 11 9 0 11 0 11 12 12 12 3 9 7 0 0 4 6 9 0 4 4 4 9 6 0 1 11 9 12 4 1 4 4 0 1 9 12 1 9 12 0 7 4 3 9 3 11 9 6 0 9 4 8 7 9 0 0 7 5 4 4 4 6 7 1 0 9 11 7 2 4 3 1 7 9 2 4 4 11 4 4 1 5 6 4 4 5 6 2 6 9 1 6 3 9 9 0 6 4 11 6 9 7 7 5 7 1 6 9 5 4 0 5 1 3 5 6 1 1 4 6 4 9 2 7 11 11 0 0 9 8 11 1 2 0 11 11 9 6 11 9 3 3 9 4 4 11 11 0 6 7 5 0 9 6 7 4 7 7 7 9 4 7 0 4 0 6 1 12 3 1 12 0 0 1 1 9
split_gain=668.107 352.323 60.8291 34.495 34.213 12.0183 13.1366 9.4217 8.7446 7.97923 7.36171 6.32495 6.31753 5.47435 5.23793 5.05446 4.9841 4.62154 8.44291 5.25506 4.79768 4.26127 8.13082 3.94798 3.99774 3.89535 3.254 3.23101 3.12428 2.99525 3.10688 2.93546 2.74357 2.74255 2.7522 3.11187 2.65362 5.26961 2.79927 4.37384 3.3591 3.83571 2.64948 6.35913 2.81297 3.36591 3.33048 2.58589 2.52923 2.50786 2.46992 2.41924 2.40538 2.32713 3.2804 4.2491 3.41011 4.08029 2.48966 2.32577 2.76973 2.45249 2.32489 2.32193 2.77038 2.31207 2.30816 2.28217 3.21947 2.61155 2.29734 2.25487 2.23345 2.22547 2.15035 2.13502 2.68819 2.10513 2.04502 2.01365 2.74583 1.9458 1.92762 1.87335 1.84879 1.89854 1.7254 2.00548 1.88727 2.01142 1.73495 1.6907 3.5529 2.55621 1.68185 1.65599 1.6536 1.98471 1.64029 1.63131 1.61207 1.60793 1.9721 1.8092 1.77599 1.59819 2.38293 1.86957 1.5973 1.55742 2.29377 1.55133 1.53542 1.50995 1.50963 1.69655 3.04478 2.72122 3.6598 4.01029 2.53065 3.17956 3.70912 2.4241 2.42235 3.05983 2.36017 2.34293 2.11801 1.99028 1.82836 1.74319 1.68812 1.56982 1.49314 2.74941 1.46849 1.78759 1.79364 1.63122 2.01303 1.45682 1.45569 1.43686 1.68717 1.43392 1.43268 1.42113 1.41853 2.31432 1.45645 1.40201 1.64961 1.52646 1.66543 2.10103 1.3973 1.39135 1.73407 1.38782 1.39873 1.3837 1.37739 2.61654 3.02819 2.4097 2.34108 1.96092 2.39208 3.90747 2.35229 1.73635 1.67894 1.70777 1.58881 1.48019 1.47546 1.46685 1.45889 1.37151 1.90814 1.37 1.33484 1.35356 1.33209 1.39783 1.33007 1.32943 1.32389 1.3955 1.31545 1.31424 1.46865 1.31256 1.96967 1.31196 1.30784 1.30243 1.2963
threshold=12.500000000000002 19.500000000000004 13.500000000000002 20.500000000000004 9.5000000000000018 2.5000000000000004 5.1850000000000014 35.060000000000009 9.5000000000000018 18.500000000000004 17.500000000000004 21.500000000000004 14.975000000000003 0.075000000000000025 9.5000000000000018 22.385000000000002 10.500000000000002 0.60500000000000009 0.89500000000000013 1010.3650000000001 1031.6450000000002 43.285000000000004 56.475000000000001 7.5000000000000009 25.105000000000004 58.265000000000008 3.5000000000000004 43.295000000000009 11.500000000000002 18.500000000000004 14.500000000000002 14.500000000000002 55.240000000000002 2.4350000000000005 327.50000000000006 17.525000000000002 48.565000000000005 999.63000000000011 0.89500000000000013 27.465000000000003 41.270000000000003 997.85500000000013 1011.2250000000001 1015.0050000000001 34.185000000000009 0.15500000000000003 29.375000000000004 0.30500000000000005 5.5000000000000009 25.105000000000004 14.500000000000002 1024.7550000000003 0.74500000000000011 1008.5050000000001 1020.2450000000001 14.620000000000003 0.69500000000000006 18.115000000000006 14.500000000000002 0.26500000000000007 7.3550000000000013 17.500000000000004 21.100000000000005 312.50000000000006 1011.9350000000001 19.785000000000004 5.7150000000000007 32.835000000000008 1.5000000000000002 28.135000000000002 0.03500000000000001 44.135000000000012 27.465000000000003 1009.8950000000001 0.022600000000000006 273.50000000000006 3.1150000000000007 69.320000000000007 32.07500000000001 287.50000000000006 5.7350000000000012 1011.5050000000001 1014.4950000000001 1017.4750000000001 0.89500000000000013 187.50000000000003 0.8650000000000001 42.295000000000009 43.595000000000006 6.5000000000000009 39.500000000000007 9.9550000000000018 1015.9050000000001 43.845000000000006 0.40500000000000008 54.500000000000007 39.625000000000007 8.4950000000000028 1016.1850000000001 1023.1450000000001 8.5000000000000018 1021.4850000000001 1018.1450000000001 0.32500000000000007 5.1650000000000009 0.26500000000000007 1025.0550000000001 994.73500000000013 5.245000000000001 0.75500000000000012 9.6950000000000021 0.085000000000000006 25.970000000000002 0.7350000000000001 0.24500000000000002 82.575000000000003 56.255000000000003 48.425000000000004 52.435000000000009 1.0000000180025095e-35 1020.9650000000001 8.5000000000000018 0.115 57.405000000000008 302.50000000000006 173.50000000000003 4.0150000000000006 220.50000000000003 0.6150000000000001 0.14500000000000005 31.745000000000001 1.4950000000000003 1026.6500000000003 62.080000000000005 1.1250000000000002 0.7350000000000001 40.32500000000001 4.7650000000000006 0.03500000000000001 0.6150000000000001 0.36500000000000005 1024.0250000000003 0.025000000000000005 1026.3000000000002 20.565000000000001 9.1350000000000033 293.50000000000006 3.5000000000000004 4.5000000000000009 44.135000000000012 40.605000000000011 30.520000000000007 0.0080500000000000016 5.5000000000000009 0.42500000000000004 9.3450000000000006 52.660000000000004 9.5000000000000018 2.5000000000000004 66.615000000000023 0.075000000000000025 8.5000000000000018 19.875000000000004 32.375000000000007 39.760000000000012 23.075000000000003 1030.5000000000002 1018.9150000000001 5.5000000000000009 3.5000000000000004 55.565000000000005 0.015000000000000001 343.50000000000006 7.1150000000000011 42.530000000000008 28.760000000000002 0.22500000000000003 179.50000000000003 1019.3150000000002 101.50000000000001 280.50000000000006 174.50000000000003 65.995000000000019 1017.8750000000001 304.50000000000006 84.410000000000011 1019.6750000000001 57.185000000000009 0.025000000000000005 0.62500000000000011 14.500000000000002 32.135000000000012 0.90500000000000014 22.500000000000004 57.435000000000009 42.785000000000004 0.30500000000000005 0.53500000000000014 4.4150000000000009
decision_type=2 2 2 2 2 2 2 2 2 2 2 2 2 2 2 2 2 2 2 2 2 2 2 2 2 2 2 2 2 2 2 2 2 2 2 2 2 2 2 2 2 2 2 2 2 2 2 2 2 2 2 2 2 2 2 2 2 2 2 2 2 2 2 2 2 2 2 2 2 2 2 2 2 2 2 2 2 2 2 2 2 2 2 2 2 2 2 2 2 2 2 2 2 2 2 2 2 2 2 2 2 2 2 2 2 2 2 2 2 2 2 2 2 2 2 2 2 2 2 2 2 2 2 2 2 2 2 2 2 2 2 2 2 2 2 2 2 2 2 2 2 2 2 2 2 2 2 2 2 2 2 2 2 2 2 2 2 2 2 2 2 2 2 2 2 2 2 2 2 2 2 2 2 2 2 2 2 2 2 2 2 2 2 2 2 2 2 2 2 2 2 2 2 2 2 2 2 2 2
left_child=16 2 7 8 5 6 -4 -2 32 12 15 25 17 29 26 63 -1 20 19 109 31 28 91 24 -21 157 -9 -28 42 30 -8 47 83 -32 35 -35 38 -38 40 -40 41 -15 -17 -44 46 145 49 -7 72 -45 -48 -30 -36 79 55 -55 57 58 -57 -33 66 78 -56 64 -6 75 -61 68 98 94 -70 -18 195 -71 96 76 -66 -20 -62 80 -43 191 -83 -3 85 95 87 136 -88 -90 -91 93 -93 -23 -69 -84 112 -98 -37 -67 -73 102 103 -29 -104 114 107 -107 -60 -19 -111 188 -26 141 115 116 117 118 124 -120 121 122 147 -118 125 -80 133 128 -127 182 132 -130 -129 -125 135 -63 137 138 -49 140 -139 -65 -52 144 -87 -46 198 -121 149 150 186 -89 153 154 -153 -156 -25 158 -5 160 -135 -34 -136 166 165 -165 -164 170 169 -169 175 -170 173 178 -171 -166 -177 -178 -173 -116 -181 -64 183 -128 185 -124 -85 -172 -103 -190 -58 -12 -193 194 -13 -14 -11 -50 -31
right_child=1 3 4 11 10 9 13 14 -10 196 81 193 48 36 -16 21 71 18 77 23 -22 22 -24 156 74 -27 27 101 51 146 33 59 161 34 52 67 37 -39 39 -41 -42 53 43 44 45 -47 50 86 197 -51 142 -53 -54 54 62 56 190 -59 108 60 61 134 181 113 65 99 -68 69 70 73 -72 100 -74 -75 -76 -77 -78 -79 105 -81 -82 82 84 148 -86 143 88 151 89 90 -92 92 -94 -95 -96 -97 97 -99 -100 -101 -102 111 104 -105 -106 106 -108 -109 -110 110 -112 -113 -114 -115 179 -117 123 -119 119 120 -122 -123 184 126 -126 127 129 130 131 -131 -132 -133 -134 159 162 -137 -138 139 -140 -141 -142 -143 -144 -145 -146 -147 -148 -149 -150 -151 -152 152 -154 -155 155 -157 -158 -159 -160 -161 -162 -163 163 164 167 -167 -168 168 171 174 187 172 -174 -175 -176 176 177 -179 -180 180 -182 -183 -184 -185 -186 -187 -188 -189 189 -191 -192 192 -194 -195 -196 -197 -198 -199 -200
