tree
version=v3
num_class=1
num_tree_per_iteration=1
label_index=0
max_feature_idx=12
objective=regression
feature_names=Column_0 Column_1 Column_2 Column_3 Column_4 Column_5 Column_6 Column_7 Column_8 Column_9 Column_10 Column_11 Column_12
feature_infos=[-12.640000000000001:93.719999999999999] [0.13:0.97999999999999998] [0.27000000000000002:10] [-32.079999999999998:101.12] [986.39999999999998:1042.46] [0:22.91] [0:1] [0:359] [0:0.191] [-27.239999999999998:75.489999999999995] [0:0.83999999999999997] [1:12] [0:23]
tree_sizes=21867 22347 22343 22421 22423 22521 22536 22580 22645 22736 22770 22874 22881 22854 22951 22994 22965 22994 23111 23085 23065 23151 23136 23076 23106 23106 23023 23101 23091 23098 23235 23195 23223 23234 23316 23258 23379 23377 23498 23442 23460 23585 23465 23611 23655 23770 23654 23689 23637 23539 23772 23639 23635 23778 23580 23645 23646 23587 23876 23695 23806 23615 23841 23784 23877 23721 23755 23639 23707 23985 23556 23674 23746 23905 23859 23736 23677 23760 23929 23815 23760 23968 23831 23871 23901 23764 23787 23903 23863 23702 23925 23738 24085 23923 23759 23910 23806 24017 23819 23873

Tree=0
num_leaves=250
num_cat=0
split_feature=12 12 12 12 11 11 2 0 11 12 9 5 12 3 9 6 6 1 4 4 12 11 9 12 4 11 8 11 12 11 9 4 7 11 1 5 4 1 8 12 4 11 5 4 4 1 7 4 7 4 9 0 9 11 6 0 7 2 7 5 0 0 5 1 1 11 11 4 1 1 7 1 1 1 3 0 3 0 5 9 5 7 1 11 0 4 1 5 7 0 0 8 9 0 4 4 1 5 1 9 5 11 0 7 11 1 5 4 1 9 2 1 7 0 4 11 5 2 3 7 7 6 0 9 12 3 1 6 0 3 12 4 5 5 4 11 1 3 1 7 3 7 4 11 2 9 9 0 4 9 5 4 4 7 8 5 1 11 0 3 4 0 4 4 9 7 12 4 5 0 0 6 4 0 9 6 0 1 0 7 7 4 4 0 1 9 7 5 7 7 0 0 4 3 12 4 0 11 11 0 1 7 9 9 1 11 11 0 7 9 9 7 3 1 11 0 9 2 3 4 7 7 0 0 4 7 12 0 9 8 8 0 0 4 0 0 0 6 9 4 0 6 4 2 9 7 0 9 7
split_gain=1910.83 1019.02 176.893 98.0648 94.2957 35.3034 37.5443 26.7612 25.9874 24.2624 21.2697 18.5021 17.7953 17.2217 22.2644 16.0464 15.2964 23.6888 14.2534 13.0808 12.9451 12.0593 11.8485 11.5567 11.9957 10.4294 9.5603 9.47485 9.0333 9.03264 8.17224 7.96411 8.22692 7.80454 7.57365 7.30918 7.55044 8.70739 11.0529 7.012 6.75801 6.62027 6.43234 6.116 13.9459 6.42273 7.58832 5.86987 7.96328 8.41756 7.86811 6.72189 5.94333 5.76966 5.71051 5.73604 5.66781 6.96528 5.61794 5.2473 5.21852 5.17171 5.08269 5.00727 4.9724 4.85053 4.77639 4.77373 4.70202 4.6646 4.74982 6.57913 4.54615 4.5304 4.36569 4.24833 7.53058 4.20823 5.17764 4.0449 4.00268 3.92216 3.87442 3.86531 3.79248 3.74105 3.46779 3.45298 3.43811 3.53407 4.80875 8.47799 5.23939 5.1588 5.0703 4.80761 8.29915 4.72791 4.95683 5.66701 3.76954 5.80037 6.32974 3.83695 3.68163 3.38879 3.34863 3.41613 3.87254 3.33845 4.50813 3.3135 3.23907 3.21152 4.79759 3.76917 3.55265 3.20945 3.19199 3.16541 3.15642 3.14485 3.11315 3.27532 6.41656 4.75709 4.44867 4.14471 3.10327 3.06879 5.17169 3.05507 3.0334 3.03101 3.01835 3.0118 4.58742 4.99036 3.42017 3.01015 3.8491 2.95319 2.93824 2.77933 2.73561 7.56234 4.99945 2.73234 2.70329 3.50296 5.28504 4.68436 6.29086 3.37433 2.65918 5.25736 2.65598 2.63129 2.61129 2.61014 2.58715 2.58219 2.57274 2.55999 2.50792 3.42226 3.85453 2.46734 4.0663 3.24542 3.6391 3.64112 3.0714 2.61088 2.45906 2.47482 2.45792 2.41494 2.4136 2.40908 2.40737 2.38213 2.77113 3.53578 3.12418 2.61996 2.37612 2.37053 2.35458 2.35105 2.81018 2.3288 2.31353 2.30273 2.29707 2.28737 2.27365 2.22061 2.74365 2.16979 2.12579 2.11307 2.10142 2.09341 2.07498 2.07001 2.12146 2.69189 2.04926 2.03301 3.07311 2.57924 2.13326 1.97699 1.95885 2.03546 2.08617 1.95336 2.00362 2.12956 1.94317 1.93636 3.22553 1.93373 1.92575 1.88952 1.85294 1.83754 1.83323 1.80013 1.79908 1.79642 1.78627 3.22901 1.76939 3.01342 2.9035 1.83472 1.76203 1.74275 1.72709 1.72187 1.69168 1.66998 1.65927 1.65783 1.65542 1.64814 1.6311
threshold=12.500000000000002 19.500000000000004 13.500000000000002 20.500000000000004 9.5000000000000018 2.5000000000000004 5.1850000000000014 44.415000000000006 9.5000000000000018 18.500000000000004 23.005000000000006 15.055000000000001 21.500000000000004 44.57500000000001 56.455000000000005 0.075000000000000025 0.60500000000000009 0.89500000000000013 1010.0750000000002 1031.2050000000002 11.500000000000002 9.5000000000000018 32.015000000000008 18.500000000000004 1024.6350000000004 11.500000000000002 0.0073500000000000015 9.5000000000000018 14.500000000000002 2.5000000000000004 2.4450000000000007 1001.9550000000002 312.50000000000006 5.5000000000000009 0.30500000000000005 14.845000000000001 1019.8050000000001 0.80500000000000016 1.0000000180025095e-35 17.500000000000004 1023.3950000000001 1.5000000000000002 7.3450000000000006 1010.8050000000001 1014.9050000000001 0.92500000000000016 203.50000000000003 1010.9250000000001 327.50000000000006 1013.6150000000001 29.305000000000003 15.735000000000001 27.895000000000003 8.5000000000000018 0.15500000000000003 35.185000000000009 289.50000000000006 9.9850000000000012 304.50000000000006 8.6750000000000025 25.510000000000002 69.240000000000023 9.8950000000000014 0.63500000000000012 0.31500000000000006 1.5000000000000002 3.5000000000000004 1017.3250000000002 0.74500000000000011 0.67500000000000016 174.50000000000003 0.44500000000000006 0.76500000000000012 0.68500000000000016 34.895000000000003 34.635000000000012 28.355000000000004 58.045000000000009 4.5850000000000009 55.240000000000002 0.67500000000000016 37.500000000000007 0.62500000000000011 1.5000000000000002 28.925000000000004 1011.6350000000001 0.82500000000000007 1.6250000000000002 340.50000000000006 72.305000000000021 60.915000000000006 0.0016500000000000002 48.625000000000007 54.655000000000008 1011.0050000000001 1019.2650000000001 0.51500000000000012 3.6850000000000005 0.67500000000000016 36.850000000000009 4.0850000000000009 6.5000000000000009 63.140000000000008 236.50000000000003 6.5000000000000009 0.64500000000000013 1.2650000000000003 1024.4950000000001 0.80500000000000016 37.655000000000008 9.1150000000000002 0.30500000000000005 228.50000000000003 55.215000000000011 1021.3650000000001 3.5000000000000004 7.5050000000000008 9.8450000000000006 19.355000000000004 228.50000000000003 238.50000000000003 0.30500000000000005 34.785000000000004 20.880000000000006 15.500000000000002 38.940000000000005 0.40500000000000008 0.26500000000000007 70.905000000000015 23.235000000000003 14.500000000000002 1027.5900000000001 7.1550000000000011 10.915000000000001 1015.1800000000002 8.5000000000000018 0.32500000000000007 48.140000000000008 0.68500000000000016 39.500000000000007 37.185000000000009 195.50000000000003 1013.0550000000001 4.5000000000000009 9.9550000000000018 53.185000000000009 43.255000000000003 55.215000000000011 1028.9150000000002 31.385000000000002 7.0550000000000006 1019.5200000000001 1020.6750000000001 338.50000000000006 0.0013500000000000003 8.0550000000000015 0.80500000000000016 1.5000000000000002 19.940000000000005 32.430000000000007 1026.4650000000004 39.135000000000005 1022.7050000000002 1016.4350000000001 2.4450000000000007 299.50000000000006 17.500000000000004 1021.3650000000001 8.1750000000000025 35.590000000000011 39.515000000000008 0.38500000000000006 1019.1150000000001 61.665000000000006 18.865000000000006 0.095000000000000015 39.515000000000008 0.84500000000000008 62.395000000000003 226.50000000000003 339.50000000000006 1015.2650000000001 1018.6250000000001 40.195000000000007 0.55500000000000016 26.605000000000004 192.50000000000003 2.6250000000000004 197.50000000000003 105.50000000000001 40.715000000000011 46.990000000000002 1025.0550000000001 32.430000000000007 14.500000000000002 1012.9650000000001 40.715000000000011 3.5000000000000004 8.5000000000000018 36.035000000000004 0.82500000000000007 130.50000000000003 25.905000000000005 55.240000000000002 0.49500000000000005 8.5000000000000018 3.5000000000000004 48.795000000000009 304.50000000000006 31.785000000000004 15.865 358.50000000000006 40.025000000000006 0.30500000000000005 8.5000000000000018 51.685000000000009 39.225000000000001 4.0000000000000009 32.430000000000007 1030.095 21.500000000000004 157.50000000000003 62.225000000000001 30.765000000000004 1006.1650000000001 197.50000000000003 18.500000000000004 74.655000000000015 34.660000000000004 0.023550000000000005 0.0080500000000000016 41.875000000000007 53.245000000000012 1016.4350000000001 44.415000000000006 55.785000000000004 69.905000000000015 0.075000000000000025 28.365000000000006 1004.4350000000001 57.355000000000011 0.115 1014.4150000000001 9.5650000000000031 42.585000000000008 310.50000000000006 44.185000000000009 21.975000000000005 249.50000000000003
decision_type=2 2 2 2 2 2 2 2 2 2 2 2 2 2 2 2 2 2 2 2 2 2 2 2 2 2 2 2 2 2 2 2 2 2 2 2 2 2 2 2 2 2 2 2 2 2 2 2 2 2 2 2 2 2 2 2 2 2 2 2 2 2 2 2 2 2 2 2 2 2 2 2 2 2 2 2 2 2 2 2 2 2 2 2 2 2 2 2 2 2 2 2 2 2 2 2 2 2 2 2 2 2 2 2 2 2 2 2 2 2 2 2 2 2 2 2 2 2 2 2 2 2 2 2 2 2 2 2 2 2 2 2 2 2 2 2 2 2 2 2 2 2 2 2 2 2 2 2 2 2 2 2 2 2 2 2 2 2 2 2 2 2 2 2 2 2 2 2 2 2 2 2 2 2 2 2 2 2 2 2 2 2 2 2 2 2 2 2 2 2 2 2 2 2 2 2 2 2 2 2 2 2 2 2 2 2 2 2 2 2 2 2 2 2 2 2 2 2 2 2 2 2 2 2 2 2 2 2 2 2 2 2 2 2 2 2 2 2 2 2 2 2 2 2 2 2 2 2 2
left_child=20 2 7 8 5 6 194 193 41 11 31 16 27 23 22 30 19 18 154 28 -1 66 238 24 25 43 53 29 34 -5 105 -6 118 58 161 36 37 38 42 75 -34 -3 63 120 141 46 163 50 49 186 156 -51 69 59 -40 117 57 -44 159 202 245 139 -59 85 -41 82 -9 72 -50 70 247 196 129 -42 -22 133 -77 78 -28 -79 -48 203 -58 -73 -43 -17 199 -66 89 90 92 100 93 94 109 200 -97 -95 99 -99 103 102 -102 201 229 158 107 108 -96 -78 -111 -11 132 114 115 116 -113 -56 164 232 224 -121 -108 124 -124 -125 -126 148 167 -65 -131 -115 -104 179 -103 136 -68 242 -137 140 -19 -45 -39 -90 146 195 -24 -55 149 153 151 -151 -153 -127 -18 -156 -32 -52 -8 -13 209 -7 -116 228 -33 166 -166 169 173 -89 -171 172 234 217 175 -87 -120 -129 -35 241 -106 -82 183 -183 -184 -186 -49 -150 -147 -162 -191 -122 -170 -2 -4 -146 -72 -174 -199 -71 213 220 -20 -36 -64 206 -76 -208 -181 210 -83 -212 -211 -91 215 216 -86 -169 219 -219 -92 222 -139 -118 225 -12 -16 -202 -46 -94 -214 -142 -117 -234 -172 -236 240 -238 -15 -148 -237 -30 -138 -145 -204 -38 -187 -53 -85
right_child=1 3 4 12 10 9 15 21 -10 111 13 33 -14 14 226 35 17 61 26 -21 74 -23 144 -25 -26 -27 77 -29 39 -31 47 32 40 178 81 -37 60 142 54 64 73 84 56 44 45 -47 80 48 68 51 157 52 -54 147 55 -57 65 62 -60 -61 -62 -63 204 67 87 -67 135 -69 -70 86 71 83 -74 -75 205 76 88 79 -80 -81 181 160 -84 248 214 174 -88 128 143 95 91 -93 104 97 106 96 -98 98 -100 -101 101 134 112 -105 180 -107 122 -109 -110 110 -112 113 -114 131 162 119 223 -119 176 121 191 -123 123 125 126 127 -128 177 -130 130 -132 -133 -134 -135 -136 138 137 221 -140 -141 231 -143 -144 243 145 188 239 -149 187 150 -152 152 -154 -155 155 -157 -158 -159 -160 -161 189 -163 -164 -165 165 -167 -168 168 192 170 171 -173 197 -175 -176 -177 -178 -179 -180 208 -182 182 184 -185 185 246 -188 -189 -190 190 -192 -193 -194 -195 -196 -197 -198 198 -200 -201 227 -203 244 -205 -206 -207 207 -209 -210 212 211 -213 230 -215 -216 -217 -218 218 -220 -221 -222 -223 -224 -225 -226 -227 -228 -229 -230 -231 -232 -233 233 -235 235 236 237 -239 -240 -241 -242 -243 -244 -245 -246 -247 -248 -249 -250
leaf_value=0.068919173436726794 0.073449951373039085 0.076230416000968776 0.097937066007647192 0.069987938460311303 0.099705848584006385 0.10648456801033424 0.095124437120273075 0.077248460080848125 0.072644650723648202 0.10138346963471354 0.092832424460027152 0.083416331811129216 0.069674784521261648 0.10727427371691442 0.10212190059031521 0.099451098947339098 0.073272413817542292 0.11120543410429144 0.089411405990293139 0.076872637627322479 0.069505645238250952 0.073035704878357144 0.094438439961206308 0.082333063618841892 0.10095855263071574 0.080495702327395613 0.11504496185694461 0.069074413270172441 0.10471927034581634 0.076919808279144075 0.073143385594889018 0.073316573809040941 0.078072705279111504 0.086456176675759874 0.091035318316108213 0.073745577829359046 0.096442406773556644 0.077397272713123355 0.073164865503882709 0.10798348671279689 0.099831663786973057 0.076196563129078021 0.10358535646867009 0.10296893339940329 0.096359647234997042 0.10496302552357684 0.070294023031455002 0.097654623578702221 0.078296030479592216 0.10969298910572882 0.08574383362644987 0.095237303079815913 0.072920775836266521 0.10081301431240218 0.075511293477528538 0.11210684648740707 0.093562600222217449 0.077037131082943827 0.1003477701803818 0.087313480779532382 0.074204487267497912 0.083410459757403313 0.098173099546052356 0.088011005561822037 0.087522658962726041 0.072361137971454242 0.074743092170550127 0.10814146044205625 0.11428741278270819 0.10438835490429917 0.098704603359023424 0.087717253760668079 0.075718735506159485 0.074202192071711456 0.069977446612171548 0.071679649848796392 0.080546778222570711 0.10773525446980156 0.076487523937029442 0.081756423780272008 0.07135011209647471 0.081960430394013545 0.073644595359711476 0.070537298544363844 0.084340239436253434 0.074117343394766014 0.081349402119883146 0.108147875465016 0.11076895932519146 0.090661195698060471 0.090696510968461347 0.10359589987110315 0.10811737658694427 0.077504217806326201 0.11133671994679953 0.099901221294819348 0.081212852467778818 0.087981392154832389 0.083045527836324684 0.10862834178369118 0.075787896677979957 0.09216423245709579 0.10835751888886394 0.079581499215262225 0.099911621204609211 0.11601982445274224 0.07401600830980333 0.074648358747574806 0.088990952459799835 0.070806626092936129 0.098937541149093117 0.085134087745865894 0.081164058855341226 0.091854416479044326 0.10260908474844369 0.075188296987342071 0.081308297927628434 0.10906199690059426 0.073773140655275071 0.083226447191630706 0.10141567714896113 0.10048118590407473 0.07694159641498137 0.10924105496961174 0.1071377269082044 0.10980983675260836 0.083813424059819785 0.11173478503734044 0.09850191616324161 0.084423258795666492 0.1063239719519558 0.074619167136357814 0.092245594988665136 0.069424345216662256 0.1027590952828306 0.089404099623880476 0.087396643345508659 0.076049479198011735 0.077293397303642278 0.10805940769936642 0.080512919023062707 0.075307204763138555 0.10777679509277743 0.1055036027724056 0.086479370602672689 0.10035624783336668 0.089238376255302815 0.07933825379390784 0.10632154247235767 0.10774828974548589 0.082086112986589452 0.079161899025886634 0.099617697767108396 0.074510225609065561 0.078470072593627593 0.10095822696461317 0.10169789745299092 0.10583436168690025 0.10838188278083558 0.071239072892773675 0.1105372644750244 0.077561450918335759 0.090421415029419763 0.078487357894060666 0.090880045741646848 0.072304401051955014 0.07750539599133982 0.075751662350553001 0.10025650447903856 0.077211320076876408 0.10706179949311581 0.10809598208737747 0.10892007783498875 0.084050636389819855 0.076986476903708564 0.095963936987118706 0.10050908766646682 0.076061754359931177 0.10295260089533813 0.11541595536812384 0.07517746986623676 0.10250872134864278 0.10330512015838371 0.089913244387145944 0.095754095499018449 0.076142158578583988 0.11623372173976097 0.074525326374629622 0.076203672738761608 0.096399459407754143 0.073450689176815451 0.07736604809094387 0.073591021732166445 0.077753812589163751 0.11201322106418929 0.07691465297886789 0.081109711765191647 0.078282585266088944 0.1007325494490061 0.078294568282018626 0.10397602026961408 0.095086200348673669 0.10890586842410788 0.078546375050249168 0.086497411733387181 0.070864111232783383 0.080701395521299596 0.074117917812425549 0.10252900020382222 0.07927347164030879 0.10581671161599748 0.07850649308747 0.095150595670395757 0.10276983522640416 0.080664177927150971 0.086292868377900442 0.077809687636341759 0.082219256220391182 0.10388110979623383 0.11067230406173448 0.07723238523732591 0.087613237689383172 0.086859096898658242 0.1039077933726462 0.098338908881707807 0.078121385772813731 0.08559121757608748 0.08384219889515325 0.077958502249130604 0.091233326635201117 0.1010972269235193 0.096850501568645789 0.099014566121567657 0.069195976419238095 0.08725684803768162 0.10997293307804848 0.10227286205685501 0.08293391046749346 0.092449499611049354 0.07271415502379712 0.096734116222080752 0.087568107412005658 0.10079851385636938 0.097352760225321189 0.1002459519044013 0.068786687673864602 0.091023708877069176 0.10971279155718404 0.08226302980474122
leaf_weight=168899 3941 1248 138 2408 195 34 624 718 3055 261 207 280 28262 113 568 150 553 181 110 314 4509 949 124 1504 1232 947 37 3020 188 8570 470 384 407 150 587 523 163 903 60 305 408 589 237 41 177 369 67 107 524 206 122 624 171 77 81 369 270 492 106 296 780 138 227 365 576 597 301 237 39 508 503 759 141 83 1029 102 210 116 593 124 41 71 153 245 2332 73 88 124 397 139 382 949 1098 205 116 899 323 230 256 315 246 371 191 320 978 124 42 91 234 65 461 435 138 5013 213 642 46 44 1959 473 974 136 154 812 303 409 112 371 2348 152 371 105 301 22 977 337 129 430 757 744 81 658 33 446 297 229 67 257 33 464 198 189 735 29 573 127 35 140 195 474 34 335 927 517 539 250 359 29 48 165 89 142 33 96 394 179 35 20 217 352 41 774 155 313 215 207 193 81 49 87 138 42 101 1816 725 1581 86 335 65 34 74 785 395 174 462 2593 704 5273 190 79 529 37 4416 4504 1172 4915 619 91 834 37 149 3680 771 214 231 151 77 117 78 67 575 398 92 60 673 112 62 235 276 1347 820 85 349 576 503 25 117 90 230
leaf_count=168899 3941 1248 138 2408 195 34 624 718 3055 261 207 280 28262 113 568 150 553 181 110 314 4509 949 124 1504 1232 947 37 3020 188 8570 470 384 407 150 587 523 163 903 60 305 408 589 237 41 177 369 67 107 524 206 122 624 171 77 81 369 270 492 106 296 780 138 227 365 576 597 301 237 39 508 503 759 141 83 1029 102 210 116 593 124 41 71 153 245 2332 73 88 124 397 139 382 949 1098 205 116 899 323 230 256 315 246 371 191 320 978 124 42 91 234 65 461 435 138 5013 213 642 46 44 1959 473 974 136 154 812 303 409 112 371 2348 152 371 105 301 22 977 337 129 430 757 744 81 658 33 446 297 229 67 257 33 464 198 189 735 29 573 127 35 140 195 474 34 335 927 517 539 250 359 29 48 165 89 142 33 96 394 179 35 20 217 352 41 774 155 313 215 207 193 81 49 87 138 42 101 1816 725 1581 86 335 65 34 74 785 395 174 462 2593 704 5273 190 79 529 37 4416 4504 1172 4915 619 91 834 37 149 3680 771 214 231 151 77 117 78 67 575 398 92 60 673 112 62 235 276 1347 820 85 349 576 503 25 117 90 230
internal_value=0.0760771 0.084262 0.0903961 0.0735174 0.0921353 0.0939017 0.0895366 0.080062 0.0807938 0.0951293 0.0857985 0.096104 0.071119 0.0877714 0.0828831 0.0882529 0.0964611 0.0914446 0.087165 0.0971946 0.0691622 0.0836542 0.0801556 0.0903345 0.0919363 0.0901666 0.0915163 0.0740348 0.097372 0.0753993 0.0920519 0.0799277 0.079056 0.0840015 0.0941755 0.0851467 0.0860036 0.0873279 0.0889686 0.0981579 0.087601 0.0830831 0.0873278 0.0918836 0.0896621 0.0925993 0.0908849 0.0904914 0.0918966 0.0935234 0.0824177 0.0921619 0.09108 0.0960159 0.102297 0.105835 0.0838508 0.0879401 0.0787916 0.0990196 0.0778092 0.101883 0.0848005 0.0914388 0.095484 0.0781658 0.0850029 0.0953463 0.0807892 0.0920605 0.0901481 0.0874401 0.0923993 0.0954992 0.0720723 0.0990665 0.0987842 0.0830447 0.078752 0.0943129 0.0942987 0.0949406 0.0863582 0.0832897 0.0839715 0.0852242 0.099762 0.0949406 0.0989184 0.098567 0.0976452 0.0951279 0.0991003 0.097603 0.0988872 0.100565 0.0949615 0.0910553 0.0945235 0.099915 0.093046 0.0957263 0.0893912 0.0894025 0.103306 0.100614 0.100174 0.0919092 0.096397 0.0912058 0.0954613 0.090288 0.0947029 0.0899415 0.0874767 0.0846393 0.0906616 0.0873211 0.0768797 0.0816561 0.097045 0.0870797 0.101096 0.101387 0.0943741 0.102582 0.100843 0.100444 0.0956041 0.0950479 0.0999589 0.0915008 0.0985004 0.106051 0.0998432 0.0858272 0.0867556 0.0874303 0.081024 0.103698 0.0987822 0.0769297 0.0784683 0.103668 0.0784075 0.0807059 0.0751855 0.084289 0.0987124 0.0995563 0.09737 0.0995503 0.0954336 0.107473 0.0784555 0.0825501 0.0751224 0.0964792 0.098281 0.0757611 0.095803 0.0802265 0.0926986 0.0825316 0.0803123 0.0826523 0.0855332 0.093941 0.0976734 0.0923251 0.0916067 0.0925323 0.0916206 0.099797 0.0819207 0.0896354 0.0742424 0.10991 0.0962102 0.10704 0.0989164 0.0951814 0.0957301 0.0988819 0.0907934 0.0871954 0.109607 0.0837295 0.0960991 0.0860279 0.0823242 0.100421 0.0821812 0.0748076 0.109762 0.0784273 0.0961356 0.0839876 0.0819307 0.102751 0.101982 0.0917905 0.102457 0.0881798 0.0903441 0.0732779 0.0741713 0.0748934 0.110898 0.0962466 0.101571 0.104031 0.0955776 0.102407 0.0844781 0.0850464 0.0829704 0.101322 0.102093 0.090444 0.0869184 0.0864754 0.0829889 0.0999094 0.0912206 0.0866275 0.100148 0.0916427 0.0907311 0.107146 0.0958357 0.0940878 0.0774962 0.0872441 0.0932806 0.0926357 0.0955812 0.086971 0.0967559 0.0734971 0.098325 0.0993792 0.0971817 0.10091 0.104055 0.0927648 0.0815161 0.0970619 0.076215
internal_weight=0 154612 98422 56190 84244 65880 14461 14178 13930 51419 18364 42802 42260 13745 4728 13598 41575 5303 3761 36272 183007 8421 4083 9017 7513 6281 2508 13998 35958 10978 6117 4619 4424 1227 7096 7481 6958 5990 5054 28862 898 10875 4500 5334 3729 3030 2661 5174 4407 3844 767 3544 3338 1638 554 494 2438 1418 860 1304 968 1542 1181 2062 7320 1020 7472 1266 563 3167 2537 1823 1029 491 14108 21542 20705 870 630 240 1889 6727 423 1234 9627 796 630 7015 20603 19184 13128 4809 8319 6135 5129 6056 1222 1006 801 545 3860 2224 876 1636 2184 943 4393 441 350 736 526 8617 630 8356 3238 2098 695 125 3526 1403 1605 609 3952 3910 569 3341 415 2529 6439 888 523 5118 492 837 1348 6754 5660 5359 1094 1404 660 699 936 1419 3694 2156 1538 334 2138 2024 1586 1388 924 438 1253 700 505 262 819 754 5966 369 1140 772 1532 1148 898 4091 1236 2855 2731 2566 2424 1087 646 252 1994 391 367 815 1019 1822 1781 1087 694 539 300 114 278 259 225 1016 149 5757 863 1878 589 433 400 542 4834 1316 1008 761 689 9599 7006 5977 542 5707 637 566 5070 4643 9038 7866 2951 991 962 128 531 4881 1201 260 589 358 645 191 255 1165 4991 479 794 152 1991 1902 1229 297 389 1414 932 273 478 1022 898 188 324 714 475
internal_count=337619 154612 98422 56190 84244 65880 14461 14178 13930 51419 18364 42802 42260 13745 4728 13598 41575 5303 3761 36272 183007 8421 4083 9017 7513 6281 2508 13998 35958 10978 6117 4619 4424 1227 7096 7481 6958 5990 5054 28862 898 10875 4500 5334 3729 3030 2661 5174 4407 3844 767 3544 3338 1638 554 494 2438 1418 860 1304 968 1542 1181 2062 7320 1020 7472 1266 563 3167 2537 1823 1029 491 14108 21542 20705 870 630 240 1889 6727 423 1234 9627 796 630 7015 20603 19184 13128 4809 8319 6135 5129 6056 1222 1006 801 545 3860 2224 876 1636 2184 943 4393 441 350 736 526 8617 630 8356 3238 2098 695 125 3526 1403 1605 609 3952 3910 569 3341 415 2529 6439 888 523 5118 492 837 1348 6754 5660 5359 1094 1404 660 699 936 1419 3694 2156 1538 334 2138 2024 1586 1388 924 438 1253 700 505 262 819 754 5966 369 1140 772 1532 1148 898 4091 1236 2855 2731 2566 2424 1087 646 252 1994 391 367 815 1019 1822 1781 1087 694 539 300 114 278 259 225 1016 149 5757 863 1878 589 433 400 542 4834 1316 1008 761 689 9599 7006 5977 542 5707 637 566 5070 4643 9038 7866 2951 991 962 128 531 4881 1201 260 589 358 645 191 255 1165 4991 479 794 152 1991 1902 1229 297 389 1414 932 273 478 1022 898 188 324 714 475
is_linear=0
shrinkage=1


Tree=1
num_leaves=250
num_cat=0
split_feature=12 12 12 12 11 11 2 0 11 12 9 5 12 3 9 6 6 1 4 4 12 11 9 12 4 11 0 8 12 7 4 7 5 9 11 1 12 4 11 1 4 1 4 4 0 1 3 7 7 4 4 4 4 1 5 5 4 7 4 7 4 11 9 5 0 1 3 1 11 1 7 4 3 11 0 3 4 0 5 12 7 9 1 7 0 9 0 5 7 11 11 9 4 4 11 4 9 11 1 0 9 7 11 1 4 4 3 1 9 7 8 0 0 0 4 11 5 8 3 4 4 1 0 7 1 11 0 4 4 5 7 3 4 1 5 6 6 7 4 5 4 11 11 0 6 0 9 2 9 9 0 6 1 0 0 9 8 0 1 6 5 9 4 0 7 4 0 11 7 7 4 4 7 9 9 0 4 0 9 7 1 1 5 7 7 9 7 7 7 0 4 4 0 3 0 0 4 9 6 1 7 5 0 9 6 7 9 0 1 0 5 9 0 7 0 2 4 7 4 9 8 0 4 9 12 11 11 0 0 9 0 0 9 6 5 6 5 9 9 7 6 4 9 11 11 1 0 5 2
split_gain=1547.77 825.408 143.283 79.4325 76.3795 28.5958 30.4109 21.6766 21.0498 19.6526 17.2284 14.9867 14.4142 13.9496 18.0342 13.1374 12.3901 19.1879 11.5453 10.5955 10.4856 9.76805 9.59731 9.36094 9.71651 8.44783 7.91079 7.74384 7.31698 6.51094 6.45093 6.66381 6.42269 6.38366 6.32168 6.13466 5.67973 5.47399 5.38938 5.28696 10.2335 9.35933 9.7428 9.34439 7.81618 9.16611 8.37084 5.93542 5.08277 6.82607 7.81016 4.95396 11.3587 6.82631 4.95122 4.89473 4.74272 4.70413 6.62351 4.70097 7.31142 4.67343 4.64099 4.25031 4.18908 4.02765 3.96882 3.92146 3.86887 3.66962 3.61472 3.54876 3.53621 3.45522 3.44114 6.11542 3.43233 3.40866 4.19389 3.40186 3.38857 3.27637 3.2315 3.17695 2.86398 2.81403 2.80102 3.2772 2.79086 4.04306 5.49133 6.39302 3.66144 3.51176 4.65295 5.31684 5.24319 3.95736 6.71298 4.45105 6.37746 3.90319 3.52066 6.03294 6.15213 6.66109 2.75598 2.68393 2.66389 2.91522 2.66299 3.44636 2.63049 2.60133 3.88605 3.05303 2.88458 2.73197 2.60098 2.57198 3.38573 2.98499 2.53379 2.52855 3.06181 4.10807 2.54742 2.51364 2.47461 2.45512 2.43822 3.11777 2.42136 2.40857 2.38737 2.51059 2.37658 2.29334 2.2836 3.363 2.67666 3.65814 2.33783 2.28026 2.26659 2.22031 3.33483 2.21585 6.12549 4.04956 2.21319 2.18673 2.70271 2.17806 3.60047 2.16964 2.16299 2.1369 2.1322 2.10731 3.54179 2.0961 2.09559 2.09157 2.08958 2.08392 2.05239 2.03843 2.41196 4.37464 2.23556 2.73997 3.37076 5.06773 3.34602 2.10003 1.99822 1.95501 1.95249 1.95135 1.94811 1.9481 2.44701 1.93689 1.92955 1.9244 1.91625 1.90721 1.90435 2.27625 1.87845 1.87396 1.87187 1.86521 1.86338 1.85247 1.8448 2.13228 2.37966 1.84064 2.51687 2.16251 1.87466 2.88951 1.83252 1.81755 1.80769 3.20546 1.79741 2.37466 1.79713 2.75575 1.78498 1.78478 2.56895 1.76641 1.75576 1.72079 1.70649 1.70215 1.701 3.05031 2.07505 1.69566 1.68509 1.67671 1.71839 2.18043 1.66378 1.66092 1.65364 1.65105 3.53112 1.62627 1.61947 1.61396 1.66342 2.13974 1.76681 1.6128 1.6085 3.03533 1.66919 1.6073 1.60666 1.60571 1.59928 1.59259 1.5847
threshold=12.500000000000002 19.500000000000004 13.500000000000002 20.500000000000004 9.5000000000000018 2.5000000000000004 5.1850000000000014 44.415000000000006 9.5000000000000018 18.500000000000004 23.005000000000006 15.055000000000001 21.500000000000004 44.57500000000001 56.455000000000005 0.03500000000000001 0.60500000000000009 0.89500000000000013 1010.0750000000002 1031.2050000000002 11.500000000000002 9.5000000000000018 32.015000000000008 18.500000000000004 1024.6350000000004 11.500000000000002 46.055000000000007 0.0073500000000000015 14.500000000000002 327.50000000000006 1001.9550000000002 312.50000000000006 16.035000000000004 3.8250000000000006 5.5000000000000009 0.30500000000000005 17.500000000000004 1023.3950000000001 2.5000000000000004 0.80500000000000016 1000.8500000000001 0.74500000000000011 1012.9650000000001 994.58500000000015 25.510000000000002 0.62500000000000011 45.675000000000004 287.50000000000006 243.50000000000003 1018.5350000000001 1024.4950000000001 1010.8050000000001 1014.1400000000001 0.92500000000000016 11.475000000000003 5.745000000000001 1012.7050000000002 203.50000000000003 1015.2650000000001 300.50000000000006 1014.3050000000001 8.5000000000000018 26.995000000000001 8.6750000000000025 69.240000000000023 0.31500000000000006 33.135000000000012 0.48500000000000004 3.5000000000000004 0.68500000000000016 236.50000000000003 1018.6250000000001 34.895000000000003 9.5000000000000018 34.635000000000012 29.555000000000003 1003.2450000000001 58.045000000000009 4.5850000000000009 17.500000000000004 20.500000000000004 55.240000000000002 0.55500000000000016 37.500000000000007 40.195000000000007 12.535000000000002 70.905000000000015 1.1250000000000002 302.50000000000006 4.5000000000000009 5.5000000000000009 41.580000000000005 1030.8550000000002 1019.1750000000001 3.5000000000000004 1021.0850000000002 24.785000000000004 3.5000000000000004 0.50500000000000012 51.105000000000011 41.945000000000007 222.50000000000003 7.5000000000000009 0.42500000000000004 1028.345 1030.8550000000002 28.555000000000003 0.30500000000000005 44.615000000000009 220.50000000000003 0.0079500000000000022 48.795000000000009 19.940000000000005 55.215000000000011 1021.3650000000001 3.5000000000000004 7.7250000000000005 0.0024500000000000004 21.245000000000005 995.81500000000017 1008.6750000000001 0.92500000000000016 42.835000000000008 157.50000000000003 0.32500000000000007 5.5000000000000009 62.225000000000001 1022.7050000000002 1027.5900000000001 10.915000000000001 39.500000000000007 37.185000000000009 1019.7050000000002 0.55500000000000016 5.6350000000000007 0.065000000000000016 0.085000000000000006 186.50000000000003 1021.3650000000001 8.1750000000000025 1019.1150000000001 3.5000000000000004 8.5000000000000018 73.89500000000001 0.13500000000000004 32.605000000000011 34.465000000000011 9.9550000000000018 53.185000000000009 43.255000000000003 55.215000000000011 0.75500000000000012 0.63500000000000012 35.590000000000011 39.515000000000008 5.6250000000000009 0.044900000000000002 61.665000000000006 0.47500000000000003 0.095000000000000015 3.3950000000000005 22.325000000000003 1026.4650000000004 39.135000000000005 217.50000000000003 1022.7050000000002 39.515000000000008 4.5000000000000009 23.500000000000004 14.500000000000002 1016.3550000000001 1011.6350000000001 218.50000000000003 63.985000000000007 45.07500000000001 69.690000000000012 1020.1150000000001 62.395000000000003 30.775000000000002 226.50000000000003 0.82500000000000007 0.7350000000000001 6.1350000000000007 250.50000000000003 282.50000000000006 57.885000000000005 306.50000000000006 197.50000000000003 105.50000000000001 40.715000000000011 1026.2250000000001 1025.0550000000001 31.010000000000002 32.430000000000007 48.795000000000009 53.925000000000004 1018.9850000000001 53.920000000000009 0.055000000000000007 0.67500000000000016 347.50000000000006 10.515000000000002 49.605000000000011 15.865 0.045000000000000005 347.50000000000006 42.965000000000011 67.075000000000003 0.30500000000000005 63.645000000000003 4.1250000000000009 63.985000000000007 27.585000000000004 299.50000000000006 12.515000000000002 9.9550000000000018 1018.8350000000002 228.50000000000003 1021.4550000000002 25.905000000000005 0.0049500000000000004 64.215000000000018 1020.4050000000001 55.240000000000002 15.500000000000002 8.5000000000000018 3.5000000000000004 48.795000000000009 57.105000000000011 48.225000000000001 62.565000000000005 53.925000000000004 56.225000000000001 0.03500000000000001 1.6850000000000003 0.38500000000000006 5.1150000000000011 28.805000000000003 36.290000000000006 191.50000000000003 0.095000000000000015 1020.5850000000002 8.6150000000000002 1.5000000000000002 3.5000000000000004 0.51500000000000012 30.765000000000004 8.7450000000000028 4.0000000000000009
decision_type=2 2 2 2 2 2 2 2 2 2 2 2 2 2 2 2 2 2 2 2 2 2 2 2 2 2 2 2 2 2 2 2 2 2 2 2 2 2 2 2 2 2 2 2 2 2 2 2 2 2 2 2 2 2 2 2 2 2 2 2 2 2 2 2 2 2 2 2 2 2 2 2 2 2 2 2 2 2 2 2 2 2 2 2 2 2 2 2 2 2 2 2 2 2 2 2 2 2 2 2 2 2 2 2 2 2 2 2 2 2 2 2 2 2 2 2 2 2 2 2 2 2 2 2 2 2 2 2 2 2 2 2 2 2 2 2 2 2 2 2 2 2 2 2 2 2 2 2 2 2 2 2 2 2 2 2 2 2 2 2 2 2 2 2 2 2 2 2 2 2 2 2 2 2 2 2 2 2 2 2 2 2 2 2 2 2 2 2 2 2 2 2 2 2 2 2 2 2 2 2 2 2 2 2 2 2 2 2 2 2 2 2 2 2 2 2 2 2 2 2 2 2 2 2 2 2 2 2 2 2 2 2 2 2 2 2 2 2 2 2 2 2 2 2 2 2 2 2 2
left_child=20 2 7 8 5 6 176 193 38 11 30 16 26 23 22 29 19 18 151 28 -1 68 -15 24 25 51 -5 61 35 33 -6 118 39 127 62 163 74 -33 110 40 43 44 -43 -17 45 54 47 56 49 80 -51 108 -53 57 155 -49 76 145 -59 60 -56 63 122 219 130 -38 -44 224 -9 -39 -47 84 -22 -28 129 -76 -46 78 -29 -78 -35 -79 -73 223 -60 184 87 -67 93 92 91 -91 -90 97 101 144 -97 98 -77 -99 -101 -95 103 -98 -105 -106 -84 -11 109 -12 111 -3 -31 114 115 116 -109 132 161 -102 137 167 -13 126 233 194 195 -8 -115 179 131 -19 133 -117 143 -136 -123 -121 140 157 153 -142 -143 180 231 -54 -147 149 164 -24 -63 -18 -153 -89 -155 -42 -41 248 -146 -100 -161 213 199 -7 -149 -116 -120 -122 169 185 171 -170 181 174 -174 215 -4 -36 -87 -30 -104 228 -183 -176 -50 -169 229 -150 -164 -190 -57 -141 -114 -2 -126 218 -88 -198 -199 202 201 220 203 -85 -48 208 207 -204 -40 230 211 -172 -181 214 -32 -171 -216 -196 -70 -20 221 244 -223 240 -58 226 -74 -228 -173 -166 -210 -96 -233 -125 -92 236 -156 -238 -239 -154 242 -242 -37 -52 -201 -81 -118 -129 -140
right_child=1 3 4 12 10 9 15 21 -10 107 13 34 -14 14 -16 32 17 64 27 -21 72 -23 147 -25 -26 -27 73 77 36 112 31 37 -34 48 177 83 65 69 205 156 41 42 66 -45 46 70 204 55 85 50 243 52 53 -55 59 190 67 58 71 -61 -62 150 -64 -65 -66 86 -68 -69 123 -71 -72 82 225 -75 75 88 79 81 -80 245 -82 -83 106 162 -86 178 196 138 89 90 234 -93 -94 94 95 96 102 99 159 100 119 -103 134 104 105 -107 -108 113 -110 -111 -112 -113 192 128 165 117 246 -119 166 120 121 136 -124 124 125 -127 -128 247 -130 -131 -132 -133 -134 -135 135 -137 -138 -139 139 191 141 142 -144 -145 158 146 -148 148 187 -151 -152 152 239 154 235 -157 -158 -159 -160 160 -162 -163 188 -165 186 -167 -168 168 170 175 210 172 173 -175 183 -177 -178 -179 -180 212 -182 182 -184 -185 -186 -187 -188 -189 189 -191 -192 -193 -194 -195 217 -197 197 198 -200 200 -202 -203 206 -205 -206 -207 -208 -209 209 -211 -212 -213 -214 -215 216 -217 -218 -219 -220 -221 -222 222 -224 -225 -226 -227 227 -229 -230 -231 -232 232 -234 -235 -236 -237 237 238 -240 -241 241 -243 -244 -245 -246 -247 -248 -249 -250
leaf_value=-0.0064421649474096709 -0.0023644648201494134 7.1479585969532226e-05 0.026418065331224056 -0.0045541980468250956 0.021265842912671126 0.027366690622530394 0.0060767001827571228 0.001054192988357953 -0.0030892354015194441 0.022775701707464527 0.010879933491115504 0.0068612509015175396 -0.0057621149548133417 0.018610911840300021 0.021664202298766883 0.00070244850681856611 -0.0064643420508979782 0.031615470055470156 0.012000844161322511 0.00071595274537592651 -0.0059143403013178393 -0.0027372866760831558 0.016525175194105797 0.0056303362844118965 0.022393275918625184 0.0039767109931830398 0.00093140956174083106 0.035071045563027668 0.02097182665843237 -0.0006449686089458615 -0.0053207746630341557 0.0017960137035678927 -0.0023207268351395495 -0.0042120237530778272 0.0093411376816802654 -0.0074695463737715854 0.028715715811389392 0.021379075659548538 0.01548263359303568 0.0025577228119778093 -0.0019198936605918919 0.002253144300198677 0.029455165478288983 0.031197423596669289 -0.0045020578770437148 0.012129710290291524 0.0061247831440964916 0.022267213065263837 0.0077879005283942168 0.0013040720901096382 0.023531393042581186 -0.0025783227142560615 -0.0015664386046546329 0.025737459196777546 0.020470593418264932 -0.0033526432858385202 0.00089506634394638247 -0.0020880501698145345 0.023788427830570277 0.02027314404253636 -0.0035818571762727767 0.022262291726353883 -0.0040778355538872175 0.010112711551836755 0.0065999927886667246 0.0041950730258146678 0.00046983975200698928 0.0013038378194609299 0.01012713274751811 -0.0016874483068395091 0.028975181087218499 0.024505186330887579 -0.0054897190711134733 -0.0060860981335169179 -0.0013538866594899448 0.028381706314952404 0.019349366714702297 0.028492308459405244 0.00036935057027464105 0.022586706171140954 0.027276782111863424 0.005111360440552686 0.018458425751273891 0.0052949663566451682 0.012452498643936889 -0.00010340537097879905 0.021279091359293026 0.028863665834069255 0.029633937724337908 0.00064139036491111742 0.014569770445539558 0.031806678295963342 -0.0005242802357921998 0.030024504573991424 -0.00074839827331294926 -0.0023341046304332915 -0.0028055362105425005 0.029211252563630531 0.002628277640742375 0.0063413983175205279 -0.006757537671364844 0.010196473081258216 0.0084034208943726645 0.028019645205197643 -0.0016641499612530754 0.028620105894026526 0.0038368841635189627 0.0082214959964965768 0.0078516223858752406 0.02255113079845646 0.012799191883466435 0.017175913082063201 0.022638708424309026 0.01419955330820457 0.023878754566078176 -0.00038263830780472727 0.0047080469844133959 -0.0045253074701558727 -0.0024701752127088425 0.0073130764620592554 0.032890683631102251 -0.0014137573256524968 0.028049716590971187 0.011027187548186806 0.023491064063358658 0.0091159328464441563 0.0094228194558296403 0.028681015677266487 -0.0013121706520074182 -0.0059875103052366872 0.028784045920787399 0.016209579683599182 -0.0010342834772330077 0.012389347605601099 0.015824154838306313 0.00013272009117739096 0.016818095458136503 0.027914367525458929 -0.00029292492035892792 0.021761433066179357 0.031039022008577985 0.0016265561358886774 0.02218987375497818 0.029431327230344386 0.010571623322763853 0.018247523548585984 0.0019750443439045073 -0.00019845671036469088 0.021851201583204312 -0.0023220064382605322 0.0029350073885010442 0.028125881089104549 0.0017667084613385753 0.0010207669917938554 0.018525258836501825 0.0091600426936588805 0.028529694857019366 0.0071761518207495104 0.02382605879445119 -0.0017488806790487586 0.017758133806272919 0.026995734669066764 0.031014117247918072 0.0013358847693706961 0.01522165582936774 0.012909852724491961 0.021988757508141655 0.026323891528632366 0.023812427253018423 -0.0030091608898192134 0.015961631439124654 -0.0043656849939572185 -0.0027449270949448244 0.0024116434430309563 0.0072509557837847531 0.02838604211807251 0.036255812396605809 0.024187919792766396 0.022758031849350251 0.009156707764144385 0.019168524251157934 0.02294094230209838 0.012567284592123848 0.024018355292394239 0.020204004337419527 0.010867766171900764 0.0010173971154469237 0.00011388431778367684 0.018290092576637693 -0.0023638007696717978 0.012661144001713882 -0.0022375014542871719 0.0047109478180789024 0.0015090102722912172 0.017234781524684464 -0.0036957578168196137 0.021374881497892094 0.019459296884325645 0.0029014701361641361 -0.00022901385927047484 0.0076549601890304594 -0.0015404269043987587 0.016481357646933124 0.026558131120109463 0.023706925670216299 0.015526820798378835 0.020125957418153807 -0.0066643691754766886 0.0057164937848992051 0.0087357500870460843 0.02602268535680129 0.027625312140365732 0.032823778148584698 -0.0035624260904187073 0.0021046965422171454 0.012965439097978725 0.0099276260963688402 0.0066216001705398462 1.2168536513194748e-05 0.025180220502928598 0.023141451360138714 0.013450704760339535 -0.0047506478752064353 0.0022223164744848444 0.016011976864944513 -0.0046917209646791525 0.0041618348718075867 -0.0017632950380753647 0.025624988046740849 -0.0051254368922177785 -0.0039582319336163036 0.018035691127544971 0.0049102517967399596 -0.0039644408123964683 0.023273531162871244 0.027870460204456167 0.027873708371972217 0.0016843280026253749 0.013386967012386623 0.015964550755664029 0.017090118003278216 -0.0039565758918188821 0.020535842807587693 0.010556097934761692 0.020392359731106036 0.0031804517780032121 0.025303941466021197 0.016269103955568336 0.023411355315917877
leaf_weight=168899 3941 2045 521 6072 195 34 64 718 3055 261 263 310 28262 389 645 133 239 181 110 314 4509 949 124 1504 1232 947 7148 37 273 296 222 407 476 36 150 23 305 408 255 1133 401 226 516 411 103 185 74 86 257 365 394 455 267 449 224 1203 96 205 774 538 290 77 481 296 138 243 52 1274 352 83 409 155 1029 778 128 292 574 116 593 51 674 124 186 71 313 338 1846 124 970 245 233 90 42 498 146 111 84 724 231 285 32 124 205 1164 163 131 420 440 193 1149 212 125 115 5013 213 188 46 247 1733 57 150 95 69 106 273 3465 978 648 105 22 744 479 280 688 298 155 289 1039 29 48 60 370 65 177 235 240 265 1268 229 1414 257 45 881 165 1040 316 33 96 251 116 471 37 34 335 274 927 35 317 1381 160 535 19 65 289 82 40 342 217 42 34 934 465 445 431 244 108 289 49 87 138 78 101 118 1816 463 344 295 150 206 39 295 59 412 640 298 272 1561 70 3924 3857 1635 326 508 339 520 122 640 228 317 898 488 794 68 174 318 2593 704 5273 700 47 185 371 458 228 2591 115 87 154 795 88 158 121 285 126 1210 260 209 123 1026
leaf_count=168899 3941 2045 521 6072 195 34 64 718 3055 261 263 310 28262 389 645 133 239 181 110 314 4509 949 124 1504 1232 947 7148 37 273 296 222 407 476 36 150 23 305 408 255 1133 401 226 516 411 103 185 74 86 257 365 394 455 267 449 224 1203 96 205 774 538 290 77 481 296 138 243 52 1274 352 83 409 155 1029 778 128 292 574 116 593 51 674 124 186 71 313 338 1846 124 970 245 233 90 42 498 146 111 84 724 231 285 32 124 205 1164 163 131 420 440 193 1149 212 125 115 5013 213 188 46 247 1733 57 150 95 69 106 273 3465 978 648 105 22 744 479 280 688 298 155 289 1039 29 48 60 370 65 177 235 240 265 1268 229 1414 257 45 881 165 1040 316 33 96 251 116 471 37 34 335 274 927 35 317 1381 160 535 19 65 289 82 40 342 217 42 34 934 465 445 431 244 108 289 49 87 138 78 101 118 1816 463 344 295 150 206 39 295 59 412 640 298 272 1561 70 3924 3857 1635 326 508 339 520 122 640 228 317 898 488 794 68 174 318 2593 704 5273 700 47 185 371 458 228 2591 115 87 154 795 88 158 121 285 126 1210 260 209 123 1026
internal_value=0 0.00736635 0.0128871 -0.00230372 0.0144523 0.0160421 0.0121135 0.00358642 0.00424504 0.017147 0.00874923 0.0180241 -0.00446236 0.0105248 0.00612534 0.0109582 0.0183456 0.0138307 0.0099791 0.0190057 -0.0062234 0.0068194 0.00367063 0.0128316 0.0142732 0.0126805 -0.00183815 0.0138953 0.0191654 0.0159131 0.00346553 0.00268094 0.00900837 0.017559 0.00713197 0.0162885 0.0198727 0.0103715 0.00630538 0.00958935 0.010494 0.00954218 0.0198142 0.0237419 0.00833887 0.0129806 0.00585452 0.00453371 0.0150091 0.0183764 0.0125169 0.0142258 0.0122264 0.0142839 0.00937158 -0.000827125 0.00727223 0.0124635 0.0149658 0.0137392 0.00690014 0.0179449 0.002443 0.0206482 0.023225 0.0174662 0.0268016 0.00405144 0.00803317 0.0174798 0.0237287 0.0168577 -0.00360435 0.000242585 0.0206904 0.0204363 0.012775 0.00627077 0.00240739 0.0147857 0.0256802 0.0164122 0.0116203 0.0169771 0.0205243 0.00891277 0.0169771 0.0154916 0.0205719 0.0228816 0.0211194 0.00901415 0.0283823 0.0199847 0.0179259 0.0168882 0.0190443 0.0210244 0.0153656 0.0216659 0.0210634 0.0260716 0.019761 0.0232537 0.024755 0.0118299 0.00832468 0.0127898 0.018871 0.0203772 0.00210184 0.00105676 0.0056114 0.0124779 0.0102596 0.00770598 0.013126 0.00502109 0.000722315 0.0215412 0.0216446 0.0209003 0.0107188 0.00877509 0.0100261 0.0107223 0.00578241 0.0251201 0.0138813 0.0269766 0.0248591 0.0204345 0.00706084 0.00964833 0.0167166 0.0104551 0.0123076 0.026843 0.0161337 0.01963 0.0146059 0.00789194 0.00469924 0.0188719 0.0118382 0.00580901 0.0097085 0.00209733 0.00416592 -0.000802468 0.0073907 0.00214049 0.00416865 0.0159459 0.0152661 0.00296331 0.00329278 0.02146 0.017417 0.0107192 0.0139033 0.00344601 0.0177533 0.00373439 0.00211513 0.0149593 -0.00198598 0.0213542 0.0211111 0.0157351 0.0217412 0.0202385 0.018261 0.0132238 0.0186299 0.00694335 0.0303167 0.0181198 0.00242339 0.0278664 0.017231 0.020942 0.0178681 0.0213382 0.0138349 0.0223962 0.00692437 0.0180198 0.00895565 0.00562237 -0.00237756 0.0054937 0.0135594 -0.00114261 0.0164964 0.00226779 0.019665 0.0150878 0.00987808 0.0181525 0.0164182 0.0173908 0.0200122 0.0244348 0.0202094 0.00748433 0.018473 0.0131199 0.00721823 0.00695368 0.0240755 0.0203778 0.0313391 0.00293971 0.00453467 0.00390184 0.0064208 0.0137329 0.00533424 0.023742 0.0178206 0.0165905 0.0120149 0.0108924 0.0125066 -0.00251927 -0.00171522 -0.0010654 0.0248325 0.0122425 0.00528091 0.0090573 0.0107842 0.000793381 0.0225554 0.0163388 0.0157001 0.0128639 0.0114879 0.00305609 0.0134624 0.00796234 0.0184445 0.0203874 0.0197485 0.00636283 0.0215886 0.0267009 0.0227598
internal_weight=0 154612 98422 56190 84244 65880 14461 14178 13930 51419 18364 42802 42260 13745 4728 13598 41575 5303 3761 36272 183007 8421 4083 9017 7513 6281 13998 2508 35958 3840 4619 4424 9758 3311 1227 7096 28862 898 10875 9282 8116 7572 794 544 6778 2363 4415 4043 2476 1595 885 5334 3729 3274 1769 1367 2676 2825 2053 1052 514 1638 860 1304 1542 7320 568 1688 7472 491 594 1848 14108 7926 21542 20705 988 870 630 885 710 240 761 6727 1087 881 7015 4518 20577 4171 3159 335 1012 16406 5505 4883 3422 10901 1110 9791 9067 622 3311 1542 1458 294 606 8617 1605 1412 2382 2170 529 8356 3238 2098 695 1403 3526 8782 8750 7654 379 6754 4763 4429 1991 835 5118 837 1404 660 1156 876 1769 453 384 1096 4275 1300 2975 495 435 1316 1461 772 505 3694 2156 1538 334 1253 1014 2480 2356 717 1166 1151 486 818 587 1758 5966 369 1878 1140 1768 7270 7120 747 6373 3877 2496 867 578 322 863 367 380 815 1139 1629 910 513 501 425 610 278 259 225 1281 149 233 5757 964 1013 2497 651 356 5707 2953 2658 2754 711 372 8493 2043 482 8221 7966 2496 861 542 1721 1382 282 1160 691 669 1008 2599 2111 862 761 414 9599 7006 5977 719 321 4109 975 829 334 2824 2191 2076 1036 949 969 587 279 308 520 1249 311 255 771 1055
internal_count=337619 154612 98422 56190 84244 65880 14461 14178 13930 51419 18364 42802 42260 13745 4728 13598 41575 5303 3761 36272 183007 8421 4083 9017 7513 6281 13998 2508 35958 3840 4619 4424 9758 3311 1227 7096 28862 898 10875 9282 8116 7572 794 544 6778 2363 4415 4043 2476 1595 885 5334 3729 3274 1769 1367 2676 2825 2053 1052 514 1638 860 1304 1542 7320 568 1688 7472 491 594 1848 14108 7926 21542 20705 988 870 630 885 710 240 761 6727 1087 881 7015 4518 20577 4171 3159 335 1012 16406 5505 4883 3422 10901 1110 9791 9067 622 3311 1542 1458 294 606 8617 1605 1412 2382 2170 529 8356 3238 2098 695 1403 3526 8782 8750 7654 379 6754 4763 4429 1991 835 5118 837 1404 660 1156 876 1769 453 384 1096 4275 1300 2975 495 435 1316 1461 772 505 3694 2156 1538 334 1253 1014 2480 2356 717 1166 1151 486 818 587 1758 5966 369 1878 1140 1768 7270 7120 747 6373 3877 2496 867 578 322 863 367 380 815 1139 1629 910 513 501 425 610 278 259 225 1281 149 233 5757 964 1013 2497 651 356 5707 2953 2658 2754 711 372 8493 2043 482 8221 7966 2496 861 542 1721 1382 282 1160 691 669 1008 2599 2111 862 761 414 9599 7006 5977 719 321 4109 975 829 334 2824 2191 2076 1036 949 969 587 279 308 520 1249 311 255 771 1055
is_linear=0
shrinkage=0.1


Tree=2
num_leaves=250
num_cat=0
split_feature=12 12 12 12 11 11 2 0 11 12 9 5 12 3 9 6 6 1 4 4 12 11 9 12 4 11 0 8 12 9 6 7 11 1 5 4 1 8 12 0 4 5 4 7 4 9 9 11 7 4 4 1 7 6 4 11 0 7 2 9 0 5 6 5 7 1 0 1 1 4 11 1 12 5 1 3 7 0 3 0 5 11 11 7 9 1 1 0 4 5 3 7 7 5 1 4 11 9 4 9 11 1 0 9 6 6 6 1 11 0 4 2 2 1 1 0 9 7 7 9 0 3 5 7 1 0 3 4 0 6 3 11 1 3 1 4 4 1 0 1 4 4 5 3 7 3 0 4 4 6 4 2 9 9 5 7 6 7 7 11 8 5 12 5 0 1 12 11 9 0 4 9 0 9 11 4 4 11 12 4 0 1 12 0 6 12 5 6 5 0 4 0 11 7 7 4 4 7 9 9 0 9 4 12 0 7 1 0 12 7 0 9 9 0 0 7 3 6 5 9 1 4 12 5 4 7 12 0 3 1 5 9 0 0 1 1 5 7 2 11 2 12 0 6 6 7 2 2 3
split_gain=1253.69 668.58 116.059 64.3403 61.8674 23.1626 24.6328 17.558 17.0503 15.9186 13.955 12.1392 11.6755 11.2992 14.6077 10.7685 10.036 15.5422 9.35168 8.58233 8.4933 7.91212 7.77382 7.58236 7.87037 6.84275 6.65964 6.27251 5.92675 5.3414 5.24011 5.55674 5.12056 4.96907 4.84077 5.14395 5.91726 7.64856 4.60058 4.49841 4.43393 4.24947 4.09187 5.28956 5.90157 5.24393 4.54309 4.06489 5.49485 4.01271 9.25065 4.23087 4.97358 3.95736 3.86309 3.78548 3.77749 3.77616 4.884 3.77014 3.7606 3.61323 3.51155 3.44275 3.43688 3.39361 3.39316 3.26239 3.19435 3.14441 3.13379 3.11616 3.04391 2.99629 2.97239 2.86433 2.84031 2.78733 5.0587 2.76102 3.39705 2.73353 3.51117 2.67831 2.65386 2.47849 2.47037 2.40521 2.39107 2.38356 2.37038 2.32092 2.28606 3.50034 3.27866 4.23532 3.19395 5.04317 2.9225 3.69583 3.20546 5.43752 3.60535 5.16575 2.90287 2.80776 2.77663 3.9015 3.87114 2.43601 2.36658 2.30855 2.26955 2.22495 2.17399 2.16274 2.15775 2.36133 2.14457 4.00709 2.17576 2.11597 2.50564 2.10732 2.48295 2.10708 3.46067 2.71517 3.02444 2.33654 2.80761 2.10053 3.07858 3.38096 2.57426 2.08331 2.74244 2.41784 2.0832 2.08069 3.28734 2.00443 1.98865 1.98311 1.97496 2.52539 1.96437 1.95991 1.9493 1.94096 2.44776 3.31782 3.95928 2.63173 1.92832 1.92622 1.92503 1.90886 1.89306 1.87398 1.85817 3.69921 1.8409 1.95001 1.83709 1.83417 1.83408 1.81437 3.24851 3.32419 2.67821 2.51031 2.66375 2.00636 1.81836 3.80117 4.57652 1.81029 1.79999 1.79637 1.79269 1.78369 1.77217 1.76299 3.38389 1.76878 1.75354 1.70692 2.86885 1.69417 1.68285 1.66257 1.65113 1.95368 3.54346 1.8108 2.21937 2.73032 4.10486 2.71027 1.70102 1.60187 1.59564 1.58646 1.58356 1.5806 1.58027 1.57746 1.57346 1.56888 1.56444 1.55876 1.54426 1.947 1.62116 1.54089 1.54052 1.53711 1.51748 1.5167 1.50441 1.50321 1.50088 1.49361 1.49042 2.04019 1.46976 1.4654 1.46136 1.45791 1.45568 2.23216 1.4551 1.44504 1.66731 1.44051 2.29844 2.2584 1.49919 1.43849 1.43634 1.4352 1.43316 2.13422 1.4176 1.41562 1.4143 1.40859 1.37957
threshold=12.500000000000002 19.500000000000004 13.500000000000002 20.500000000000004 9.5000000000000018 2.5000000000000004 5.1850000000000014 44.415000000000006 9.5000000000000018 18.500000000000004 23.005000000000006 15.055000000000001 21.500000000000004 44.57500000000001 56.455000000000005 0.075000000000000025 0.60500000000000009 0.89500000000000013 1010.0750000000002 1031.2050000000002 11.500000000000002 9.5000000000000018 32.015000000000008 18.500000000000004 1024.6350000000004 11.500000000000002 58.370000000000012 0.0073500000000000015 14.500000000000002 2.4450000000000007 0.7400000000000001 312.50000000000006 5.5000000000000009 0.30500000000000005 14.845000000000001 1019.8050000000001 0.80500000000000016 1.0000000180025095e-35 17.500000000000004 55.215000000000011 1023.3950000000001 7.3450000000000006 1010.9250000000001 327.50000000000006 1013.6150000000001 29.305000000000003 27.895000000000003 1.5000000000000002 174.50000000000003 1010.8050000000001 1015.0050000000001 0.93500000000000016 203.50000000000003 0.15500000000000003 1021.6950000000002 8.5000000000000018 35.185000000000009 289.50000000000006 9.9850000000000012 27.465000000000003 21.175000000000004 9.8950000000000014 0.085000000000000006 8.6750000000000025 330.50000000000006 0.63500000000000012 69.240000000000023 0.31500000000000006 0.74500000000000011 1017.3250000000002 3.5000000000000004 0.76500000000000012 18.500000000000004 0.67500000000000016 0.68500000000000016 34.895000000000003 226.50000000000003 34.635000000000012 28.355000000000004 58.045000000000009 4.5850000000000009 9.5000000000000018 2.5000000000000004 154.50000000000003 55.240000000000002 0.64500000000000013 0.43500000000000005 22.485000000000003 1024.0250000000003 1.6250000000000002 19.355000000000004 30.500000000000004 302.50000000000006 3.2650000000000001 0.62500000000000011 1019.5950000000001 4.5000000000000009 28.805000000000003 1019.1750000000001 56.225000000000001 3.5000000000000004 0.50500000000000012 51.105000000000011 41.945000000000007 0.03500000000000001 0.13500000000000004 0.095000000000000015 0.46500000000000002 8.5000000000000018 61.875000000000007 1013.1150000000001 9.0550000000000015 9.8450000000000006 0.39500000000000007 0.30500000000000005 42.835000000000008 44.615000000000009 220.50000000000003 186.50000000000003 41.580000000000005 35.005000000000003 32.710000000000008 2.5250000000000004 222.50000000000003 0.65500000000000014 55.215000000000011 43.295000000000009 1018.2150000000001 41.875000000000007 0.025000000000000005 35.125000000000007 8.5000000000000018 0.32500000000000007 48.140000000000008 0.68500000000000016 995.81500000000017 1008.6750000000001 0.92500000000000016 70.905000000000015 0.92500000000000016 1014.1400000000001 1027.5900000000001 10.915000000000001 22.010000000000002 39.500000000000007 37.185000000000009 74.27500000000002 1001.4400000000002 1013.0550000000001 0.34500000000000003 1015.9050000000001 9.9550000000000018 46.230000000000011 44.615000000000009 3.5950000000000002 214.50000000000003 0.085000000000000006 192.50000000000003 2.5000000000000004 1.5000000000000002 0.0013500000000000003 8.0550000000000015 15.500000000000002 2.6250000000000004 22.050000000000001 0.29500000000000004 14.500000000000002 3.5000000000000004 23.005000000000006 42.670000000000009 1017.8750000000001 48.625000000000007 69.905000000000015 7.3200000000000012 7.5000000000000009 1015.7550000000001 1012.2650000000001 1.5000000000000002 17.500000000000004 1020.9150000000001 55.215000000000011 0.80500000000000016 14.500000000000002 12.515000000000002 0.045000000000000005 17.500000000000004 5.6350000000000007 0.095000000000000015 3.3950000000000005 39.135000000000005 1006.9050000000001 39.515000000000008 4.5000000000000009 23.500000000000004 14.500000000000002 1016.3550000000001 1011.6350000000001 218.50000000000003 63.985000000000007 45.07500000000001 69.690000000000012 48.225000000000001 1026.4650000000004 14.500000000000002 62.395000000000003 226.50000000000003 0.82500000000000007 53.685000000000009 16.500000000000004 250.50000000000003 60.915000000000006 57.885000000000005 6.3750000000000009 16.860000000000003 34.785000000000004 304.50000000000006 34.895000000000003 0.025000000000000005 8.4250000000000025 41.275000000000013 0.43500000000000005 1021.9450000000002 18.500000000000004 10.825000000000001 1009.5850000000002 311.50000000000006 14.500000000000002 49.07500000000001 42.110000000000007 0.49500000000000005 4.1250000000000009 63.985000000000007 41.875000000000007 49.865000000000002 0.7350000000000001 0.81500000000000006 6.9750000000000005 347.50000000000006 9.4050000000000029 10.500000000000002 8.4250000000000025 10.500000000000002 39.135000000000005 0.03500000000000001 0.18500000000000003 21.500000000000004 9.9850000000000012 9.6650000000000009 23.235000000000003
decision_type=2 2 2 2 2 2 2 2 2 2 2 2 2 2 2 2 2 2 2 2 2 2 2 2 2 2 2 2 2 2 2 2 2 2 2 2 2 2 2 2 2 2 2 2 2 2 2 2 2 2 2 2 2 2 2 2 2 2 2 2 2 2 2 2 2 2 2 2 2 2 2 2 2 2 2 2 2 2 2 2 2 2 2 2 2 2 2 2 2 2 2 2 2 2 2 2 2 2 2 2 2 2 2 2 2 2 2 2 2 2 2 2 2 2 2 2 2 2 2 2 2 2 2 2 2 2 2 2 2 2 2 2 2 2 2 2 2 2 2 2 2 2 2 2 2 2 2 2 2 2 2 2 2 2 2 2 2 2 2 2 2 2 2 2 2 2 2 2 2 2 2 2 2 2 2 2 2 2 2 2 2 2 2 2 2 2 2 2 2 2 2 2 2 2 2 2 2 2 2 2 2 2 2 2 2 2 2 2 2 2 2 2 2 2 2 2 2 2 2 2 2 2 2 2 2 2 2 2 2 2 2 2 2 2 2 2 2 2 2 2 2 2 2 2 2 2 2 2 2
left_child=20 2 7 8 5 6 166 216 39 11 30 16 26 23 22 29 19 18 160 28 241 70 221 24 25 49 81 55 33 85 31 90 59 189 35 36 37 41 77 113 -33 65 45 44 157 181 47 54 154 116 139 52 121 -39 72 63 112 58 -43 115 -37 244 -59 226 -64 86 144 -40 -45 71 228 123 212 -54 -42 -22 -50 142 -79 80 -29 82 -5 146 -81 164 -17 -56 -89 233 183 -62 98 94 95 -94 -95 -98 100 106 101 -80 -102 220 -96 109 118 179 -109 -101 -106 -112 -55 143 -11 -13 117 -12 120 165 -100 -52 -123 -67 -125 126 127 128 -116 130 -129 132 -72 -134 -133 -105 155 192 167 -51 -141 -127 205 -3 145 -19 -35 -88 -38 150 151 153 -153 -24 -49 -137 -139 -44 -122 -115 -18 -162 163 -160 -8 -120 -4 170 -169 217 218 174 -173 -172 175 176 227 -47 182 -108 -57 -31 247 -6 185 -185 240 -103 -189 -7 -128 -92 -138 194 211 196 -195 206 199 -199 210 -176 235 -126 -34 245 -198 208 -152 -201 -196 -194 -46 -214 -215 -207 -2 -170 -91 -130 -104 -15 -16 -140 225 -99 -20 -171 -9 -63 231 -197 -147 234 -69 -85 237 -237 -239 -25 -121 -1 243 -218 -60 -30 -164 -75 -205
right_child=1 3 4 12 10 9 15 21 -10 114 13 32 -14 14 222 34 17 66 27 -21 75 -23 149 239 -26 -27 -28 79 38 42 -32 40 204 83 -36 60 148 53 67 -41 74 57 43 68 46 177 -48 48 76 50 51 -53 73 56 87 180 -58 62 61 -61 91 229 64 -65 -66 69 -68 89 -70 -71 131 -73 -74 178 -76 -77 -78 78 92 84 -82 -83 -84 202 -86 -87 147 88 -90 138 191 -93 93 96 104 -97 97 224 99 105 102 187 103 135 110 -107 107 108 -110 -111 111 -113 -114 159 125 -117 -118 -119 119 186 158 122 -124 124 203 141 190 129 219 -131 -132 134 133 -135 -136 136 137 156 223 140 -142 -143 -144 -145 -146 232 -148 -149 -150 -151 207 152 -154 -155 -156 -157 -158 -159 162 -161 161 -163 246 -165 -166 -167 -168 168 169 171 173 172 -174 -175 201 -177 -178 -179 -180 -181 -182 -183 -184 184 -186 -187 -188 188 -190 -191 -192 -193 193 195 200 230 197 198 -200 209 -202 -203 -204 248 -206 215 -208 -209 -210 -211 -212 -213 213 214 -216 -217 242 -219 -220 -221 -222 -223 -224 -225 -226 -227 -228 -229 -230 -231 -232 -233 -234 -235 -236 236 -238 238 -240 -241 -242 -243 -244 -245 -246 -247 -248 -249 -250
leaf_value=-0.0058856254070749495 -0.0019074146421703142 -0.0043844606328878417 0.016718464059606076 -0.0050692790971982463 -0.0047886971948403016 0.024630020865622691 0.015967873577293849 0.010498691538241267 -0.0027803118951805063 0.020498131426814874 0.0097919400347602128 0.0058459877894524968 -0.0051859034505071268 0.02288676782459172 0.021273869070106408 0.019648067353776208 -0.0024062091465614178 0.028453923197905663 0.014499474895023349 0.00064435752307414815 -0.0053229062591408404 -0.0024635580101192 0.014872657431049215 0.001574756872159566 0.02015394820750786 0.0035790398088873902 0.0011919595376273186 0.031563941046998306 0.02905838196421718 -0.0026055702384551395 0.017350542025298489 0.0016164122931933815 0.0084070240736861413 0.0097934578774933126 -0.001960564277949771 0.021604248145258572 0.00093235203296003879 -0.0027033147277931375 0.025844145586072911 0.0077901600580409141 0.019241168388101623 0.022708455184012856 0.016966187574456785 0.0017785347091986985 0.0088973253336353947 0.0075470972132533178 -0.0028295222856887289 0.028615285203722887 -0.0051461327396830937 -0.0029468641890381497 -0.0011815416610030734 0.024989140156197222 -0.0055884887255839453 -0.0004619855389687417 0.02709650868265372 0.020036062520819825 0.029583075194339444 0.029597471758376723 0.0066790949957641335 -0.0041656057158883783 0.013610459774501199 0.018215008066466597 -0.0029954877520407064 0.0091014403337210861 0.010763366999422467 0.0074959612697914199 0.0059399934954590342 0.020924877711842139 0.031443732518416187 0.026038572437401059 -0.0011677784210242497 -0.00054787350356156098 -1.9072709166576252e-05 0.0003413652953564782 -0.0015187033387574268 -0.0022673433339496433 0.0082261986033520095 -0.0038223475203980634 0.02554353574826701 0.025643078212161875 0.00033241539410649979 -0.005888320100984213 -0.00013159050425049667 0.017774994996339957 0.004600224318686918 0.033071778125820621 0.027491953185138602 0.003472540238050055 0.02007934268415219 0.0075796246245106837 -0.0022039709109287309 -0.0024953659949367613 0.031647173789414493 0.027783617076188177 0.02735147267299658 -0.0035070475203458282 -0.0008534341190479266 0.0076402195677863875 -0.0016885985412435339 0.023208612311408736 0.026290127303925964 0.0023654498905497827 -0.00035589696739667229 -0.0060817838413640864 0.023386242852455167 0.020929329598970873 0.011128209013177057 0.025043736071980589 0.010332456026754033 0.005905840880669447 0.018900779086900035 0.0049510152920705999 0.02775144025006078 -0.00030689361233188531 0.0033593304278141619 0.025244743754898293 0.0070664600494807495 0.020296016963501931 0.019853115461107032 0.014915947885080978 0.010439399974711706 0.019388797271975206 0.0046981216141760811 0.00093192513381331493 0.0082776446298256905 0.012779598617238966 -0.0039879180453362417 0.014461840255693956 0.019597606122465153 0.020399199495982484 -0.0077201458392664795 0.011156565962244966 0.017251991650048707 0.0084396056466621554 0.00064972925127803477 0.018682710511856847 0.029601615091164907 -0.0012723816091985149 0.017265610096124331 -0.00037613995036179181 0.020694412204178694 -0.00118095360773926 -0.0053887592120604082 0.013704428239268998 0.025905641697795301 0.0023712480182753719 0.018673812842313439 0.0034965638199064421 0.025676724495309774 -0.0041752286862130417 0.010319426719679947 0.0013316627596946856 0.01673368373855761 -0.00089556664347551689 0.013638921035924043 0.027368144417726122 0.01513628613181206 0.033618613097025324 0.02643753264996189 0.0041882435967417588 0.0019268456926625419 0.020790431839523942 0.017275241354087686 0.014349247075817065 0.029502498619576809 0.0050675795585486925 0.029296306517617457 0.00081710051561362663 0.011316698306898881 0.025075549611023498 -0.00077818462763119627 0.018017173732493345 0.0074347419006514709 0.027618803536777949 0.01770418598073677 0.00070526834646901504 0.025102297157127175 0.024211144905005186 0.0088032152107164439 -0.0024826917083138663 0.0026415066338771167 0.020794816187449865 0.01936406393003938 0.015706135698809073 0.00092588372156477729 0.0029673694166576312 0.010096380001900036 -0.0015739925641261429 0.015982320530540529 0.0012022962671732393 0.0070030805266322535 0.019789882344858987 0.023691502006207402 0.021431183661350658 0.019176196049039182 0.014365468079631682 0.020698292066448742 -0.0024704343555808569 0.0021704790498022065 0.0065258602543575009 0.025547436475753783 -0.0036233862623190269 0.0055094246960696626 0.015472209574477622 0.021769127545852543 0.032122561039233749 0.013605475467864274 -0.002214647188946667 1.8267587393351562e-05 0.021616519201428604 -2.9896338186834171e-05 0.0097809894381228977 -0.0034820254167160867 0.019693538710888209 0.004298336513487524 0.020947816860708901 0.019399458428637852 0.026903351949231991 0.021243547174127256 -0.0036508302902802828 0.01441332790761804 0.010453056088939169 0.0063962543068768144 0.024977132112725633 0.022837128879391891 0.021936163934050849 0.023490730942855892 0.0033550244123878234 -0.001182468547900263 0.0084282160448164931 0.023420416006248085 0.024862781230737371 0.017075071890543605 0.01199471078068912 -0.0052802736305498652 0.017240976482552194 0.0027287995383625196 0.017224484814200983 0.00077984253286372113 0.0078058227852568557 0.024378889853269459 -0.0048287775598025197 0.00034507564427210699 0.00098882807752000731 -0.0041799889806787205 0.013782776195612216 0.02621952834531123 0.014815160347783955 0.02670690200196987
leaf_weight=154887 4467 73 138 2408 222 34 702 131 3055 261 263 344 28262 197 568 135 553 181 238 314 4509 949 124 661 1232 947 5179 37 91 470 245 407 150 1220 523 83 903 60 305 5224 408 237 107 524 336 122 171 121 247 464 284 292 67 81 396 77 369 43 209 447 101 227 736 296 241 242 138 31 39 237 301 141 163 88 83 9599 445 102 292 116 593 2828 3583 3497 124 124 36 107 457 209 1909 784 44 807 262 155 106 168 42 92 724 231 168 32 230 209 213 342 375 704 211 271 44 1206 483 69 193 1149 108 228 148 173 353 72 88 5013 154 275 228 534 72 337 478 4881 757 405 150 95 2062 196 119 105 22 357 744 81 313 625 33 462 247 274 427 723 297 691 289 193 189 4015 573 127 217 454 117 376 725 190 82 35 27 1211 296 317 363 433 203 140 294 178 257 35 1114 325 821 164 161 116 471 335 1460 35 317 1381 52 535 1204 65 289 82 40 39 132 166 217 352 425 1066 371 431 230 108 44 684 76 190 108 277 133 32 117 192 77 286 1671 246 770 276 587 462 1635 326 398 433 112 1164 159 86 156 843 541 14012 1031 151 283 182 954 285 320
leaf_count=154887 4467 73 138 2408 222 34 702 131 3055 261 263 344 28262 197 568 135 553 181 238 314 4509 949 124 661 1232 947 5179 37 91 470 245 407 150 1220 523 83 903 60 305 5224 408 237 107 524 336 122 171 121 247 464 284 292 67 81 396 77 369 43 209 447 101 227 736 296 241 242 138 31 39 237 301 141 163 88 83 9599 445 102 292 116 593 2828 3583 3497 124 124 36 107 457 209 1909 784 44 807 262 155 106 168 42 92 724 231 168 32 230 209 213 342 375 704 211 271 44 1206 483 69 193 1149 108 228 148 173 353 72 88 5013 154 275 228 534 72 337 478 4881 757 405 150 95 2062 196 119 105 22 357 744 81 313 625 33 462 247 274 427 723 297 691 289 193 189 4015 573 127 217 454 117 376 725 190 82 35 27 1211 296 317 363 433 203 140 294 178 257 35 1114 325 821 164 161 116 471 335 1460 35 317 1381 52 535 1204 65 289 82 40 39 132 166 217 352 425 1066 371 431 230 108 44 684 76 190 108 277 133 32 117 192 77 286 1671 246 770 276 587 462 1635 326 398 433 112 1164 159 86 156 843 541 14012 1031 151 283 182 954 285 320
internal_value=0 0.00662971 0.0115984 -0.00207335 0.0130071 0.0144379 0.0109021 0.00322777 0.00382053 0.0154323 0.00787431 0.0162217 -0.00401612 0.00947233 0.0055128 0.0098624 0.016511 0.0124476 0.00898119 0.0171051 -0.00560106 0.00613746 0.00330357 0.0115485 0.0128459 0.0114125 -0.00165433 0.0125058 0.0172489 0.0129745 0.00311898 0.00232183 0.00641877 0.0146596 0.00731774 0.00801515 0.00910817 0.0104608 0.0178854 0.00567484 0.00933433 0.0090958 0.0117129 0.0128861 0.014212 0.00497198 0.013072 0.0138782 0.00892142 0.0128032 0.0110038 0.0135633 0.012308 0.021548 0.0163094 0.0161504 0.0244935 0.0062697 0.00960757 0.0021987 0.00125149 0.00697852 0.0016294 0.0185834 0.000398457 0.0124372 0.0209025 0.0157196 0.0038335 0.0156541 0.00722986 0.0132623 0.012763 0.0151719 0.0157319 -0.00324392 0.00345313 0.0186214 0.0183927 0.00564369 0.00216665 -0.00332583 -0.00211623 0.0152794 0.0147709 0.0198962 0.00732104 0.021123 0.0169288 0.0152794 0.000510204 -0.0006573 0.0185027 0.0205934 0.0159621 0.00426575 0.0224055 0.0204246 0.017972 0.0160997 0.0189219 0.013829 0.0194993 0.018957 0.0183519 0.0106141 0.0173178 0.0129675 0.0173496 0.00790566 0.0150402 0.0110577 0.00946914 0.00371936 0.0115108 0.00908694 0.0169839 0.0183395 0.018728 0.015746 0.0208321 0.00577425 0.00952985 0.0154551 0.0184367 0.0112301 0.00923368 0.0124928 0.00804036 0.0162478 0.00985924 0.00789758 0.00867291 0.00922563 0.0038863 0.019387 0.0194802 0.0188103 0.0158307 0.00131138 0.00758385 0.0124932 0.0242789 0.0106335 0.0223732 0.0183911 0.0116066 0.00480342 0.00180475 0.0018876 0.00275425 0.0056246 0.0107135 0.00141289 0.0179742 0.0241587 0.0110769 0.0276792 0.0213142 0.00314991 0.00192644 0.00534924 0.0222014 0.0179024 0.0179014 0.00836683 0.027285 0.014468 0.0135228 0.0142736 0.0191599 0.0131336 0.0159386 0.02539 0.0100001 0.007608 0.013423 0.0164516 0.0159529 0.00493194 0.00665163 -0.000983761 0.0173665 0.00345183 0.00484832 0.0114338 0.0195864 0.00964732 0.0125129 0.00336095 0.00595437 -0.00180799 0.0192187 0.019 0.0141616 0.0195671 0.0182146 0.0164349 0.0119014 0.0167669 0.00624902 0.0156351 0.0163634 0.0206325 0.0163078 0.0250798 0.0188478 0.000115714 0.0041354 0.0192044 0.00351165 0.0201566 0.0145907 0.01697 0.018154 0.0282052 -0.00102835 0.0233432 0.0128934 0.0167363 0.00570726 0.0167498 0.0194978 0.0182049 0.0215063 0.0161349 0.0213678 0.00579946 0.000948774 0.0116526 0.0216679 0.0183401 0.0145886 0.0091163 0.000400563 0.0166465 0.0141248 0.0154136 0.00662381 0.0050673 0.0215732 -0.00579795 0.00201568 0.00866585 0.000432915 0.0188746 0.024562 0.0114004 0.0228695
internal_weight=0 154612 98422 56190 84244 65880 14461 14178 13930 51419 18364 42802 42260 13745 4728 13598 41575 5303 3761 36272 183007 8421 4083 9017 7513 6281 13998 2508 35958 6117 4619 4374 1227 7096 7481 6958 5990 5054 28862 10875 898 4500 5174 4407 3844 767 3544 3373 1110 5334 3729 2950 2658 554 2263 1638 494 2438 1418 860 968 1181 1020 1304 977 2062 1542 7320 563 1266 7472 1029 1303 1848 491 14108 692 21542 20705 870 630 8819 5991 6727 240 943 796 960 564 7015 3476 885 20603 4171 1173 199 2998 2191 16432 5531 10901 1110 9791 9067 974 1005 4526 1108 717 796 712 482 125 5651 8617 413 1605 1412 3418 1414 2004 810 526 888 646 8356 3238 1624 743 881 347 6754 5660 5359 1094 8782 8750 7654 6439 779 315 5118 837 430 1404 660 1533 661 936 3694 3232 1548 701 847 418 1096 384 300 1962 5221 1253 700 1814 643 819 484 863 4091 3405 3215 686 2856 1507 344 1349 947 514 262 1781 391 334 505 1487 1532 1310 489 930 818 587 369 1614 1944 7270 7120 747 6373 3877 2496 867 578 322 402 5194 574 367 815 1629 1684 618 513 282 425 1140 804 760 542 5757 359 342 260 285 389 645 2348 2085 414 1008 311 718 689 2496 861 479 576 143 5062 1565 1406 242 1504 769 168899 1290 259 492 273 1171 373 486
internal_count=337619 154612 98422 56190 84244 65880 14461 14178 13930 51419 18364 42802 42260 13745 4728 13598 41575 5303 3761 36272 183007 8421 4083 9017 7513 6281 13998 2508 35958 6117 4619 4374 1227 7096 7481 6958 5990 5054 28862 10875 898 4500 5174 4407 3844 767 3544 3373 1110 5334 3729 2950 2658 554 2263 1638 494 2438 1418 860 968 1181 1020 1304 977 2062 1542 7320 563 1266 7472 1029 1303 1848 491 14108 692 21542 20705 870 630 8819 5991 6727 240 943 796 960 564 7015 3476 885 20603 4171 1173 199 2998 2191 16432 5531 10901 1110 9791 9067 974 1005 4526 1108 717 796 712 482 125 5651 8617 413 1605 1412 3418 1414 2004 810 526 888 646 8356 3238 1624 743 881 347 6754 5660 5359 1094 8782 8750 7654 6439 779 315 5118 837 430 1404 660 1533 661 936 3694 3232 1548 701 847 418 1096 384 300 1962 5221 1253 700 1814 643 819 484 863 4091 3405 3215 686 2856 1507 344 1349 947 514 262 1781 391 334 505 1487 1532 1310 489 930 818 587 369 1614 1944 7270 7120 747 6373 3877 2496 867 578 322 402 5194 574 367 815 1629 1684 618 513 282 425 1140 804 760 542 5757 359 342 260 285 389 645 2348 2085 414 1008 311 718 689 2496 861 479 576 143 5062 1565 1406 242 1504 769 168899 1290 259 492 273 1171 373 486
is_linear=0
shrinkage=0.1


Tree=3
num_leaves=250
num_cat=0
split_feature=12 12 12 12 11 11 2 0 11 12 9 5 12 3 9 6 6 1 4 4 12 11 9 12 4 11 11 11 8 12 7 4 7 9 5 11 1 12 0 5 7 4 9 1 4 4 1 4 1 11 5 7 1 6 4 4 1 4 12 1 7 4 7 11 11 4 0 4 5 1 4 0 11 0 3 7 0 3 0 5 0 7 5 9 7 9 4 8 7 1 0 2 1 11 5 3 7 5 1 4 11 9 6 4 11 4 9 7 11 1 0 9 11 1 4 4 4 4 1 6 1 9 7 3 5 6 0 0 3 4 0 6 3 4 4 1 7 0 3 9 0 4 1 4 4 6 1 5 7 11 4 2 2 0 5 4 6 0 11 6 0 12 6 4 3 11 9 0 4 9 0 5 9 11 4 4 9 0 9 11 11 11 4 6 1 7 1 6 5 1 0 4 4 9 11 11 0 0 12 9 12 0 11 7 7 4 4 7 9 9 1 5 7 0 0 0 1 9 9 11 2 8 9 0 4 0 2 7 0 0 9 4 11 9 5 9 9 5 4 7 4 9 7 8 1 7 5 9 3
split_gain=1015.49 541.55 94.0081 52.1157 50.1126 18.7617 19.9526 14.222 13.8108 12.894 11.3036 9.83276 9.45716 9.15234 11.8322 8.80751 8.12914 12.5892 7.57486 6.95169 6.87957 6.40882 6.2968 6.14171 6.375 5.54262 5.48718 5.21535 5.08074 4.80067 4.35231 4.33812 4.3832 4.24677 4.2051 4.14765 4.02495 3.72647 3.64371 3.62492 3.4646 4.72208 5.37392 3.45438 6.58403 6.12757 4.87928 9.30104 5.42592 7.35061 5.3641 5.23206 3.58492 4.06143 3.25029 7.51235 4.45174 3.23355 3.14015 3.45813 3.08493 4.28543 3.07655 3.06624 2.8756 2.82543 2.81002 3.22747 2.78863 2.64254 2.63373 2.88756 2.53837 2.38917 2.32011 2.29198 2.25774 4.16189 2.23642 2.75161 2.30663 2.23526 3.84896 2.1779 2.16943 2.14327 2.07423 2.06648 2.04325 2.08455 2.04279 2.03653 2.03301 3.02344 1.93069 1.84612 1.82711 2.83528 2.65571 3.43061 2.5871 4.08497 2.35133 2.29017 3.24375 3.62233 3.71791 2.795 2.59643 4.40439 2.92034 4.18425 2.49926 4.01686 4.56424 4.78192 1.91693 1.9143 1.80221 1.78872 1.76093 1.74778 1.91268 1.73604 1.7335 2.22868 1.71242 1.70673 2.80314 2.19929 2.44979 1.8926 2.27416 1.68748 2.22138 1.95845 1.74366 1.68739 1.66144 1.6468 1.62581 1.62446 1.61516 1.613 1.61281 1.61087 1.8386 1.6108 1.60778 1.60764 1.73818 3.16903 1.60156 1.59114 1.58373 1.73107 1.55927 1.53089 1.51792 1.51475 1.50248 1.50232 1.54019 2.07254 1.49369 1.46964 2.63129 2.6926 2.20429 2.03335 2.15764 1.68443 1.52116 1.47287 3.07895 3.70698 1.45938 1.45208 1.43633 1.42616 1.99584 2.0351 1.5832 3.42984 2.06429 2.48294 1.38868 1.38261 2.32377 1.37307 1.37228 1.37056 1.36311 1.36175 1.35814 1.39189 1.76615 1.35539 1.39652 1.35532 1.344 2.04898 1.33741 1.58248 2.8702 1.46675 1.79769 2.23841 2.65744 2.05283 1.91737 1.86654 1.45916 1.45316 1.37783 1.32789 1.32516 1.32405 1.95331 1.31897 1.31704 1.31486 1.31305 2.07456 1.74035 1.57047 1.58625 1.48018 1.31065 1.30674 2.48453 1.30278 1.35809 1.29752 1.29675 1.29621 1.29469 1.29443 2.50837 2.11189 1.29247 1.32418 2.01669 1.69091 1.50851 3.56363 1.69781 1.50603 2.27179
threshold=12.500000000000002 19.500000000000004 13.500000000000002 20.500000000000004 9.5000000000000018 2.5000000000000004 5.1850000000000014 44.415000000000006 9.5000000000000018 18.500000000000004 23.005000000000006 15.055000000000001 21.500000000000004 44.57500000000001 56.455000000000005 0.03500000000000001 0.60500000000000009 0.89500000000000013 1010.0750000000002 1031.2050000000002 11.500000000000002 9.5000000000000018 32.015000000000008 18.500000000000004 1024.6350000000004 11.500000000000002 9.5000000000000018 2.5000000000000004 0.0073500000000000015 14.500000000000002 327.50000000000006 1001.9550000000002 312.50000000000006 3.8250000000000006 16.035000000000004 5.5000000000000009 0.30500000000000005 17.500000000000004 55.215000000000011 13.455000000000002 243.50000000000003 1018.5350000000001 19.655000000000005 0.81500000000000006 1000.8500000000001 994.58500000000015 0.65500000000000014 1008.5350000000001 0.44500000000000006 1.5000000000000002 12.865 145.50000000000003 0.74500000000000011 0.075000000000000025 1010.8050000000001 1014.1400000000001 0.92500000000000016 1020.2150000000001 17.500000000000004 0.50500000000000012 203.50000000000003 1015.2650000000001 304.50000000000006 8.5000000000000018 7.5000000000000009 1017.3250000000002 6.080000000000001 1026.2250000000001 8.6750000000000025 0.31500000000000006 1018.9850000000001 44.895000000000003 3.5000000000000004 46.735000000000007 34.895000000000003 20.500000000000004 34.635000000000012 29.555000000000003 58.045000000000009 4.5850000000000009 66.115000000000023 287.50000000000006 5.745000000000001 26.605000000000004 154.50000000000003 12.535000000000002 1008.7850000000001 0.00095000000000000011 157.50000000000003 0.53500000000000014 19.940000000000005 3.8000000000000003 0.32500000000000007 5.5000000000000009 1.6250000000000002 26.075000000000003 302.50000000000006 3.2650000000000001 0.62500000000000011 1019.5950000000001 4.5000000000000009 28.805000000000003 0.03500000000000001 1019.1750000000001 3.5000000000000004 1021.0850000000002 24.785000000000004 222.50000000000003 3.5000000000000004 0.50500000000000012 51.105000000000011 41.945000000000007 7.5000000000000009 0.42500000000000004 1028.345 1030.8550000000002 1013.1150000000001 1019.8050000000001 0.39500000000000007 0.27500000000000008 0.30500000000000005 44.615000000000009 220.50000000000003 19.355000000000004 5.785000000000001 0.03500000000000001 21.590000000000003 55.215000000000011 43.295000000000009 1018.2150000000001 41.875000000000007 0.025000000000000005 35.125000000000007 995.81500000000017 1008.6750000000001 0.92500000000000016 186.50000000000003 70.905000000000015 26.405000000000005 4.4150000000000009 62.225000000000001 1026.7450000000001 0.91500000000000015 1019.3350000000002 1022.7050000000002 0.75500000000000012 0.63500000000000012 10.915000000000001 117.50000000000001 11.500000000000002 1015.9050000000001 8.7950000000000017 7.4050000000000011 74.27500000000002 8.6750000000000025 1015.3250000000002 0.085000000000000006 73.89500000000001 1.5000000000000002 0.13500000000000004 16.860000000000003 18.500000000000004 0.045000000000000005 1015.6050000000001 32.430000000000007 3.5000000000000004 23.005000000000006 42.670000000000009 1016.5150000000001 48.625000000000007 69.905000000000015 8.4250000000000025 7.3200000000000012 7.5000000000000009 1015.7550000000001 1012.2650000000001 22.325000000000003 55.215000000000011 41.275000000000013 1.5000000000000002 9.5000000000000018 2.5000000000000004 1023.8950000000001 0.03500000000000001 0.6150000000000001 275.50000000000006 0.47500000000000003 0.095000000000000015 3.3950000000000005 0.82500000000000007 39.135000000000005 1030.8550000000002 1006.9050000000001 70.385000000000019 8.5000000000000018 3.5000000000000004 48.795000000000009 56.275000000000013 16.500000000000004 25.905000000000005 22.500000000000004 57.535000000000004 4.5000000000000009 23.500000000000004 14.500000000000002 1016.3550000000001 1011.6350000000001 209.50000000000003 63.985000000000007 45.07500000000001 0.7350000000000001 6.1350000000000007 250.50000000000003 57.105000000000011 69.690000000000012 31.010000000000002 0.62500000000000011 54.665000000000006 58.725000000000001 6.5000000000000009 7.8450000000000006 0.024650000000000002 11.325000000000001 40.195000000000007 1007.7450000000001 42.145000000000003 6.6850000000000014 72.500000000000014 39.515000000000008 53.925000000000004 56.225000000000001 1030.095 3.5000000000000004 48.225000000000001 5.4050000000000011 42.585000000000008 30.775000000000002 4.2550000000000008 1014.4950000000001 263.50000000000006 1026.4650000000004 55.835000000000008 354.50000000000006 0.0049500000000000004 0.42500000000000004 210.50000000000003 7.3850000000000007 30.535000000000004 39.735000000000007
decision_type=2 2 2 2 2 2 2 2 2 2 2 2 2 2 2 2 2 2 2 2 2 2 2 2 2 2 2 2 2 2 2 2 2 2 2 2 2 2 2 2 2 2 2 2 2 2 2 2 2 2 2 2 2 2 2 2 2 2 2 2 2 2 2 2 2 2 2 2 2 2 2 2 2 2 2 2 2 2 2 2 2 2 2 2 2 2 2 2 2 2 2 2 2 2 2 2 2 2 2 2 2 2 2 2 2 2 2 2 2 2 2 2 2 2 2 2 2 2 2 2 2 2 2 2 2 2 2 2 2 2 2 2 2 2 2 2 2 2 2 2 2 2 2 2 2 2 2 2 2 2 2 2 2 2 2 2 2 2 2 2 2 2 2 2 2 2 2 2 2 2 2 2 2 2 2 2 2 2 2 2 2 2 2 2 2 2 2 2 2 2 2 2 2 2 2 2 2 2 2 2 2 2 2 2 2 2 2 2 2 2 2 2 2 2 2 2 2 2 2 2 2 2 2 2 2 2 2 2 2 2 2 2 2 2 2 2 2 2 2 2 2 2 2 2 2 2 2 2 2
left_child=20 2 7 8 5 6 143 179 38 11 31 16 26 23 22 30 19 18 145 29 -1 72 -15 24 25 54 27 -5 63 36 33 -6 123 144 43 62 190 76 118 95 41 75 -43 44 45 -17 48 81 73 50 58 -49 53 -53 121 -56 60 -55 59 -50 148 -62 164 68 91 86 -51 -68 199 -39 87 83 -9 139 -22 -35 147 -78 79 -30 -80 82 -48 -72 153 160 -61 -63 89 -74 -32 142 -90 -94 220 -34 103 98 99 -98 -99 -102 -100 108 107 159 -107 -105 109 -79 -110 -112 113 -108 178 -116 -104 -118 138 -84 -11 122 -12 176 157 -126 216 128 129 130 -122 132 231 -113 136 202 -135 165 -3 -46 -91 -129 -19 -4 -8 -18 -147 -31 -57 150 151 -24 -45 191 161 -156 -137 189 234 229 -42 162 -153 -164 -13 168 -167 -168 171 173 219 -96 -170 174 175 -169 -33 -65 -115 -2 181 -181 183 -183 185 -185 -161 -111 -189 -114 -7 -38 -130 -138 195 -76 -197 198 -152 -20 201 -14 -136 204 -204 206 -205 210 209 -209 213 -212 -211 -208 -206 -92 -67 -207 -219 -171 -71 -66 -160 224 -224 -225 -227 -228 -125 -106 -231 232 -131 -175 -120 -201 -87 -229 239 -239 241 242 244 -243 245 -86 -247 -246 -249
right_child=1 3 4 12 10 9 15 21 -10 120 13 35 200 14 -16 34 17 64 28 -21 74 -23 149 -25 -26 -27 -28 -29 78 37 90 32 39 40 -36 -37 84 69 -40 -41 85 42 -44 152 46 -47 47 51 49 66 -52 52 -54 57 55 56 -58 -59 -60 65 61 70 -64 177 221 126 67 -69 -70 94 71 -73 88 -75 194 -77 77 96 80 -81 -82 -83 119 -85 240 236 -88 -89 92 140 215 -93 93 -95 137 -97 97 100 102 -101 101 -103 116 104 105 106 112 -109 110 187 111 133 124 114 115 -117 117 -119 158 -121 127 -123 -124 228 125 -127 -128 141 192 131 -132 -133 -134 134 135 156 193 -139 -140 -141 -142 -143 -144 -145 -146 146 -148 -149 -150 -151 197 154 -154 -155 155 -157 -158 -159 222 186 -162 -163 163 -165 -166 166 167 169 172 170 -172 -173 -174 233 -176 -177 -178 -179 -180 180 -182 182 -184 184 -186 -187 -188 188 -190 -191 -192 -193 -194 -195 -196 196 -198 -199 -200 235 -202 -203 203 205 214 217 207 208 -210 212 211 -213 -214 -215 -216 -217 -218 218 -220 -221 -222 -223 223 225 -226 226 227 237 -230 230 -232 -233 -234 -235 -236 -237 -238 238 -240 -241 -242 243 -244 -245 247 246 -248 248 -250
leaf_value=-0.0052181535655355868 -0.0040352729438062913 -0.00047865720595885778 0.020712806424560401 -0.0045623511857637369 0.017404204019082197 0.022167019261159489 0.0051918683983785746 0.00085389630150231209 -0.0025022806692415957 0.018448318521067469 0.0088127463656086334 0.0055272445018480151 -0.0049516169488282849 0.015074838451653748 0.017548003561159438 0.00019112150066644235 -0.0056516197143525876 0.0021341232442078583 0.0087541198188079185 0.0005799217535565447 -0.0047906156367300235 -0.0022172022224257325 -0.0023096760749675535 0.0045605722562573224 0.01813855342141452 0.0032211359473615429 -0.0052637467699800777 0.00070490850134444477 0.028407547280595108 0.022571784629853549 -0.0010028037013890335 0.0026210949322085925 0.00013713798669201123 -0.003530264345722066 -0.0018873129727366819 0.014676999888615684 0.0082213535973375534 0.023259730573560372 0.0070111443308319803 0.020385866688072758 0.030576902078954801 0.015869928661099535 -0.00042854624818236873 0.0099116799990443521 0.015224879384697715 0.024792707671481624 -0.0021982745088276611 0.0012000865586742294 0.02000431491686713 0.023597300340506167 0.016320346489725312 0.025647104379203586 0.023981954768652405 0.012905195601896095 -0.0021365429236055327 0.0083164035909825962 0.020826021198625106 -0.0065170620201211995 6.9730945243032973e-05 0.012320695812272471 -0.0015845587007025622 0.018455045676915038 0.017930849543157615 0.018032456857043428 0.016498585358115561 0.013293841994275246 -0.0040926709103773686 0.0092998862330239476 0.0081912965061476557 -0.0043472610688321802 0.012335075418020345 0.019368960832225834 0.010880930966013147 0.023011838805017084 -0.0047140128204823592 0.022366997677879821 -0.0014226056689857103 0.022989182046627348 0.01977550165538124 0.00029917387955428782 -0.0015340612183025184 -0.00217746587590737 0.0079042695918408422 -0.0008991953066730924 -0.0059302296447619968 -0.00055514148888473303 0.0013156809442680544 0.0070203653468982018 0.00070905365931188402 -8.6038257980581745e-07 0.0191617008395817 0.02444479958237826 0.013753199230555178 0.0074216042115761221 0.0039746096251225783 0.010412145086179325 0.028482456166635861 0.025005255104706171 0.024616325232164782 -0.0031563427901616504 -0.00076809070091738525 0.019355696382601824 0.021047618853981084 0.024673801317954078 -0.0015040820124415579 -0.0025614508819126881 -0.0022767133765661299 0.0078950199743200843 0.023661114734680959 0.0021289048839644711 0.0051365326695387223 -0.0054736055084504192 0.0070414895617055863 0.029509934828842455 -0.0023540088175360309 0.02330531239196772 0.0021052280739356304 0.01501338777021877 0.0048109188317590904 0.0225952448766856 0.0030233974099690944 0.0063598141129070727 0.018266415909610308 -0.0017124388042219709 0.018896037358483806 0.0031541801860708093 0.0059373465985416958 0.011511562702151529 -0.0035891262696475371 0.018751403855451619 0.015062634330242873 0.018359279500823111 -0.0069481312918166331 0.0047134976736024807 0.026641453127066297 -0.0011451434175538261 0.023972866418200116 0.01638442665935811 0.013415221560022486 0.0024574380580281076 0.0064468363256078472 -0.00061290826206378832 0.023121523898817713 0.02941916122680574 0.021712167637411208 0.023234250081910029 0.0025569105039320987 -0.0048498832874677399 -0.0010694151271850019 -0.0061284124486300417 0.0080394908215625244 0.0045630338602353025 9.5498803811204906e-05 0.016806431745473568 -0.0042015698379770771 0.010433435757850646 0.013622657323537506 0.023907838117378621 -0.0024607037334765033 0.0085290613007964564 0.0098925849496483507 0.0026743777952068452 0.018238799801945468 0.00050513346370280484 -0.0036846103752326644 0.00073539038690413649 0.021008851960389603 0.0052195107688816824 -0.00070036619349762245 0.020607582680471841 0.006691267644468148 0.019119192203296758 0.023904794887216696 0.015933767070585848 0.00063474153515124079 0.022592067071741329 0.022725546440562686 0.0023773559344006552 0.021121512279216811 -0.0013412446300641197 -0.0023275566294790563 0.018221839734970931 -0.0010428041311337378 -0.0036762339103644116 -0.0009891571817923139 0.015528816444883971 0.019225740159650249 -0.001416593346471802 0.014384088055339431 0.015637127951319017 0.0010820666476871312 0.027766362879727335 0.0063027723545761947 0.012562861044223271 -0.0039958144798927838 0.0039723857837130217 -0.0013602312149901734 -0.0026158323523357168 -0.00044847402646805027 0.024801683284436604 -0.0053536040092525845 -0.0024834398659189074 0.018140935819171478 0.019288065714103613 0.0031604874187647794 0.023295673167047514 -0.0059989456871622493 -0.0022233909175086481 0.0033168825303266551 0.0079172077598141308 0.018687654131402574 0.0095387845473681853 0.019454867600826892 0.022067149759246878 0.022992693483829499 0.0040619996208618638 0.030238641911669625 0.011797271810011917 0.019801404726336385 0.013735664100168113 0.01002632484565299 0.006369645603157956 -0.004690902283693725 -0.0053758004199418834 0.0086249416304122386 0.01685601835737803 -0.0012408958433939123 0.00041978613070930439 0.017810893399374826 0.014838457382657514 0.0038286425558177609 0.024572818260639909 0.0021141335182619514 -0.0032610475634917238 -0.0023898679693333683 0.017147607020441272 0.018061114315475739 -0.003883743262782062 0.01401244987552408 0.0077033288423800864 0.0049584823795047472 0.012113357081710172 0.0055981716531096036 0.019594592366922188 0.024644164977786698 -0.0025380026115927588 0.018511306508232586 0.00062163730146056872 0.017976867264123536
leaf_weight=168899 1174 119 482 2408 195 34 64 718 3055 261 263 280 8495 389 645 133 239 81 110 314 4509 949 490 1504 1232 947 3020 8570 37 815 296 1495 367 36 476 367 1183 305 5224 197 38 572 313 211 249 424 243 224 205 44 551 225 554 639 455 476 449 99 760 215 205 965 106 77 445 111 1190 212 296 73 220 188 399 215 1029 674 128 292 167 593 73 421 190 286 89 338 842 189 334 901 115 769 964 3465 164 334 44 807 262 155 106 2085 230 498 146 111 84 124 724 231 285 32 232 264 163 131 189 293 354 147 483 193 1149 1959 129 297 146 5005 154 83 260 534 72 57 150 95 921 2348 311 170 691 113 67 381 771 45 969 22 296 245 327 199 783 313 211 131 289 177 312 235 463 242 374 80 474 190 359 311 27 437 296 133 362 363 433 203 37 257 900 1092 2172 202 371 97 429 220 251 116 471 934 335 37 1460 118 2593 704 5273 919 476 395 14199 5568 425 1381 282 672 19 65 307 147 447 445 431 635 40 118 79 387 1437 774 503 180 107 226 1187 84 624 498 35 371 458 72 120 39 852 503 42 258 316 403 132 1996 160 356 321 43 352 79 1666
leaf_count=168899 1174 119 482 2408 195 34 64 718 3055 261 263 280 8495 389 645 133 239 81 110 314 4509 949 490 1504 1232 947 3020 8570 37 815 296 1495 367 36 476 367 1183 305 5224 197 38 572 313 211 249 424 243 224 205 44 551 225 554 639 455 476 449 99 760 215 205 965 106 77 445 111 1190 212 296 73 220 188 399 215 1029 674 128 292 167 593 73 421 190 286 89 338 842 189 334 901 115 769 964 3465 164 334 44 807 262 155 106 2085 230 498 146 111 84 124 724 231 285 32 232 264 163 131 189 293 354 147 483 193 1149 1959 129 297 146 5005 154 83 260 534 72 57 150 95 921 2348 311 170 691 113 67 381 771 45 969 22 296 245 327 199 783 313 211 131 289 177 312 235 463 242 374 80 474 190 359 311 27 437 296 133 362 363 433 203 37 257 900 1092 2172 202 371 97 429 220 251 116 471 934 335 37 1460 118 2593 704 5273 919 476 395 14199 5568 425 1381 282 672 19 65 307 147 447 445 431 635 40 118 79 387 1437 774 503 180 107 226 1187 84 624 498 35 371 458 72 120 39 852 503 42 258 316 403 132 1996 160 356 321 43 352 79 1666
internal_value=0 0.00596674 0.0104385 -0.00186601 0.0117064 0.0129941 0.00981193 0.002905 0.00343848 0.013889 0.00708688 0.0145996 -0.00361451 0.0085251 0.00496152 0.00887616 0.0148599 0.0112029 0.00808307 0.0153946 -0.00504095 0.00552372 0.00297321 0.0103936 0.0115613 0.0102712 -0.0014889 -0.000450453 0.0112552 0.015524 0.0129331 0.00280708 0.00216367 0.0142788 0.00727964 0.0057769 0.0131937 0.0160969 0.00510736 0.00840089 0.0121991 0.0149791 0.0101056 0.00774974 0.00841783 0.0189184 0.00766129 0.01105 0.00579883 0.00454054 0.00743708 0.0154662 0.0175727 0.0138856 0.0115229 0.00990342 0.0115767 0.0102998 0.0053613 0.00787795 0.0101066 0.012133 0.00197883 0.0145354 0.0188122 0.00609338 -0.0012866 -0.00206755 0.0167251 0.0141476 0.0136547 0.00878662 0.00650687 0.0144421 -0.00291953 0.0210539 0.0167593 0.0165534 0.00507932 0.00194998 0.0132938 0.00336905 0.00739505 0.00485484 0.0137515 0.00716585 0.00355417 0.0165823 0.00710782 0.00441762 0.00451055 0.0223774 0.00823237 0.00879972 0.0137514 0.00503279 0.0166652 0.0185341 0.0143659 0.00383917 0.0201649 0.0183821 0.0165167 0.0161901 0.0145275 0.0136612 0.0154408 0.0213288 0.0170297 0.0124461 0.0175494 0.0170613 0.0160443 0.0189871 0.0202121 0.00907923 0.0135362 0.00995189 0.00334742 0.0143125 0.0103597 0.0152856 0.0165056 0.000575183 0.0134792 0.00792108 0.0140813 0.0101071 0.00831032 0.0112435 0.00723632 0.014623 0.00887331 0.0174483 0.0175322 0.0169292 0.0217428 0.0142476 0.00957017 0.0100448 0.00279773 0.0112439 0.0116352 0.0245565 0.0204459 0.0017338 0.00347454 0.021851 0.0047177 0.00169884 0.00225485 0.00449651 0.00217922 0.0104459 0.00719257 0.00140424 0.00996916 0.0152423 0.00283492 0.0094928 0.0114615 0.00940443 0.0118986 0.0151139 -0.000263762 0.0130212 0.0121705 0.0128463 0.0172439 0.0118202 0.0143447 0.0107565 0.022197 0.00900006 0.0068472 0.0120807 0.00310665 0.00598647 0.023024 -0.000925512 -0.000128903 0.0018518 0.00449532 0.00666267 0.0035327 0.00965219 0.0140535 0.00868259 0.0112616 0.0139268 0.00302485 0.00881411 0.00535894 0.022677 -0.00204061 -0.00131697 -0.00073213 6.67243e-06 0.00300802 0.019231 -0.00466731 -0.00397439 0.0172969 0.0171 0.0127455 0.0176104 0.0163932 0.0147914 0.0109712 0.0146257 0.0171389 0.0141235 0.0165205 0.0212518 0.00562412 0.0115146 0.0203393 0.0195011 0.0181032 0.0162155 0.00820467 0.0135815 0.00376942 0.00429434 0.00752386 0.0025596 0.00338113 0.00284188 -0.00136975 0.00721948 0.00875583 0.0130157 0.00891656 0.0140716 -0.000276204 0.0205144 0.00150244 0.0045691 0.0066841 0.00318069 0.0147271 0.0149818 0.0164886 0.0132457 0.0171719 0.0121468 0.0162199 0.0183492 0.0171912
internal_weight=0 154612 98422 56190 84244 65880 14461 14178 13930 51419 18364 42802 42260 13745 4728 13598 41575 5303 3761 36272 183007 8421 4083 9017 7513 6281 13998 10978 2508 35958 3840 4619 4424 3311 9758 1227 7096 28862 10875 898 2476 1595 885 9282 8288 557 7731 2742 4989 4355 2909 1741 1517 963 5334 3729 3274 738 2358 1598 2825 2053 860 1638 1542 1393 1446 1402 1304 7320 1848 694 7472 634 14108 710 21542 20705 870 630 240 1001 580 506 6727 881 1057 1154 6754 1991 529 917 4763 4429 7015 701 20577 4171 1173 199 2998 2191 974 16406 5505 4883 3422 622 10901 1110 9791 9067 3311 1542 1458 294 712 482 5651 337 8617 1605 1412 3526 1769 426 336 8356 3238 1624 743 881 347 8782 8750 7654 1096 6439 430 419 1592 5118 148 863 835 1253 1014 837 772 3694 3449 1727 994 1533 1237 342 384 1343 5221 1461 501 895 653 454 754 4091 3405 3215 686 2856 1507 297 389 1349 947 514 1532 334 1164 5757 4583 2411 1319 948 746 317 486 818 587 1166 369 1220 1614 1039 9599 7006 5977 1722 803 1008 28262 14063 7270 7120 747 6373 3877 2496 950 643 1546 892 578 654 322 233 190 2496 1824 1211 576 625 4015 3703 1294 2409 2183 2099 1994 975 829 275 203 402 1206 898 380 1475 977 661 5194 5062 2710 2352 2550 484 395 2066 1745
internal_count=337619 154612 98422 56190 84244 65880 14461 14178 13930 51419 18364 42802 42260 13745 4728 13598 41575 5303 3761 36272 183007 8421 4083 9017 7513 6281 13998 10978 2508 35958 3840 4619 4424 3311 9758 1227 7096 28862 10875 898 2476 1595 885 9282 8288 557 7731 2742 4989 4355 2909 1741 1517 963 5334 3729 3274 738 2358 1598 2825 2053 860 1638 1542 1393 1446 1402 1304 7320 1848 694 7472 634 14108 710 21542 20705 870 630 240 1001 580 506 6727 881 1057 1154 6754 1991 529 917 4763 4429 7015 701 20577 4171 1173 199 2998 2191 974 16406 5505 4883 3422 622 10901 1110 9791 9067 3311 1542 1458 294 712 482 5651 337 8617 1605 1412 3526 1769 426 336 8356 3238 1624 743 881 347 8782 8750 7654 1096 6439 430 419 1592 5118 148 863 835 1253 1014 837 772 3694 3449 1727 994 1533 1237 342 384 1343 5221 1461 501 895 653 454 754 4091 3405 3215 686 2856 1507 297 389 1349 947 514 1532 334 1164 5757 4583 2411 1319 948 746 317 486 818 587 1166 369 1220 1614 1039 9599 7006 5977 1722 803 1008 28262 14063 7270 7120 747 6373 3877 2496 950 643 1546 892 578 654 322 233 190 2496 1824 1211 576 625 4015 3703 1294 2409 2183 2099 1994 975 829 275 203 402 1206 898 380 1475 977 661 5194 5062 2710 2352 2550 484 395 2066 1745
is_linear=0
shrinkage=0.1


Tree=4
num_leaves=250
num_cat=0
split_feature=12 12 12 12 11 11 2 3 11 12 9 5 12 12 6 6 1 11 4 9 9 12 4 0 8 11 12 6 7 7 9 5 11 1 11 4 11 12 9 6 1 7 7 4 0 0 9 4 6 4 1 1 9 5 1 4 7 4 4 7 7 0 7 9 11 11 0 0 6 11 0 6 5 1 2 4 3 0 0 7 6 12 9 5 3 0 3 0 5 9 7 7 11 11 9 1 0 0 7 0 2 5 2 3 3 5 1 11 11 7 5 7 9 0 11 9 4 0 11 9 1 11 1 0 9 11 9 0 5 8 4 8 12 0 1 9 3 0 4 0 0 9 4 6 0 6 6 3 4 7 9 1 4 4 1 6 3 11 8 5 5 6 7 6 4 5 6 3 7 1 11 7 1 4 0 7 7 9 1 6 11 0 9 4 1 0 11 4 3 4 0 6 7 9 0 0 0 5 6 6 4 9 1 5 4 9 6 12 5 11 0 0 6 5 9 7 0 12 8 11 11 6 4 4 1 9 0 1 8 5 7 2 5 7 7 9 0 11 11 9 4 5 4 12 12 9 9 6 1
split_gain=822.549 438.656 76.1466 42.2137 40.5912 15.197 16.1616 11.5907 11.1867 10.4442 9.1559 7.96453 7.6603 7.6027 7.13408 6.58461 10.1972 6.38903 6.13564 5.83703 10.1262 5.72854 5.63087 4.59555 4.1154 3.89083 3.88854 3.56521 3.66099 3.52537 3.43988 3.40613 3.3596 3.26021 3.2447 3.19812 3.01986 3.01844 2.93864 7.12126 5.07047 5.41796 3.80588 2.88793 2.87666 4.02032 3.09507 3.0164 5.28094 3.30558 5.96146 3.73808 6.14305 4.83694 4.20808 3.52183 2.80633 3.82488 4.42272 2.78737 3.80155 2.6186 2.58453 2.53274 2.48365 2.39413 2.49786 2.86669 2.3398 2.32924 2.29217 2.28792 2.25879 2.21923 2.21384 4.425 3.08749 2.21232 2.19472 2.16239 2.12528 2.02414 1.98097 1.95848 1.94328 1.82876 3.39386 1.8115 2.22881 1.87427 1.7987 1.74285 1.74026 2.20981 1.73605 1.71553 1.66271 1.65466 1.65121 1.69829 1.64959 1.5994 1.58666 1.77953 1.5747 1.55348 1.54661 1.95164 1.52645 1.51407 3.42901 2.53948 1.84268 2.49457 1.78312 3.51072 1.67833 2.58127 2.62197 2.25374 2.71207 2.03883 3.56755 2.42697 3.30644 1.95975 1.93608 1.78158 1.54831 1.50257 1.49535 1.47983 1.45243 1.43281 1.43086 1.62205 2.06534 2.69559 1.92271 1.98433 1.86962 1.41856 2.23876 1.79173 1.41932 1.41566 1.39496 1.39462 1.72279 1.47123 1.39014 1.37854 1.35816 1.84797 1.7711 1.83828 1.35484 1.35432 1.34621 2.72352 1.33601 1.81453 1.33521 1.33499 2.34517 1.48927 1.31853 2.00059 1.3184 1.31414 1.63438 1.30974 1.30828 1.30638 1.28268 1.28248 3.2655 1.48951 1.28186 1.37614 1.33616 1.27051 1.25935 1.88027 1.25503 1.3504 1.24926 1.87361 1.52681 2.03674 1.81729 1.92302 1.44336 1.33987 1.74769 1.41111 1.2756 1.25907 1.78419 1.24342 1.23829 1.26477 2.43644 1.26674 1.23404 1.22853 1.22805 1.39853 1.21313 1.20555 1.20302 1.35816 1.2008 1.19298 1.1768 1.26048 1.17618 1.20555 1.16437 1.47923 1.45377 1.19295 1.15469 1.138 1.51674 1.64711 1.24513 1.21442 1.58909 1.62496 1.38788 1.80443 1.34939 1.31812 1.67901 1.31206 1.98266 1.25442 1.48576 1.17176 2.44047 2.49766 1.12918 1.12774 1.12659 1.12624 1.41656 1.95174 1.19979
threshold=12.500000000000002 19.500000000000004 13.500000000000002 20.500000000000004 9.5000000000000018 2.5000000000000004 5.1850000000000014 36.930000000000007 9.5000000000000018 18.500000000000004 23.005000000000006 15.055000000000001 21.500000000000004 17.500000000000004 0.03500000000000001 0.60500000000000009 0.89500000000000013 9.5000000000000018 1010.0750000000002 43.255000000000003 56.455000000000005 10.500000000000002 1031.2050000000002 58.370000000000012 0.0073500000000000015 11.500000000000002 14.500000000000002 0.7400000000000001 312.50000000000006 327.50000000000006 3.8250000000000006 16.035000000000004 5.5000000000000009 0.30500000000000005 3.5000000000000004 1024.0250000000003 2.5000000000000004 17.500000000000004 30.985000000000003 0.15500000000000003 0.8650000000000001 277.50000000000006 343.50000000000006 1024.7550000000003 6.080000000000001 14.650000000000002 2.4450000000000007 1020.2150000000001 0.055000000000000007 1017.3250000000002 0.58500000000000008 0.79500000000000015 30.305000000000003 6.785000000000001 0.44500000000000006 999.59000000000015 243.50000000000003 1018.5350000000001 1024.4950000000001 286.50000000000006 351.50000000000006 43.910000000000004 287.50000000000006 26.995000000000001 8.5000000000000018 10.500000000000002 46.990000000000002 31.915000000000003 0.065000000000000016 7.5000000000000009 21.590000000000003 0.7400000000000001 8.6750000000000025 0.29500000000000004 9.9550000000000018 1015.9050000000001 43.905000000000008 43.355000000000011 46.735000000000007 241.50000000000003 0.77500000000000013 14.500000000000002 31.785000000000004 2.5250000000000004 9.7050000000000018 34.635000000000012 28.355000000000004 58.045000000000009 4.5850000000000009 55.240000000000002 37.500000000000007 30.500000000000004 9.5000000000000018 2.5000000000000004 12.535000000000002 0.89500000000000013 48.795000000000009 19.940000000000005 157.50000000000003 62.225000000000001 3.8000000000000003 1.6250000000000002 9.1350000000000033 31.160000000000004 19.355000000000004 9.5250000000000004 0.32500000000000007 5.5000000000000009 8.5000000000000018 305.50000000000006 3.2650000000000001 340.50000000000006 41.580000000000005 53.685000000000009 4.5000000000000009 28.805000000000003 1019.2650000000001 60.185000000000009 5.5000000000000009 20.880000000000006 0.30500000000000005 3.5000000000000004 0.50500000000000012 51.105000000000011 41.945000000000007 6.5000000000000009 25.905000000000005 56.275000000000013 8.2650000000000023 0.0015500000000000004 1016.0950000000001 0.044900000000000002 14.500000000000002 42.835000000000008 0.32500000000000007 50.510000000000012 43.295000000000009 69.905000000000015 1018.2150000000001 41.875000000000007 60.410000000000004 2.4450000000000007 1029.8150000000003 0.015000000000000001 24.245000000000001 0.025000000000000005 0.17500000000000002 28.355000000000004 1023.5050000000001 269.50000000000006 55.240000000000002 0.65500000000000014 995.81500000000017 1008.0650000000002 0.92500000000000016 0.115 38.085000000000008 6.5000000000000009 0.0013500000000000003 8.0550000000000015 6.2550000000000008 0.12500000000000003 282.50000000000006 0.095000000000000015 1020.5850000000002 7.5950000000000006 0.025000000000000005 35.125000000000007 4.5000000000000009 0.48500000000000004 7.5000000000000009 347.50000000000006 0.91500000000000015 1022.7050000000002 62.395000000000003 23.500000000000004 14.500000000000002 57.885000000000005 0.30500000000000005 1.0000000180025095e-35 8.5000000000000018 70.905000000000015 26.795000000000005 1011.6350000000001 0.39500000000000007 52.985000000000007 3.5000000000000004 1017.8750000000001 32.145000000000003 1030.095 42.670000000000009 0.26500000000000007 30.500000000000004 48.625000000000007 69.905000000000015 51.335000000000008 70.175000000000026 5.4350000000000014 0.045000000000000005 0.03500000000000001 1006.9050000000001 36.290000000000006 0.70500000000000007 4.0550000000000006 1022.4450000000002 41.275000000000013 0.28500000000000009 14.500000000000002 10.825000000000001 4.5000000000000009 69.690000000000012 60.915000000000006 0.40500000000000008 8.7450000000000028 53.920000000000009 343.50000000000006 55.215000000000011 16.500000000000004 0.0024500000000000004 4.5000000000000009 7.5000000000000009 0.23500000000000001 1011.1950000000002 1026.4650000000004 0.52500000000000013 26.995000000000001 41.145000000000003 0.67500000000000016 0.013550000000000001 6.9750000000000005 334.50000000000006 9.4050000000000029 2.1650000000000005 154.50000000000003 68.500000000000014 15.865 49.605000000000011 6.5000000000000009 3.5000000000000004 42.965000000000011 1016.6650000000001 10.045000000000002 1008.5350000000001 14.500000000000002 14.500000000000002 45.255000000000003 56.455000000000005 0.30500000000000005 0.7350000000000001
decision_type=2 2 2 2 2 2 2 2 2 2 2 2 2 2 2 2 2 2 2 2 2 2 2 2 2 2 2 2 2 2 2 2 2 2 2 2 2 2 2 2 2 2 2 2 2 2 2 2 2 2 2 2 2 2 2 2 2 2 2 2 2 2 2 2 2 2 2 2 2 2 2 2 2 2 2 2 2 2 2 2 2 2 2 2 2 2 2 2 2 2 2 2 2 2 2 2 2 2 2 2 2 2 2 2 2 2 2 2 2 2 2 2 2 2 2 2 2 2 2 2 2 2 2 2 2 2 2 2 2 2 2 2 2 2 2 2 2 2 2 2 2 2 2 2 2 2 2 2 2 2 2 2 2 2 2 2 2 2 2 2 2 2 2 2 2 2 2 2 2 2 2 2 2 2 2 2 2 2 2 2 2 2 2 2 2 2 2 2 2 2 2 2 2 2 2 2 2 2 2 2 2 2 2 2 2 2 2 2 2 2 2 2 2 2 2 2 2 2 2 2 2 2 2 2 2 2 2 2 2 2 2 2 2 2 2 2 2 2 2 2 2 2 2 2 2 2 2 2 2
left_child=21 2 7 8 5 6 132 -2 36 11 27 15 23 19 29 22 18 34 158 25 74 -1 26 92 64 38 33 28 104 30 173 44 63 -7 -9 -30 80 85 40 102 81 -42 82 -27 -16 -46 -47 49 -49 51 105 52 53 59 78 -54 57 84 -59 83 -61 -23 71 133 72 182 67 95 -57 100 -37 206 243 -39 76 -76 -21 -36 -55 -70 96 -12 -41 -48 -32 147 -87 88 -26 -89 150 -50 93 -5 162 -67 146 -31 99 168 172 245 103 -40 141 -51 199 156 -63 116 111 112 -111 -114 -112 -116 121 119 128 120 145 122 -88 -123 184 -120 -121 129 -119 -128 -69 -53 -4 -13 -11 136 138 140 139 209 200 -6 143 144 -143 -118 160 148 149 -28 163 -82 -126 157 175 -156 -108 -154 -17 -160 -3 -162 -58 165 -165 -35 167 -140 -79 170 -127 178 -18 -8 -34 176 177 -155 -38 -180 -181 186 -15 -184 185 -125 187 -103 189 -188 191 -190 -189 195 -195 218 -196 212 -199 -100 -138 -202 203 -203 -172 -141 -56 -208 -183 -136 211 -178 -197 -175 215 -185 -66 -218 219 -192 221 -221 -104 227 -225 -226 -227 232 229 230 233 -232 -92 234 -229 -234 -237 238 -235 240 241 -238 -177 -20 -33 248 -247 -248 -75
